accelerator -0.020953 0.0466678 -0.0765977 0.0676783 0.0273251 0.0999691 -0.00725384 -0.070312 0.0675687 0.00332968 -0.0425566 0.000247423 -0.0378532 -0.0344169 -0.111856 -0.13579 -0.0662581 0.0448056 0.0498909 -0.00468663 0.0562643 0.0492398 0.0231999 -0.00877808 -0.0686063 -0.00532868 0.0385768 -0.0328483 -0.0758903 -0.06988 -0.0229108 -0.039704 0.0296127 0.0815066 -0.0324705 -0.0846241 0.0435741 -0.125609 0.0817641 -0.100348 0.0142277 0.0835676 -0.054436 -0.0658053 -0.117289 -0.0317876 -0.0070809 0.0014438 -0.0271141 -0.0359234 -0.0982468 -0.0919008 -0.0814515 -0.0613105 0.119958 0.0716898 -0.124684 0.0128106 -0.0524055 -0.0779349 0.057777 0.00582587 -0.0080775 -0.0680813 0.0100337 0.0765679 -0.0252653 0.00432357 -0.119114 -0.0886666 -0.0067655 -0.0965347 0.034535 0.103367 -0.0180543 -0.00883355 -0.00279863 0.0189962 0.0376123 0.104278 0.143072 0.0417309 0.062723 0.0648665 0.0309352 -0.0709922 0.0508981 -0.0115906 -0.0373863 0.0306654 -0.00302331 0.0297512 0.000428375 0.0323184 0.0362871 0.0467838 0.0116411 -0.038268 0.0486238 -0.0795371 -0.0724021 0.0692817 0.0798523 -0.0567686 0.0393217 0.0527869 -0.0762928 -0.0246701 0.0374497 0.102184 -0.0262964 -0.00511135 0.00877659 -0.0122511 -0.018546 -0.0403395 -0.0741675 -0.00634516 -0.0428291 -0.00305348 0.0138507 0.0718179 -0.0372906 0.025961 0.0767723 -0.0875643 0.0407543 -0.0548908 0.0302816 -0.00437666 -0.0201751 -0.0711069 -0.0547197 0.0466838 0.0172831 -0.0162472 -0.0812329 -0.0519427 0.0667369 0.0183331 -0.0631846 0.0696042 -0.0314616 0.0766224 0.0289869 0.0805833 -0.0396424 -0.0280385 -0.00159213 0.0757468 0.00368835 0.0640938 0.00740804 -0.0111197 -0.109021 0.0313289 0.0478032 0.182833 0.0336774 0.0260553 0.0895736 -0.0192326 0.0350449 0.0551097 0.0160339 -0.0580694 0.098226 0.0360449 -0.0650243 -0.047705 0.0286276 0.0587815 -0.0460881 -0.116581 0.0217884 -0.0117908 0.0260252 0.0501715 -0.0794171 -0.00540974 0.111208 -0.0464746 -0.039206 -0.00824218 -0.0172574 -0.0455987 -0.028044 -0.0765555 0.0415084 -0.0259332 0.0386406 -0.0431308 -0.119277 -0.0135386 -0.105559 -0.00594006 0.112512 0.0391652 0.037202 -0.0645753 -0.0930841 -0.00383097 0.0272833 0.00227495 0.0525728 -0.0769133 0.0718739 -0.00148126 -0.0593842 -0.062772 0.0617186 0.04021 0.0580021 0.00855999 0.054926 -0.0326595 0.000608121 0.0712894 0.0136599 0.000796083 0.0889957 -0.0110327 -0.0547883 0.0254782 0.0580105 0.0350859 0.00804617 -0.0392014 0.0370104 0.0968929 0.0305959 -0.033892 0.0200409 -0.0610122 -0.0403329 0.0497872 -0.0419928 0.0571854 0.0723425 -0.0555792 -0.110462 0.0600621 -0.0184488 -0.0351587 -0.0608692 0.0439977 -0.0416897 0.0111979 -0.0437541 -0.0406804 0.0110192 -0.0776223 0.068946 -0.013444 -0.000996351 0.000424939 -0.0667695 -0.116482 -0.00254901 0.00516947 -0.0345665 0.0164263 -0.11213 -0.0473069 0.027153 0.034193 0.000351166 -0.032653 -0.0200308 -0.118921 0.023569 0.0361215 -0.126108 -0.000355932 -0.0157615 -0.0146469 -0.0955987 0.00309668 0.0178272 -0.00563096 -0.0348743 0.0148769 0.00561518 0.0472384 -0.106708 0.046825 0.0769792 0.00208608 -0.026772 0.0575569 -0.0239823 0.0337734 -0.0632675 -0.031228 -0.0578202 0.0497431 0.0798947 -0.0582959 -0.0818295 -0.0828469
accept 0.0508146 0.0672084 -0.0153318 -0.116615 -0.05606 0.00516114 -0.00262439 0.0335045 -0.0552509 -0.017629 0.0177374 0.0549686 -0.0461751 0.00718482 0.0828621 -0.0798801 0.0254002 -0.0214673 0.00636214 0.0625701 -0.0588974 -0.0300996 0.0731199 -0.0465077 -0.0527805 0.0536173 0.00200824 -0.0267898 -0.00646711 -0.0361222 -0.0567368 -0.0672069 -0.0109449 -0.140457 -0.0157428 0.11431 -0.0268888 -0.0781151 -0.0221605 0.158544 0.0542051 -0.0307611 0.0879219 0.142514 0.0800408 -0.0277492 0.0355475 0.0194405 -0.0242838 -0.0711353 0.025716 -0.0193455 -0.0400413 0.0585052 0.0340444 -0.0654557 0.0572502 -0.0334009 0.0167123 -0.00663471 0.0458764 0.0602051 0.00789909 -0.0543258 -0.0645405 0.0495218 -0.0785104 0.0134767 -0.0261243 -0.0224135 0.0593625 -0.0579922 0.00224905 0.0537207 0.0997138 0.0046438 -0.115185 -0.0499673 0.0449419 0.0623621 -0.0588972 -0.00503496 0.0228646 0.0185449 0.0109052 0.0164774 -0.0478291 -0.0385346 -0.11892 0.0105565 -0.0336902 0.126777 -0.0851774 0.0482013 0.0297073 0.049401 0.0474877 0.0375253 -0.0134276 0.0572983 -0.135847 0.0640422 -0.129825 0.0411313 0.0997568 -0.0812499 0.0218909 -0.0863923 -0.0643644 0.0681874 0.0837645 0.11952 -0.00809829 -0.01814 -0.00730305 -0.00831871 0.0509877 0.0121668 0.0396339 -0.0869106 0.0735691 0.00102305 0.00459147 0.00241523 0.00129918 -0.00722188 0.0589458 0.0114309 -0.0723934 0.0123213 0.0178731 0.000111679 -0.0199358 -0.0718182 -0.147749 -0.0333213 -0.0366003 0.0811399 -0.0316338 0.00977678 -0.0185022 0.0341911 -0.0225284 -0.0497482 -0.0460106 0.00888954 0.0662827 0.0361436 -0.0317403 -0.0254064 0.027826 -0.0105523 -0.0550852 0.0434855 -0.113241 0.0136395 -0.0571479 -0.0575592 -0.0312814 0.0812863 0.000166135 -0.0614833 0.0644778 -0.151592 -0.0580926 -0.0436025 -0.00959503 -0.0330615 -0.0262464 0.0592483 -0.0118333 -0.101828 -0.0979885 -0.0293982 -0.0730968 0.0857763 -0.0307383 -0.0600096 0.0746472 0.00179937 -0.0239632 0.0539125 0.0196744 -0.0228786 -0.107612 0.16557 0.0252063 -0.00532444 -0.0181249 -0.0272295 -0.0357915 0.0159433 -0.0159186 0.0780358 0.0273196 -0.0857714 0.017516 -0.0239684 -0.0334466 0.0300932 -0.0245998 -0.0203655 0.0257891 0.0356329 -0.127185 -0.00179611 0.0344282 0.0696554 -0.00472511 -0.0262284 0.0492006 0.1355 0.0803686 0.0133655 -0.000489073 0.071704 0.0455106 0.0163491 -0.0602828 -0.00966523 0.00945221 0.105413 0.0550995 -0.112205 0.056802 -0.0290291 0.00868821 0.0432775 0.0138709 0.00745241 0.0289307 0.0748418 0.00982798 -0.0272685 0.0330211 -0.0194077 -0.0537673 -0.0212713 -0.0456284 -0.127566 -0.0127874 -0.0248387 0.0202652 -0.0441269 0.0231998 0.0224335 -0.0773425 0.116399 0.0044684 0.068717 0.0143534 -0.00870356 -0.0330723 -0.0323161 0.0482733 0.0567697 -0.0596146 -0.00611384 0.0181888 -0.011965 0.106161 0.129412 -0.019429 0.00332427 9.71005e-06 -0.054298 0.017164 -0.0575377 0.0613605 0.0981774 0.0153537 0.0629441 -0.0122405 -0.0419679 0.0207419 0.123339 -0.0333227 0.0363711 0.0734079 -0.0614062 -0.0823315 0.0214844 0.0671336 0.0457991 -0.0582182 0.0133778 0.0326409 0.0116798 0.0375886 0.00322372 -0.0352253 -0.0599372 0.027898 -0.0747367 -0.0572999 -0.118257 0.0553995 0.0584818 0.0744501 0.00916205
access 0.0250774 0.0172947 0.0304559 0.0301041 -0.0565069 0.0651548 -0.0482332 -0.0939271 0.012685 -0.0136705 0.0456942 0.114833 -0.0641724 0.0662715 0.0614501 -0.0513503 -0.0529672 0.134181 -0.00038278 0.0798092 -0.00760913 -0.042341 -0.119723 0.0219779 0.0308542 0.0323519 0.0334019 0.000144532 0.0505957 0.0239542 0.0547605 -0.0421765 0.0225912 0.0125488 -0.00409656 -0.0142329 0.0212211 -0.0311106 -0.026706 0.0933897 -0.00261964 0.0218324 -0.0432805 0.000676273 -0.0145795 0.0615256 -0.000508459 0.0390288 0.0190531 0.00873845 0.0601338 0.037156 -0.00756623 0.0320851 0.0612058 -0.0785079 0.0262282 -0.0593294 -0.0653412 -0.0741672 0.0635831 0.00847989 0.0448109 -0.0093324 0.113532 0.0260918 -0.00365573 0.0691066 -0.0687044 -0.0399735 0.0187239 -0.0468 -0.078001 0.0360193 -0.0665507 -0.0129018 0.044877 -0.0430356 0.0803556 0.0379797 0.0177293 0.0620337 -0.0261656 0.0850006 0.0782799 0.0554858 -0.0419391 0.0824426 -0.031264 -0.0263429 -0.03494 0.0140992 -0.0445038 0.0516085 0.116367 -0.0194 0.0363137 0.0660905 0.0749714 -0.0122373 0.0237155 0.0320533 -0.0199504 -0.0967203 -0.000141633 -0.0898228 0.000851557 -0.0605679 -0.130422 0.00318498 -0.0351018 -0.0623865 -0.0634638 -0.0462095 0.0741134 -0.0358318 -0.0528247 -0.0367715 -0.0542607 0.0179204 0.0512772 0.0172785 -0.127731 -0.0720387 0.0731825 0.0280374 0.0413113 0.0453682 0.0918226 -0.0272841 -0.033023 0.0481466 -0.0104594 0.0529631 -0.0252792 0.0196004 -0.124758 0.0156492 0.103207 -0.0286593 0.00509868 0.060137 -0.0751215 0.0816755 -0.0336772 -0.000212719 -0.0597557 -0.0629163 -0.108675 0.0964805 -0.077476 0.0242877 -0.0542385 0.0327919 -0.056497 0.0321421 0.0122381 -0.027368 -0.0179853 -0.0493083 -0.0663588 0.0133781 0.0462836 -0.028934 -0.035919 0.15769 -0.0162104 -0.0153109 -0.00053351 0.111331 -0.0266121 -0.089668 -0.00492377 -0.0277903 0.045335 -0.00712681 0.0382952 -0.120859 -0.0183597 0.0395488 -0.0209396 -0.0472513 0.0262802 -0.0279541 -0.110999 -0.0762189 0.0575529 0.137448 -0.0708212 0.0357235 -0.0400131 0.0180448 -0.0899081 0.0767222 -0.023541 -0.00384093 0.051861 -0.00888486 0.0105737 -0.00301854 -0.0962831 -0.0374811 -0.0220147 0.102507 -0.0253872 0.0781446 0.0366351 -0.00487665 0.053025 -0.0251577 0.0457622 -0.00609749 0.0646554 -0.0894259 0.0551564 -0.00145488 0.0694921 -0.101326 -0.00838113 -0.0970632 0.00071675 -0.0439123 0.0299151 -0.0483131 -0.042018 -0.0247522 0.01485 0.103578 -0.0476942 -0.00213933 -0.045284 0.0242988 -0.0156196 -0.0853294 0.00102993 0.0443507 -0.00310786 -0.015572 0.0738283 0.00931689 0.0113666 0.021358 0.0125368 -0.00246906 -0.0105336 -0.0286976 -0.105432 0.0862676 -0.00662302 -0.00185655 0.0684938 -0.0328588 -0.078798 0.0704627 0.098065 0.0376729 -0.0784275 -0.0376186 -0.0261429 -0.0126038 0.0486471 -0.0930273 -0.0547056 0.0322283 0.13295 -0.0139141 0.0122668 -0.0365727 0.119077 -0.00221355 0.0433642 -0.0800637 -0.0295564 0.0532903 0.0355231 0.0680655 -0.0201799 0.0462792 0.0101244 0.00660216 -0.0131091 0.168532 0.0985413 0.0927504 0.0146133 0.156015 0.00443962 0.113501 0.122563 -0.0209549 -0.0934372 -0.0418952 -0.0222695 -0.0922717 0.0366432 -0.0815319 -0.0177574 -0.0271668 0.0203887 -0.0174006
account 0.0186426 0.0878303 0.0703373 -0.00930832 -0.0718491 -0.000475556 -0.0351628 -0.0480798 -1.33862e-05 0.0263813 -0.015701 0.16302 0.0563626 0.055546 0.127912 -0.0607911 -0.110242 -0.0366611 -0.0482594 0.0233317 0.118774 0.00313121 0.0157384 0.0533326 -0.117337 0.0132689 0.00779284 0.0728981 -0.056757 -0.0720944 0.0209633 -0.0414767 -0.00925841 0.00986284 0.00188636 0.057032 -0.0775324 -0.100867 -0.0460287 -0.0728396 -0.0545412 -0.0474822 0.0164426 0.00854871 0.0196953 -0.0288357 -0.0461937 0.0235219 -0.000472725 -0.0229891 0.0428787 0.0507549 -0.0935064 0.0155768 0.0444718 0.0063237 0.049341 -0.0699729 -0.0224985 -0.032289 -0.0417833 0.0543701 0.0638155 -0.0108544 0.0292049 -0.00273914 0.11044 0.0259624 0.0354495 -0.0228205 -0.0152285 0.0214485 -0.024662 0.0766548 0.00650159 0.0366676 -0.00085584 0.0418626 0.0511361 0.066566 0.0811522 -0.0550993 0.0441483 -0.1068 0.0808998 -0.0265456 -0.106658 -0.0646782 -0.135395 -0.0109931 -0.0540537 -0.021299 0.0314416 0.0176828 0.0507018 -0.0110781 -0.0360232 -0.0427677 0.0155999 -0.0727098 0.0390297 -0.0335401 0.0350687 -0.0516626 -0.019258 0.021866 -0.00259138 -0.0183043 -0.0609667 0.0437425 0.0450546 0.0685367 -0.138047 0.00384037 0.0698437 0.0350872 0.0113278 -0.0554914 -0.106616 -0.0244799 0.124097 0.0109285 0.0795466 0.0408623 0.0319094 0.00316681 -0.0186944 0.0706435 0.0294939 0.0739167 -0.00702057 0.057635 -0.163355 -0.060867 0.00934745 -0.0605998 0.0876831 0.0116022 0.0199197 -0.0563896 0.0642875 -0.0202948 -0.0285369 -0.0548149 -0.0576494 0.074848 0.0154051 0.029951 0.00769174 0.0891917 -0.0634588 -0.0719218 -0.0316224 0.0461266 0.0199363 0.00632395 -0.0229486 -0.054559 -0.109968 0.0836805 -0.0197491 0.0226374 0.0692184 0.0093318 0.0210499 -0.0597175 -0.047932 -0.038274 -0.0779195 -0.130192 0.0642284 0.0202279 -0.011696 0.0103953 0.0160528 0.0963756 -0.0670314 -0.0269492 0.0127156 -0.043646 -0.0489466 -0.0280912 0.0470861 -0.0479772 0.052383 0.0298296 -0.0144033 0.0680542 -0.024333 -0.0744805 -0.112632 0.027087 -0.110771 0.0105872 0.0129883 -0.0304872 0.00673459 -0.0467468 -0.00620296 -0.0241713 -0.107476 0.0632853 0.000938334 0.0266036 -0.00358011 0.0977896 -0.0250542 -0.0130853 -0.00664342 0.0186154 0.0122067 0.0640569 -0.00150131 -0.0732451 0.0804858 0.0531999 -0.0154538 -0.044703 0.00682549 -0.118186 0.0517107 0.012099 0.131386 0.0706585 -0.0905323 -0.106309 -0.029842 0.00772591 0.0228274 -0.0230325 0.00944072 0.00896557 0.130329 -0.104238 0.0853803 0.00439545 0.0496732 0.0494353 0.10738 -0.102422 0.058725 -0.144467 -0.0198821 0.0184847 0.0255315 -0.0204133 0.0441286 -0.0491532 -0.100387 0.0747419 0.0766287 -0.0320331 -0.0386008 -0.0473955 0.038625 -0.0606941 0.0905527 0.0176016 -0.049086 -0.0774306 0.115146 -0.0117519 -0.0662688 -0.108063 -0.0188672 -0.0810548 -0.00275409 0.0141894 0.00127256 -0.00637251 -0.0536704 0.0505891 -0.031497 0.0456486 0.0132338 0.0354441 -0.0647263 -0.00188707 -0.00916529 -0.0129189 0.017649 0.124649 -0.053756 -0.0498622 -0.0249207 0.0291673 -0.0533142 0.0867623 -0.0246859 0.00051145 -0.0231274 0.00742041 -0.0364774 -0.00395209 -0.00765762 0.0499622 0.0418371 -0.00843761 0.0446088 -0.130056
acs 0.0611257 -0.0557992 -0.102838 0.0576039 -0.0014551 0.116508 0.0645825 0.0465008 -0.0192711 0.0158232 0.0144131 0.0312177 -0.0472042 0.0410809 0.0149583 -0.013271 -0.0435817 0.0459643 0.0537143 0.0210491 0.0288129 0.00932339 -0.0422494 -0.0641366 -0.13705 0.030916 -0.0157813 -0.0596205 -0.0327865 -0.103388 0.120143 -0.0373868 0.0792159 -0.0553307 0.0111473 0.0577067 -0.0141775 -0.015598 -0.0452988 0.0233177 -0.0568554 -0.0264094 -0.0226544 -0.0224389 0.00192433 0.0261145 -0.0248968 0.104015 -0.0207579 0.0935469 -0.0074392 -0.028983 0.070863 -0.0278009 0.115761 -0.0359739 -0.116241 0.0415078 -0.0154175 -0.108389 0.0909924 -0.0551365 -0.0222473 -0.0966638 0.000761598 -0.0572818 0.0243862 0.0177062 0.060185 -0.127565 0.063832 0.0283828 -0.00477121 -0.105123 -0.0859587 -0.0397145 0.0818874 -0.00485282 0.000269929 0.0232923 0.0645354 -0.0394119 0.0700647 -0.0504574 -0.0593935 0.065708 0.00390968 -0.00229584 0.0688427 0.0353332 -0.110859 0.0834374 0.0385521 -0.0316738 0.0223046 0.0233117 -0.041711 0.010101 0.0611023 -0.0424974 -0.056329 0.062591 -0.00652968 -0.0633909 -0.0112103 0.0766988 0.0220114 -0.0500815 -0.104671 0.0694316 0.102124 -0.0289506 -0.01673 -0.0342885 -0.00321581 0.0216745 -0.0180602 -0.151673 -0.0132666 -0.108979 -0.0042372 0.0195234 0.0190727 -0.0299559 0.151593 0.0127744 -0.0532635 -0.0967495 -0.036765 0.0876424 -0.0100234 -0.00102231 -0.0540333 -0.00242214 0.0131409 0.069019 -0.0712814 0.068597 0.0990777 -0.0859291 -0.0525469 0.0450126 -0.085244 0.0345256 0.000182747 0.0272595 -0.0740444 0.0139413 -0.0125733 0.00286124 -0.0416339 0.0795479 0.0457419 -0.0600647 0.0842744 0.00445632 0.0841218 0.0988773 0.0441778 0.0612035 -0.0846321 -0.0651809 -0.0281034 -0.0293559 0.00581241 -0.0547891 -0.082217 0.0427628 -0.14708 0.0513273 -0.0551295 -0.034784 -0.0392198 0.0177043 0.0410241 0.128027 -0.123221 0.0265233 0.0304694 -0.00914187 0.0388134 0.0574304 0.0225298 -0.00359768 -0.000618922 -0.0613308 -0.0213992 0.0275296 0.0608575 -0.0598666 -0.0293343 -0.0421953 -0.117421 -0.0115545 0.0300768 -0.0638956 0.0703659 0.0654015 -0.0546454 0.0512266 0.0631212 0.0709473 -0.0369742 0.0470383 -0.0119168 0.0272778 0.0902741 -0.046883 -0.102153 -0.0250219 0.0648488 -0.0380492 0.0149352 0.0794754 -0.00509579 -0.00552477 0.0693203 0.0229201 0.0548411 0.0653677 0.0798082 -0.0197344 -0.00341223 0.0296907 0.0519467 0.00512482 0.0472781 0.0130453 -0.0177147 0.00238796 0.0476931 0.0397532 0.00729599 -0.0445913 -0.037566 0.00495011 -0.0488053 0.0196169 0.00540542 0.0290115 -0.0576249 0.0948831 0.0266187 0.00739637 -0.0594808 0.116375 -0.0877228 -0.0799098 0.0533668 0.0014375 0.0671139 -0.0287651 -0.018878 -0.00501433 0.0870055 -0.026052 -0.0250632 -0.0855744 -0.0102356 0.0565509 0.0542062 0.0312165 -0.123105 -0.0134408 -0.00991831 0.118768 -0.042928 -0.066026 -0.0530954 0.0249397 -0.103428 0.0390629 -0.0197465 0.0732308 0.0635272 -0.009591 0.0307104 0.0648193 -0.0310805 -0.084424 -0.0626891 0.0657177 0.00835997 0.0291536 0.00479796 -0.0294348 -0.0882944 -0.0370621 0.00734833 0.0984886 -0.0105042 0.0025633 0.0162112 -0.028074 -0.0241392 -0.0749169 -0.00673342 -0.0230813 -0.0830486 -0.107004
action 0.00575299 0.0018112 0.096177 0.0124059 -0.0739225 0.10106 0.110096 0.0234781 -0.0213082 -0.100746 -0.0801943 -0.0511942 -0.0513222 -0.0376036 0.0910763 -0.0435844 0.00770441 -0.0049181 0.0644141 0.0600239 0.0459026 0.0645443 0.00449256 -0.042482 -0.031958 -0.118375 0.0382481 -0.000608604 0.0425393 -0.0456245 0.00457876 -0.035806 -0.0452602 -0.0257986 -0.0326585 -0.0800225 -0.0350305 -0.0254112 -0.0475387 -0.0134343 0.0123802 -0.0354364 -0.0634232 -0.0143251 0.121182 0.0181506 0.0350388 0.00802227 0.00853611 0.0738492 0.0216471 -0.0124924 0.0140049 0.0383706 -0.0308853 0.150792 -0.0133794 0.0372646 -0.0126586 -0.0512322 0.0706193 0.0763198 0.0244118 -0.0695991 0.106755 0.0275829 0.0467589 -0.0518714 0.00725555 -0.0530671 -0.0659969 -0.104117 0.0193725 0.00599359 0.058061 0.0440377 0.0371257 -0.113965 0.110996 0.134605 -0.0527641 -0.0187994 0.0138525 0.0617613 0.00790402 -0.101175 -0.0425737 -0.0432586 0.00431532 0.0336988 -0.00530473 -0.00201554 0.0146903 0.026349 0.00581704 -0.00889299 -0.00693385 -0.00012012 0.0178738 -0.0311004 0.0350419 0.0429121 0.0683125 -0.0807681 -0.0868464 0.00205434 -0.116475 -0.0322801 0.0518164 0.00379893 0.0433828 0.128948 -0.122055 -0.054093 0.0690348 0.0573807 -0.0305861 0.0791158 -0.104281 -0.0160798 -0.0103682 -0.0494975 0.0139206 0.0544257 0.0554329 -0.0571445 -0.0214402 0.10557 0.0513397 0.0107646 -0.000576541 0.0875721 -0.180078 0.000594508 -0.0434284 -0.0973861 -0.00671366 -0.0421162 0.0157639 -0.0477543 -0.0209896 -0.0228474 0.0740521 -0.0503844 0.0738009 0.00481432 0.0262548 -0.0163326 0.0607224 0.0150731 -0.109468 -0.136401 -0.024617 0.0599083 0.0924661 -0.10193 -0.0137275 -0.0427626 -0.00787765 -0.0266756 0.0363241 -0.018995 -0.0209167 0.0921609 -0.011927 0.0182713 -0.0354107 0.0854033 -0.0272589 -0.0316657 0.014121 0.0471668 0.0884594 -0.00190152 -0.0334385 -0.0627672 0.0348471 0.0238404 -0.00623014 -0.0189572 -0.0162064 0.012944 0.00834662 -0.0220233 -0.00234582 -0.0548121 -0.0212088 0.11986 0.0156363 -0.0359486 -0.0327814 -0.0139835 -0.00835398 -0.035232 -0.0293562 0.0575621 0.0182766 -0.0646275 -0.037211 0.0089108 -0.0667908 0.0379358 -0.0329 0.154376 0.0790996 0.0394349 0.0411779 0.0442136 -0.11143 0.0193229 0.036844 0.0325517 0.0146318 0.0316677 0.0100406 0.0607561 -0.0112419 -0.037144 0.0552883 -0.0658788 0.0212271 -0.024247 0.009032 -0.00497957 0.0088404 0.0426209 0.000760309 -0.102896 -0.000487102 -0.0696664 0.0182999 0.00582025 0.0187068 0.0274558 0.0807138 0.0806282 0.0630628 0.071822 -0.0398932 -0.151326 -0.064423 0.0382206 0.0418954 0.0293097 0.0483024 -0.0558946 0.0364961 -0.0461862 0.0204719 0.068266 -0.0136742 -0.0586322 -0.0264086 -0.134107 0.0527545 0.0529296 0.00805283 -0.00114045 -0.0194313 -0.0323615 0.0829925 -0.0909909 -0.037233 0.00970688 0.0639965 -0.018539 0.00506694 -0.00689088 0.00252779 -0.128861 -0.0867971 -0.0530365 0.0746023 -0.0436763 -0.00744055 -0.0507628 0.0674162 0.0425273 0.106805 0.0971221 -0.138146 0.0359146 0.054469 -0.0237646 -0.00745232 0.0507104 -0.0218795 -0.0470982 0.00819912 -0.0984858 0.0392483 -0.175957 0.0278781 -0.00542689 -0.0156334 0.0831772 0.0393747 0.00570085 0.00324577 -0.0625
adam 0.0439761 0.0560258 -0.0877025 0.0270616 0.0364721 0.00310221 0.0690445 -0.0456361 0.118458 0.0379384 -0.0841196 0.0198028 -0.0798034 -0.0914506 -0.0491791 -0.00237318 0.0793898 0.0757157 0.0579702 -0.0125257 0.0468923 -0.158848 0.0759053 0.114467 0.0638361 -0.052307 -0.00695885 0.00874617 -0.00764961 -0.0730636 -0.0940013 -0.0185555 0.00548142 0.0455259 -0.0419901 -0.0225191 0.0483615 -0.0408465 -0.086325 -0.0532083 -0.000418004 0.0366601 0.0363666 -0.0430123 0.0477064 0.035565 -0.0486047 -0.071237 -0.0776698 0.00301586 -0.0133026 0.11034 -0.0514799 -0.0330539 -0.0202443 -0.127423 0.152004 -0.0624628 -0.0375832 0.0480508 0.0728932 -0.0415364 -0.0119142 0.0317233 -0.117453 0.0145296 -0.00216452 -0.139032 -0.0453068 0.0403999 -0.0260499 0.0619603 0.032906 -0.0254602 0.0650705 0.00581762 -0.0867932 0.0607135 -0.0230512 -0.00274386 -0.00963699 -0.0418441 0.041685 -0.00928511 -0.00872709 -0.0841249 0.0218263 -0.00751265 0.047254 0.0116035 0.0140624 -0.0397469 0.0854565 0.0569234 -0.102233 0.0624351 -0.0415846 -0.00465872 0.0548275 0.0437223 0.0179683 -0.0220636 -0.0737459 0.0794664 -0.0876573 -0.029974 0.0515394 0.00653226 -0.0200832 0.0314223 -0.0138967 0.106145 0.00487249 0.0427505 0.001344 0.0026398 -0.036997 0.0145072 0.0130254 -0.0468115 0.0272297 0.101564 -0.0202186 0.0445972 -0.0740834 0.0479416 0.0503021 0.0678526 0.0361465 -0.0138076 0.0178564 -0.0274854 0.0264851 0.142381 0.12627 0.00174465 -0.0105008 -0.0102657 -0.0119019 0.0435181 -0.0447429 0.0697959 0.0342846 0.0360444 -0.0629054 -0.102325 -0.0589533 0.0449127 0.0714203 -0.0149697 0.00186307 -0.0497231 -0.0888166 -0.0793797 -0.0114699 -0.0568802 -0.0167399 -0.0871225 -0.0125571 9.94266e-05 0.147401 -0.0544685 -0.0379781 0.0362744 0.0472172 -0.143122 0.114577 0.0435261 0.0270777 0.0155866 -0.0231835 0.0381971 0.100619 0.0132108 0.0486431 -0.00430845 -0.130779 0.00776182 -0.0159041 -0.0338089 -0.0244202 0.0584052 -0.0216558 -0.0824612 0.0828434 0.0120799 -0.0357146 -0.00573084 0.0413945 0.0245578 0.0470013 0.0266938 -0.00809735 0.0172905 0.0190823 -0.0365903 -0.0473246 0.00415253 0.101296 0.0181872 -0.0606052 -0.133773 0.0863286 0.0173933 -0.0199464 -0.0437731 -0.0940368 -0.0415709 0.0565796 -0.0475019 0.0556175 -0.034773 -0.0576143 -0.0151534 -0.0160502 -0.00506939 0.0349454 0.00435158 0.00279229 0.0125083 0.0260277 0.0292376 0.0666119 0.049096 0.0306352 -0.060673 -0.0769755 0.0664475 0.0715042 -0.0341571 0.00995402 -0.135229 0.087556 -0.0476062 0.0334312 0.0303364 0.0531191 -8.15658e-05 -0.0176349 -0.0486777 -0.112015 -0.0405208 0.0456519 0.0241712 -0.00989275 -0.0677646 -0.0509597 -0.0863334 0.0567237 -0.128103 -0.0192256 0.0856512 -0.0181688 -0.101682 0.0101521 -0.000903353 0.136119 -0.0128551 0.0155033 0.0399756 0.0130445 -0.0124103 0.0371206 -0.0447635 -0.0119906 0.125479 0.0359667 -0.0193496 0.0274512 0.0096211 0.0523796 0.048193 -0.0420141 -0.0927624 -0.000884041 -0.0581663 0.0813092 0.0327181 -0.0300898 0.0993796 0.0483748 -0.064079 -0.0264232 0.0476906 0.100796 -0.0301802 -0.00228998 -0.0288499 0.0578901 -0.0421243 0.0659445 -0.0030258 -0.0153429 0.0720586 -0.0474896 -0.0305019 0.00696794 0.0599887 0.0548226 0.0618878
add -0.0283526 0.0558104 -0.0140149 0.0102276 -0.0347767 0.0233343 -0.0260341 -0.0300007 0.0385897 -0.0367865 -0.00188406 -0.00864513 0.000903867 0.00238878 0.0769599 -0.115364 -0.0332505 0.032215 -0.0870089 0.101271 0.0337026 0.0604191 0.00611322 -0.0570578 0.0108231 -0.11819 0.0499317 -0.0988581 -0.0132075 0.0222517 -0.0316239 -0.0716578 0.0758857 -0.0672424 0.0100004 0.0281258 -0.0276518 -0.0162863 0.0701318 0.0586937 -0.0337007 0.03536 0.0570356 0.020478 -0.0937504 -0.0185487 0.0430789 0.0181984 -0.0553131 -0.0692287 -0.000123473 -0.0671194 0.0242139 0.0534497 0.10518 -0.0788972 0.0277654 -0.0536815 0.0400072 0.0619513 0.0167847 -0.00563438 0.0293565 0.0529248 0.0539308 0.0513072 0.0173219 0.0313016 0.0147661 0.106935 0.0762626 -0.0732799 0.018153 0.0487187 0.0828797 -0.00572536 -0.0344452 -0.037615 0.0196674 -0.0234448 -0.0435316 -0.10542 0.032888 0.036779 -0.021481 0.0325482 -0.0775173 0.000482203 -0.138652 0.012169 0.0515007 0.107063 -0.0282371 -0.0402921 0.0518714 0.0685287 0.0565491 -0.00715749 -0.02282 0.0299452 -0.0698472 0.0346812 -0.0134776 -0.0246825 0.0569842 0.0802822 -0.0365634 -0.0484422 -0.0726737 -0.0155354 0.0387442 -0.00174144 -0.000494702 -0.0397723 0.0743413 -0.019243 0.0135332 -0.110507 -0.0420692 0.0469523 0.0878985 0.0841452 -0.0610353 -0.0647545 -0.0683078 0.0476721 0.0533086 0.0216108 -0.0893831 0.0574805 0.00407892 0.0793122 -0.0310829 -0.150073 -0.110397 -0.0675521 -0.0585045 0.0582745 -0.0363422 0.107662 0.0219969 -0.0634265 -0.07081 0.0777986 -0.0121236 0.101232 -0.040314 0.0261445 -0.0968059 0.00609053 -0.00127939 -0.017877 -0.0882508 0.0959591 -0.100821 0.0412977 -0.0208145 -0.0641144 -0.0557376 0.00922097 -0.00311567 -0.0716859 0.103779 -0.0763661 -0.0524171 0.0582336 -0.00746279 0.0273517 -0.0150206 0.00411388 0.03432 -0.0683397 -0.0169728 0.0834607 0.0613123 -0.0687106 -0.0168499 -0.0603889 0.0524355 0.0374239 0.0515172 0.0502599 -0.0411342 -0.0126176 0.0378761 0.0808808 0.0346454 0.0921668 -0.00383872 -0.0842454 0.068943 0.0465991 -0.0362575 0.0606178 -0.0712912 -0.0504273 -0.00974701 -0.0574154 -0.0442093 -0.0626117 -0.00194328 -0.0065767 0.00767114 -0.0243922 -0.101132 0.0258818 -0.0325461 0.0292868 -0.0236914 -0.0188603 -0.0395499 0.0598108 0.0621748 0.0488105 0.0316183 0.0740465 0.19052 -0.0386284 -0.0499494 0.0422272 -0.107603 -0.016625 0.125823 -0.0694159 -0.0321489 -0.0112725 0.0439476 0.00876815 -0.00552684 0.117524 0.0609049 0.0547603 0.0585385 -0.00107196 0.00362899 0.0192888 -0.0508386 0.00252318 -0.00559765 -0.109082 0.0513118 -0.00399077 0.0211219 0.0243026 -0.00418735 0.0325945 -0.0521288 0.0250396 -0.0326319 -0.00358281 -0.0300291 -0.0779256 0.038875 -0.0356405 0.0910451 0.025299 -0.0384456 -0.0279188 0.0523756 0.0193103 0.0900259 0.123619 -0.126107 0.0568526 -0.0460634 -0.0436722 0.0593293 0.0417341 0.0219397 -0.000369431 0.00712297 -0.00391853 -0.043362 -0.0701196 0.0197372 0.111108 0.0381091 0.0806676 -0.0201361 -0.0470804 -0.049052 0.111947 0.085046 0.0511836 -0.0525708 0.0612327 -0.0153285 0.126932 0.0801684 0.00528514 -0.0638128 -0.0179405 0.0479111 -0.0184586 -0.0383414 -0.154153 -0.0120263 0.0021038 0.04841 -0.0473642
address 0.0511831 0.0454296 0.0148088 0.0212876 0.00224822 0.0837728 -0.0310861 -0.0208488 0.0622092 -0.00278978 -0.000461637 0.124523 -0.00548399 0.0657172 0.0670779 -0.0267673 -0.0618274 -0.0301137 0.0347268 0.0714136 0.0818542 -0.0547157 0.00752745 -0.0670067 -0.05045 0.0212617 -0.0253376 0.0118518 -0.0121373 0.0203477 0.0962329 -0.0489141 0.0546742 -0.0493596 0.0234945 0.104465 0.0221692 -0.0360009 0.0100504 0.088345 0.0323474 -0.0315952 0.065055 0.0263874 -0.0707268 -0.00395025 -0.0531304 0.0347876 -0.0680557 -0.00287744 0.0185416 -0.0210163 -0.0198766 -0.0223986 -0.00133979 -0.0535353 -0.0172341 -0.0320697 -0.0624979 0.0321501 0.040219 0.0757737 -0.0152167 -0.0386578 -0.0128978 0.0219107 0.108856 0.100141 0.0252126 0.0266781 0.0210786 -0.0105467 0.00245959 0.127897 -0.0400801 -0.0153218 0.0636498 0.0148081 -0.00716381 0.0423494 0.0208301 -0.0450954 -0.00492825 0.0149245 0.010572 -0.00422199 0.00533966 0.109264 -0.102703 -0.0412847 -0.0559793 -0.0258137 -0.0119326 -0.00547943 0.105595 0.0023239 -0.0396496 0.0624848 0.0576018 0.0055762 0.0157974 -0.0400603 -0.0402096 -0.0624599 0.0734369 -0.0180615 0.0298796 -0.0617673 -0.0741773 0.100031 0.0193784 -0.0535855 -0.0844588 -0.00670348 0.144054 -0.0273958 -0.0250596 -0.0666473 -0.0568847 -0.0360683 0.0827298 0.0114206 -0.042889 -0.0687737 0.00316435 0.00696406 0.00129634 0.0802482 -0.0276868 0.0882949 0.0206548 0.0396166 -0.0543269 0.070368 -0.153193 -0.0390885 -0.111964 0.0581419 0.108423 0.0105056 -0.0922607 0.0210944 0.000268434 0.015027 -0.0867802 0.0175038 -0.0804778 -0.0511637 -0.00591337 0.0211718 -0.133353 0.0316684 -0.0235545 0.0600284 -0.0193998 0.0745826 -0.0917293 -0.0264625 -0.00590652 0.0757677 -0.0417124 0.0383877 0.157274 -0.0794796 -0.0337654 0.013355 -0.0495766 0.0119265 -0.0787756 -0.00452161 -0.0384791 -0.00183459 -0.0402979 0.0409539 0.0239597 0.0343566 -0.124628 -0.127314 0.0336824 -0.0211839 -0.0519917 0.0162129 0.11451 -0.0229359 -0.0656775 -0.0064169 0.0303239 0.0399191 0.0112213 -0.028291 0.0240966 0.0332786 0.0340428 0.0465126 -0.0407632 -0.0377391 0.00445205 -0.0197194 -0.0247318 0.0817492 -0.0328769 0.0370411 0.00680195 -0.0292217 -0.0277464 0.144561 0.0588521 0.0305785 0.0294639 -0.0560511 0.0178681 0.100329 0.104056 0.0309682 0.051924 0.0875468 0.0844702 -0.0405754 -0.0672416 -0.0606862 -0.0341482 -0.016919 0.126244 0.0123958 0.0254381 0.0388558 -0.134526 -0.0445044 -0.102522 -0.0362678 0.0754624 0.0180771 0.0456874 -0.0275313 -0.029282 0.0152812 -0.0468353 0.031491 0.0990358 -0.108444 0.00905496 -0.0560998 0.12877 -0.0164097 0.0450351 -0.0741376 -0.063987 0.0212936 0.00488355 0.0473669 0.105252 -0.0540526 -0.0141902 0.0407821 0.0424087 -0.0216949 -0.10675 -0.0415813 -0.0407435 0.0290594 0.0598658 -0.0333969 -0.120492 0.00326994 -0.0673802 -0.00081985 -0.019789 -0.0115356 -0.0395056 -0.0890958 -0.0871281 -0.0303143 -0.0129671 0.00101758 0.0895712 0.111083 -0.0663668 -0.0182248 -0.0233399 -0.0200031 -0.107541 0.110912 0.028833 0.129077 -0.0181032 -0.0387343 -0.0307265 0.115114 0.0553629 0.035385 -0.0573779 -0.0113981 -0.00678454 -0.0881197 0.016514 0.0505661 -0.0558645 -0.00048303 -0.0469912 -0.0326571
addresses 0.0637128 0.0404306 -0.0164351 0.0379207 0.0207371 0.0562099 -0.0813532 -0.0268741 0.0467567 -0.000787888 0.0357707 0.0652957 -0.0163296 0.12195 -0.00637221 0.0136549 -0.0758843 -0.0131514 -0.0841193 0.0808582 -0.0149362 -0.0433389 -0.061803 -0.0543678 -0.0590365 0.0323298 -0.0100357 -0.0117456 -0.0106659 0.0110609 0.0823829 0.0319704 0.038717 -0.0186673 0.0322288 0.0771947 0.0292765 -0.0222081 0.0145077 0.0125838 0.0152135 0.0401848 0.0786681 0.0796672 -0.11585 0.0424887 -0.0577585 0.0222879 -0.0422463 0.0116303 0.0307191 0.0253947 -0.0209878 0.00449999 -0.0199293 -0.0388526 0.070184 -0.0330595 -0.0833241 -0.011342 -0.00285506 -0.0170125 0.0367432 -0.0217759 -0.0391384 -0.0165162 0.0812765 0.137569 0.0650524 0.0582172 -0.00640963 -0.0489707 -0.0294663 0.111551 -0.0608102 0.0132465 0.0536688 0.0328179 0.0463441 0.0507852 0.0100235 -0.051515 0.00271498 0.0307942 -0.00998343 -0.0265884 -0.0175608 0.0868964 -0.0508604 0.0147487 -0.0477836 -0.0709859 0.0354762 -0.0322207 -0.00883718 -0.115766 -0.0348387 -0.00785304 0.0188228 -0.0709164 0.0274065 -0.0907063 -0.0434702 0.00415618 -0.000386422 -0.0277102 0.0290174 0.0275857 -0.0526547 0.0217204 0.0160936 -0.136699 -0.0703878 0.0132457 0.0862711 -0.0701438 0.00829856 -0.0276513 -0.0372942 -0.0692083 0.134937 0.0306657 -0.0290298 -0.0503237 -0.0522472 0.00460984 -0.0654173 0.000376938 -0.0320227 0.0604666 0.0219599 0.0250039 0.00160939 0.0717274 -0.0817529 0.0129063 -0.114124 0.00282004 0.0277591 -0.0712704 -0.0573729 0.0430697 -0.0608394 0.0776995 -0.0857859 0.00764895 -0.0690671 0.0324498 0.067217 0.0864939 -0.169429 0.0225565 0.0365256 0.0881815 0.0105433 0.0903622 -0.0657987 0.0236127 0.0462351 0.0519934 -0.0666129 0.0675111 0.0973664 0.0962101 0.0375559 -0.0579435 -0.101022 -0.0195323 -0.0201219 -0.0115678 -0.00925298 -0.0197249 -0.0323439 0.0569627 0.0543731 0.00855462 -0.145622 -0.111768 -0.0222476 0.00660212 -0.00822866 0.0102739 0.0935964 -0.046912 -0.0433973 -0.00592206 0.102047 0.0451778 0.0461238 0.0568442 -0.0168245 0.0273778 0.0240937 0.0114671 -0.069049 0.0229435 -0.0738282 0.0204855 -0.0354559 0.0450818 -0.0527779 0.0231722 -0.0308036 0.0852159 -0.0387791 0.10281 0.0839486 0.0602537 0.0343711 -0.0308441 0.0178964 0.0923269 0.0868391 -0.0274489 -0.102017 0.0894258 0.0168569 -0.0414618 -0.0182231 -0.0773704 -0.0901998 -0.0233142 0.120739 0.00613238 -0.00727744 0.0784627 -0.110662 -0.0190728 -0.0955459 -0.089446 0.0458171 0.0395447 0.0633607 -0.0361911 0.0107196 -0.0693539 0.0123736 0.00603444 0.104348 -0.0535835 -0.0408509 -0.0408709 0.094052 0.00243878 0.0687984 -0.185296 -0.0766939 0.055218 0.0223412 0.00348433 0.0374139 0.00162475 0.0159792 0.0571537 -0.0274987 0.00203631 -0.0504013 -0.0445449 -0.0427551 -0.00946264 0.0321886 -0.00307308 -0.0727986 -0.0307587 -0.00769075 0.036931 -0.0238169 0.0296681 -0.0117047 -0.0267765 -0.120816 -0.0558178 0.0534426 0.0550489 0.11136 0.119926 0.0202845 -0.00180586 -0.0703226 0.00211889 -0.0591034 0.115384 -0.0210371 0.0812845 0.0585944 -0.0734465 -0.0139244 0.080635 0.0404428 0.0835511 -0.143353 0.0180286 -0.0324737 -0.0290301 0.0192529 0.0701246 -0.0669281 0.0259082 0.0115459 0.0191692
advance -0.0663731 0.0135625 0.0695768 -0.0532692 -0.0137119 0.114372 0.0381422 -0.10246 -0.0281819 -0.0578586 -0.0370747 -0.0181674 0.0618805 0.0734583 0.0641491 -0.0877097 -0.0482451 0.00150686 0.026904 -0.00576926 0.0808715 -0.013726 0.04543 0.0325942 -0.0161641 -0.0644177 0.104452 -0.0629858 0.0115473 0.0877012 -0.0483475 0.0191115 0.0184861 -0.0321426 -0.0481833 -0.0389529 0.0747818 0.0478436 0.0365176 0.0875839 0.0818205 0.0776801 0.0846075 0.0403254 0.105912 -0.0295106 -0.00361363 0.0143837 -0.00673712 -0.0504987 0.03805 0.0203611 -0.0513217 0.0341123 -0.0488416 -0.00265188 -0.0738018 -0.0557485 -0.0085079 -0.0227612 0.0271957 -0.0605942 -0.0939902 -0.0577985 0.0624671 0.0256716 -0.0137039 -0.0425216 -0.0218052 -0.0464189 0.0620144 -0.102883 0.0529432 -0.0479788 0.110904 -0.0607729 0.0945142 -0.0804797 0.0252538 -0.00864824 0.0110857 -0.0712001 -0.0212963 0.0113385 0.0199665 -0.00324113 0.115153 -0.050421 -0.00886323 -0.0132756 -0.00776451 0.0840665 -0.091381 0.0238989 0.0657316 0.0443208 -0.0315665 -0.0413765 0.0124218 0.0573585 -0.0329756 -0.0102274 0.0350009 -0.0979568 -0.00768212 0.1491 0.0263724 0.00291388 -0.0200855 0.0296575 -0.0206247 0.177973 -0.0962128 -0.0423025 0.0683881 -0.0165565 0.0204417 0.0726324 -0.0272003 0.143963 -0.107302 0.0744027 -0.0419875 -0.103373 0.0163341 -0.0295498 -0.0110605 -0.0172313 0.0181874 -0.0235079 -0.138581 -0.0303191 -0.169597 0.0440064 -0.101945 -0.0413524 -0.00563941 0.0504323 -0.0188593 0.0293432 -0.100466 -0.073669 -0.0142891 -0.0362076 0.0611551 -0.0109009 0.0801203 -0.00946342 -0.0284247 -0.0194453 -0.0335382 -0.0507023 0.00168664 0.0141635 -0.0177227 0.0727468 -0.0269702 -0.0357724 0.000651853 -0.00280885 0.00557823 0.0101832 0.00888942 -0.123742 -0.0573792 0.0925448 -0.0558903 0.0282244 0.019006 -0.0494272 0.010718 -0.045694 -0.00785676 -0.0318788 -0.0306451 0.0176645 -0.0597765 -0.0141624 0.0242996 0.0357671 -0.0657188 -0.11237 -0.0129268 -0.0219842 0.00824844 -0.0569746 0.0120423 0.100173 0.0362324 -0.0260593 -0.0741183 -0.0179718 0.0368339 0.0301814 0.0504977 0.0549317 0.0207893 0.013209 0.0820888 0.0282461 -0.0940753 0.00473774 0.0190349 0.0511837 -0.00489113 0.03392 -0.0289611 0.00537137 0.0828646 0.0940235 -0.0401544 0.101334 0.0409626 0.0845839 0.121513 -0.0203234 0.121144 -0.0143552 -0.00894694 0.0213648 0.0820075 0.0340942 0.00990548 -0.138973 0.0568642 -0.056531 0.00367059 -0.0729732 0.0526438 -0.000684265 -0.0571599 0.0339054 -0.04391 -0.0733249 0.0354156 0.0600194 0.018645 0.0307711 0.0202806 -0.0567806 -0.0437933 0.0447151 0.0520045 -0.0365225 0.0160227 -0.0201818 0.0627242 0.0280803 0.0716523 0.0871553 -0.0298758 -0.00705038 -0.0726122 0.0130285 0.0916379 -0.00868389 -0.00947785 0.0102284 -0.106519 -0.03508 0.015387 0.00775094 0.0069925 0.0713735 0.0143288 -0.0674274 -0.00510206 -0.0840816 -0.00900002 -0.0715422 0.0794788 0.024081 -0.0444017 0.0343368 -0.0377927 0.0271183 -0.0215934 0.0381665 -0.00152487 -0.121864 -0.174101 -0.00709635 0.0546122 0.0449189 -0.0570348 0.0201588 0.0505534 0.099533 0.0840856 -0.0205638 0.0724299 -0.0404177 0.00615444 0.0362658 -0.0252739 -0.0805815 0.0966562 -0.0722975 -0.0157096 -0.030631
advantage 0.0135573 -0.0187934 0.0333466 0.00709084 -0.0354927 -0.018697 -0.0553888 -0.121181 -0.0014675 -0.00948507 -0.105794 0.0991875 -0.0211148 0.0408296 0.167839 -0.0502714 -0.0764985 -0.0155492 -0.00803516 0.0364728 0.0421011 -0.0303444 -0.0153535 0.0652801 0.00120101 -0.010988 0.0910325 0.00609977 0.148892 0.0119812 -0.0210132 0.0474504 -0.0316692 -0.0353319 -0.136808 -0.0428414 -0.0115341 -0.00992493 -0.0101886 0.0318633 0.0597136 -0.0374092 -0.0219072 0.00504747 0.00496826 -0.0462867 -0.0227406 -0.0584511 0.0233507 0.0583399 0.0477256 -0.0207123 0.0252113 0.0178458 0.0583384 0.0492912 0.0140831 -0.0113815 -0.00771147 0.00517098 0.0243051 -0.0154734 0.0438404 -0.123503 0.0992479 0.0204115 0.0176832 -0.0714549 -0.0874987 0.00355473 -0.0783201 -0.0887112 0.0344361 0.0679247 0.101808 0.0138023 0.0568431 -0.107035 0.114013 0.0401652 0.017316 0.0460012 0.0534796 0.0390216 0.0271486 0.0812883 -0.0538966 -0.0297831 -0.0684911 0.0158021 -0.0490365 0.0330013 -0.0154349 0.0589093 0.0830554 -0.0429813 -0.0434195 0.0290168 0.0419962 -0.109652 0.0651924 0.0404582 0.0571654 -0.082504 -0.0810495 0.0309441 -0.139094 0.00524594 0.00860143 0.0151087 0.0367585 0.0793463 -0.0886905 0.0628153 0.0231096 0.075224 -0.125215 -0.00496117 -0.117109 0.0278466 0.0670332 -0.0625519 -0.0947654 0.00628462 0.0183547 -0.0553814 -0.121745 -0.00171082 0.000724095 0.0120204 0.00193983 -0.0482895 -0.106703 0.0812295 -0.00058456 0.0448877 -0.0475813 -0.112143 0.0790713 -0.0267937 -0.0451622 0.0121229 -0.0144707 0.000690427 -0.0272898 -0.0608413 -0.0247938 -0.0147866 -0.0856682 0.0464931 -0.0195513 -0.0876975 -0.0434946 0.0190692 -0.0142256 -0.0182285 -0.0655084 -0.075592 -0.0472442 0.0621928 0.066137 0.0611957 0.0137465 -0.0725482 0.00400006 0.0928089 -0.0465767 0.0439362 0.00849932 -0.0484006 0.08509 -0.0404967 0.00366378 -0.0314975 0.0199803 -0.00497422 0.0239935 0.00832372 -0.0941643 0.0362138 -0.0325418 0.0348853 -0.041597 0.0181268 -0.0737419 -0.0474192 0.104472 0.0193842 -0.0406061 -0.0534985 -0.0304662 -0.0532625 -0.134344 -0.0196913 0.0785896 -0.0673016 0.107367 -0.0320618 0.0740594 0.0310792 -0.0887021 -0.0165797 -0.0786326 0.034946 0.0349116 0.139114 -0.0200726 0.06467 -0.041644 0.0344304 0.0213903 0.0127831 0.0496109 -0.0181787 0.0164347 0.0296284 -0.0222 -0.0403029 -0.0134524 -0.105697 0.0455058 0.0640052 0.0745869 -0.00486725 0.0640043 0.0379594 -0.0327686 0.0153874 -0.0785384 -0.0371948 0.0571526 -0.0684415 0.0634813 -0.0190003 0.0896247 0.0270412 0.0457529 0.111231 0.0120539 0.0336608 0.067559 0.0688981 0.00169792 -0.0304195 -0.0723073 0.0157095 0.120565 0.0314937 -0.022744 0.0147293 0.0488548 -0.145284 0.0399109 -0.0104729 0.0414865 -0.022333 0.00298408 0.0586739 -0.120844 -0.108512 0.0858001 -0.0778937 -0.0403074 0.00604485 0.0221198 -0.0280771 0.0269949 -0.0758713 0.100557 -0.0322572 0.0699215 0.0539002 0.0101677 0.10414 0.0410737 -0.0558435 0.0266388 0.0229386 0.0840075 -0.0436029 0.0604 0.0038772 0.0417636 -0.0282152 0.0720723 0.0862036 -0.0582757 0.0100119 -0.0516086 -0.0714344 -0.00887704 0.0029654 -0.055048 -0.0162409 0.000450415 -0.0244077 0.0115357 0.032462 -0.0349856 -0.0120166
advice 0.0669802 -0.0226969 0.0579989 -0.0151982 -0.0255501 0.0819643 -0.0609411 -0.112306 -0.0427163 -0.0604029 -0.00674161 0.100464 -0.0288913 -0.0106794 0.0472388 -0.015427 0.0391267 -0.011738 -0.0563324 -0.00364477 -0.0581656 -0.100158 -0.00791254 0.0619752 -0.0116548 0.0204502 0.117647 -0.0236556 -0.0497218 -0.00270716 -0.0665903 -0.0422248 -0.0440004 -0.0219758 -0.0350685 -0.00288446 -0.042596 0.0424246 -0.143017 -0.0168417 -0.00527772 -0.024707 0.0924553 0.0343819 -0.0581721 -0.029954 -0.0456623 -0.0300128 -0.0152444 0.00268859 0.0586318 -0.0220122 -0.0467857 0.0709682 -0.0056119 0.00173768 0.0444585 0.00568017 -0.0103506 -0.0166431 0.0603921 -0.01525 0.110821 -0.0990296 -0.012867 -0.00700407 0.0978096 0.0472607 -0.0162374 0.00522635 0.00502141 0.038054 0.0341782 0.0266676 0.0671435 0.0434792 -0.0857784 0.0232498 0.106578 0.0848043 -0.0687424 0.0101661 0.0838838 -0.0182738 -0.0441787 -0.0590321 -0.0215986 -0.050756 0.0441737 0.0493965 -0.00719906 -0.0260847 -0.0334351 -0.0712781 -0.0627009 -0.0266933 -0.098129 0.0495698 -0.021241 0.0384551 -0.0148491 -0.0165214 -0.1011 -0.0590617 0.053584 -0.0594477 -0.0302082 -0.0661345 0.00533853 0.0556135 0.032896 0.155101 -0.12097 -0.0771208 0.00634918 0.0273113 -0.0476027 0.0202531 -0.0415954 -0.00855599 0.0959824 0.0551942 0.00570293 0.0554132 -0.0718053 -0.0371626 -0.0176637 -0.00561581 -0.00842248 -0.0806044 -0.00148051 -0.0228967 -0.153123 -0.036049 0.0425835 0.0229028 -0.0676387 0.158274 0.033561 -0.0233066 0.0336498 -0.0390154 0.0326062 -0.0631165 -0.00596537 0.0747202 -0.0415212 -0.0489884 0.0456512 0.0152807 -0.10949 -0.00350546 -0.0140318 0.0945612 0.052255 -0.0395369 -0.0487445 -0.0605384 -0.0257039 0.0175954 0.0143228 -0.0640329 0.0230631 -0.0478204 0.0303229 0.036237 -0.0238466 0.0320194 -0.0125939 0.058551 -0.0249579 -0.040606 -0.134797 -0.0456233 -0.0622611 0.0949224 -0.030492 -0.0759422 0.0529582 -0.109743 -0.0490234 0.0160589 0.0877263 0.0108194 -0.0633952 -0.0669613 -0.0414275 0.0562029 -0.0991284 0.0618697 0.0881716 0.0170247 -0.0725181 -0.0102217 0.0011257 0.0280996 -0.0627118 -0.139153 -0.00413737 0.101916 -0.0254601 0.064896 0.000837797 -0.00940137 0.0191471 0.0252079 -0.00109344 0.0793345 -0.0589451 -0.0128025 0.0430511 -0.0832322 0.0570654 -0.0679521 0.0168255 0.0349629 0.105353 -0.0604012 -0.0629986 -0.0659938 0.1104 -0.0385894 0.138783 0.00358525 0.0201704 -0.0524856 0.0489133 -0.0664939 -0.0553982 -0.0179464 -0.0636882 -0.0800214 -0.00454333 0.00640653 0.0352127 0.0353786 0.0115307 -0.049081 -0.00165348 -0.00533598 0.0188334 -0.0659059 0.0863002 0.0565929 -0.0758237 -0.084626 -0.0145028 0.0289085 -0.0785384 0.0729768 -0.0606939 -0.0622629 0.0739173 -0.0311873 0.0142593 0.0683054 0.016126 -0.11293 -0.0251462 -0.102586 0.0387844 -0.103674 -0.0594428 -0.0638489 0.0656648 -0.0184776 0.0673844 -0.0445019 0.0661996 -0.0837288 0.0356811 0.00049015 0.0403183 0.0232119 0.027977 0.0814585 -0.0270934 0.0140282 0.014982 0.00583144 -0.0555977 0.0470975 -0.042408 -0.0846646 -0.0768312 0.00353419 0.00296098 0.0286186 0.0873556 0.051494 -0.0189119 -0.139574 0.0223265 -0.111936 0.0445478 -0.0352912 -0.0383743 0.0791375 0.0325731 -0.0888337
ago -0.0550236 -0.00458178 0.0024247 -0.0267513 -0.0307939 -0.0184388 -0.0645556 0.0298706 0.0884232 -0.0110272 0.0469658 -0.0426699 0.0197711 0.0169186 0.0985315 -0.0786336 0.016309 -0.0495649 0.0497268 -0.00242669 -0.0144782 -0.0554941 0.0417638 0.0126029 0.0266503 0.0772976 0.00727772 -0.0341301 -0.0113247 0.0615508 -0.0180671 -0.011981 -0.0153566 0.115913 -0.00548234 0.0268332 -0.0203143 -0.0314687 0.114612 0.0334201 -0.0201821 0.0335311 0.00522959 -0.0242637 0.0336168 -0.012459 0.0598085 0.136874 -0.100762 0.0157101 -0.0567887 -0.0567447 0.0418796 -0.0142532 0.0247996 -0.0731046 0.0725657 -0.0601901 0.0545821 0.0202407 -0.0276894 -0.0640587 -0.0866832 0.0147447 -0.03934 0.106517 0.0451545 0.0548417 -0.0262755 -0.0200606 -0.00897003 0.0029291 0.0274194 0.0174283 -0.020344 -0.0132014 -0.0078987 0.0790003 0.0107544 -0.121472 0.049887 -0.0792841 -0.115754 0.002114 0.039875 -0.0726591 0.0166317 -0.095531 0.107644 -0.00940553 0.0727267 -0.043794 0.0596482 -0.037768 0.10886 0.0525145 0.0682486 -0.0338037 -0.0165907 0.0398024 -0.00978567 -0.0263218 0.02859 0.0182847 -0.0223505 0.0137477 -0.0211295 -0.0795926 -0.0463023 0.106073 0.18422 0.00273999 0.0269396 -0.0622792 0.0293533 0.0372829 0.071997 -0.0234002 0.0309883 -0.0504177 -0.0474786 0.0154946 0.0730109 0.150077 0.061777 0.0482822 0.00520443 0.0647165 0.138791 0.000521647 0.0154649 -0.017661 0.0493071 -0.0892951 0.0190131 -0.0057048 0.0412617 0.0898209 -0.04502 -0.0576275 0.0700327 -0.0084354 -0.0113042 0.0541208 -0.0155139 0.0670145 0.107412 -0.0200358 -0.0285437 -0.0326918 0.11545 0.105697 0.037453 -0.0311272 0.083646 0.0632585 -0.103961 -0.0133761 0.0615405 0.0750033 -0.00878782 -0.0218158 0.00479188 0.0481344 -0.0109156 0.0295076 -0.05757 0.0682489 -0.0539313 -0.0796758 0.0498497 -0.0246746 -0.0751822 0.0395715 0.0528878 -0.0232293 0.156199 -0.0212276 -0.021816 -0.0199722 -0.0334393 -0.0273008 0.012875 0.0611558 0.0493626 0.106599 0.0550597 0.0811923 0.100707 -0.0749411 -0.0287941 -0.0601373 -0.0832226 0.000809133 -0.0597769 -0.0111331 -0.0469731 -0.0762441 0.0797937 0.00372957 0.0266202 0.0499362 -0.0170349 0.0391242 0.0961387 0.0217579 0.0610125 -0.0156128 0.0115409 -0.00535037 -0.041666 0.0216557 -0.0298632 0.0226089 0.069803 -0.00441877 -0.0366251 -0.00913951 0.0309622 0.0206575 -0.00640592 0.0342704 0.0492442 -0.0178795 -0.0784352 -0.0850989 -0.0704117 -0.0370624 0.16824 0.0065464 0.0417061 0.0550427 -0.0213461 -0.00265818 -0.0337156 -0.0916192 0.00992754 0.0492935 0.0348753 -0.0915838 0.0990708 -0.14069 0.028609 0.0505191 0.0633314 0.0410514 0.0379476 -0.0569264 0.0437851 0.105926 0.0209957 0.113657 -0.0193517 0.00651609 -0.103884 0.00153094 0.0342736 0.010334 0.0774725 -0.041332 -0.0510132 0.0657796 -0.0872487 -0.0529408 -0.035254 -0.00142481 0.0113823 -0.0702987 0.0388541 -0.0545626 0.0276404 0.000999873 0.0216251 0.00877445 0.0178287 -0.0134014 -0.125934 -0.043655 0.0581087 -0.112597 0.0539297 0.110276 0.0447571 -0.0293722 -0.121667 -0.00494636 0.0569704 -0.0438514 -0.0115837 0.034275 -0.0286355 0.084261 -0.00401636 -0.009043 0.0945699 -0.0687426 -0.0221653 0.0482094 -0.0295845 0.00885471
air 0.021754 -0.0418423 0.0610811 0.0623305 0.0472764 0.00106456 0.0708417 -0.00708509 -0.136345 -0.0530753 -0.031839 0.0203829 0.0512401 -0.0326262 -0.11808 -0.0708435 -0.0485652 0.0490501 0.001008 -0.0201509 0.0940527 0.0280995 -0.00368996 -0.0539394 -0.031387 0.00404594 -0.0332713 0.0415835 0.0751822 0.0305817 0.0110183 -0.126305 0.00498823 0.0538186 -0.0277663 -0.0823598 -0.0598699 0.0732996 -0.0721815 0.0801998 0.0568657 -0.0738013 -0.0353855 -0.051586 0.034684 0.0433443 0.0440825 -0.0199943 0.00222807 0.0287854 -0.0144423 -0.0612205 0.10102 -0.179767 0.0156041 0.0104851 -0.130121 0.0287163 -0.0119701 -0.076284 0.0123043 -0.0131639 -0.0747125 0.0158876 0.0942844 0.0053333 -0.000825682 -0.132493 -0.0177368 0.0244968 -0.0587402 -0.0379622 -0.00712646 -0.201518 -0.040752 -0.0242375 0.118922 -0.0336052 0.0237023 -0.0317582 -0.0120928 0.0486083 -0.0454111 -0.0323109 0.0145717 0.0661437 -0.0329568 -0.0386628 0.0301441 -0.00450482 -0.00420794 0.107613 0.00765517 0.0212979 0.0487733 -0.0321622 -0.00691128 -0.00059784 0.0161202 -0.0691139 0.0336219 0.00959221 0.103205 -0.0747066 0.0274388 0.00642246 -0.0397761 -0.0429713 0.0851275 -0.0929644 -0.032991 -0.0310922 0.0452889 -0.061677 0.0701124 -0.127908 -0.0521048 -0.0486814 -0.0740514 0.0780408 -0.0554601 0.0300076 -0.039205 0.0434169 0.0537693 0.00823873 -0.022192 -0.0551852 -0.00889414 0.0584155 -0.0688848 -0.0196924 -0.0651961 0.111697 0.0218701 0.0506981 -0.00362686 0.0600382 -0.0310889 -0.024452 0.0588298 0.0815544 -0.00838569 -0.107121 0.00112913 -0.0097943 -0.0593399 -0.018443 -0.00901198 -0.00807389 0.0990902 -0.0443142 -0.00287111 -0.0253757 -0.0304704 -0.100728 0.0548063 0.0493818 0.0820418 -0.0890765 0.00646466 0.0410176 -0.015585 -0.0518883 0.0210169 -0.0719462 -0.0558137 0.0422953 -0.109528 0.00706523 -0.0342912 -0.00424625 0.00844497 0.00292104 -0.00998062 0.0604334 0.033928 -0.00493528 0.0725563 -0.0495718 0.0207548 0.00354796 -0.0515569 0.0166626 0.117556 -0.00510769 0.0393385 -0.00498606 -0.0255672 -0.0515051 0.0890178 0.00402536 -0.0148461 0.18869 -0.00193913 -0.0421647 0.0159281 -0.079074 0.00304922 0.0288375 -0.177619 0.0194596 -0.0207932 0.0111463 0.076403 -0.000630931 -0.0335826 0.034765 0.0761337 0.028765 0.0508506 -0.0611413 0.0461879 -0.0104985 0.0733083 -0.0454353 -0.0488994 0.153582 -0.0529752 -0.00231822 -0.0379094 -0.0100213 -0.0753211 -0.0207085 -0.00714279 0.0814312 0.0244921 0.021107 0.065788 -0.0900578 -0.0530697 0.135082 0.00455677 0.0207191 0.0907705 0.0312675 -0.038539 0.0204732 -0.0353636 0.0462989 -0.0697001 0.0190792 -0.00368964 -0.0376079 -0.0719524 0.063975 -0.0857285 -0.0351505 -0.024322 0.00141318 -0.0130324 -0.0554446 -0.00625836 0.0487692 0.0340986 -0.0162838 -0.0319045 0.0690207 -0.0205544 -0.119945 -0.0635037 -0.109882 0.0640146 -0.00129127 -0.0120269 0.0274504 0.109618 -0.0217257 0.0162916 0.0520277 -0.0215523 -0.0522812 -0.0420145 0.0163731 0.0379533 -0.0127052 -0.0368925 0.0779486 -0.0476558 0.0690111 -0.0766633 -0.04539 0.0117297 0.0741753 0.0300182 0.144656 0.0141482 0.0314901 0.0206904 0.0284204 -0.040246 0.0686426 0.023259 -0.00314446 -0.00349349 -0.0220107 0.105752 -0.00613468 0.0121315 -0.0244177
alan 0.054098 0.0226968 -0.037811 0.043514 0.0686148 -0.028395 0.0868653 -0.0347836 0.0114661 0.0164029 -0.0664397 -0.0571212 -0.0710317 -0.157254 0.00347353 0.0111715 0.113878 0.0755679 0.0673002 0.0229395 0.0723209 -0.117093 0.119817 0.107549 0.030664 -0.0848039 -0.0866359 -0.0496615 -0.0498263 -0.0213038 -0.018169 -0.0661042 -0.0623235 0.0310258 0.00949347 -0.0182964 -0.0203445 0.0127692 -0.136594 0.00907302 -0.0946879 0.0341448 -0.00919471 -0.129273 -0.0312742 0.0552357 -0.0712181 -0.0089642 -0.0621077 0.0287041 0.0405158 0.0762848 0.0251093 0.0226426 -0.000891647 -0.0542113 0.113048 0.0564734 0.0414012 0.0231668 0.0752091 -0.0118821 0.0388011 0.0533569 -0.0365626 -0.039258 0.00222807 -0.155913 0.0226543 0.0660587 0.00391746 0.0239547 0.136113 -0.0896912 -0.0393906 -0.00620831 -0.0172568 0.0114428 -0.0230821 -0.00920774 0.0268457 -0.0618047 0.0812513 -0.0410195 -0.00657727 -0.0639966 0.0319823 0.0135009 -0.0254532 -0.035764 -0.0410731 -0.0113343 0.0407055 -0.0348285 -0.0470288 -0.0062395 0.0316037 0.137248 0.0398733 0.0035038 -0.0209207 -0.0253941 -0.138897 0.0694494 -0.00726454 -0.0228929 -0.0715564 0.0683435 -0.0735186 0.021551 0.0950445 0.0179564 -0.00992701 0.0683145 0.014053 0.121577 0.0561152 0.0101492 -0.00534529 -0.113437 0.0282488 0.110314 0.00792853 0.0307048 -0.0499321 -0.00198971 0.0739231 0.0370766 0.0177438 0.00269831 -0.0153954 -0.128749 0.0984628 0.0940486 0.0693208 0.0785878 -0.0112863 -0.0116297 0.0048657 0.0396761 0.0534408 -0.00945472 -0.00105234 0.0158244 -0.0798594 -0.0779271 0.019528 0.0434049 0.0160933 0.0284751 0.0126486 -0.00596713 -0.0261117 -0.0528106 0.0229751 0.0628134 -0.0114257 0.0309942 -0.118218 -0.0325902 0.0427245 -0.0269378 -0.0430881 0.109274 0.0454025 -0.0548071 0.112938 -0.00371119 0.0736962 0.0999268 0.0542911 0.165891 -0.0160685 -0.0470644 -0.0122554 0.0575563 -0.0746726 0.0120088 -0.0286661 0.0443116 0.0394627 -0.00489354 -0.00916622 -0.0236626 0.0281309 -0.0822786 -0.0659363 0.00948482 -0.0305574 -0.0134428 0.111456 0.0137091 0.00595315 -0.00255356 -0.021279 -0.0308852 -0.0885277 -0.000978851 -0.0116909 -0.0109026 0.00531461 -0.0716705 0.0945109 0.0309331 -0.0708076 -0.0266841 0.0266678 -0.0623836 -0.0232929 -0.0432902 0.0218599 -0.0772873 -0.0730546 -0.067697 0.0179972 -0.0271032 0.0231272 -0.0267129 -0.0159556 0.09173 0.0728507 0.0928133 0.0209839 0.0245451 0.0444953 -0.0536345 -0.0177386 0.0550096 0.0231575 0.00296738 0.00126286 -0.13571 -0.045855 0.00464314 -0.0334405 0.0211559 0.104302 0.0286707 0.0626102 0.0323826 -0.149122 0.0122341 0.0215411 0.0171416 -0.0758488 -0.0952881 -0.0181096 -0.101397 0.0435839 -0.0953022 -0.041593 0.0798409 -0.011492 0.0159674 0.0718466 0.0338466 0.0542265 0.0365848 0.0153507 0.0258407 0.0145714 0.0252282 0.0811142 0.0155205 -0.0583644 0.0259444 0.0689903 -0.0120062 -0.0318842 -0.0254875 0.0187919 -0.0250236 -0.0609081 -0.00268073 0.00141221 -0.0518454 0.00249071 -0.0235428 -0.0221538 0.0771917 0.0991621 -0.102288 -0.0860332 -0.00356871 0.0197792 -0.0607306 0.0127203 -0.0487949 0.033412 -0.0568313 0.0309722 -0.00564238 -0.054756 0.0474401 -0.0246087 -0.0761356 0.0640385 0.0834354 -0.00588905 0.070252
albany -0.0937727 -0.0130541 -0.0245496 -0.0154829 -0.0765557 0.0284574 0.010965 -0.0244257 0.0278266 -0.0411777 -0.0511343 0.0307877 0.045975 0.0959715 0.0128219 0.0235438 -0.00353723 -0.0247193 0.0382405 0.0262008 0.0242981 -0.0743834 -0.0746182 0.0501283 0.107232 -0.00507774 0.128511 0.0220275 0.0961953 0.0123202 0.141496 -0.0116725 -0.0527412 -0.00064426 -0.0116303 0.00409533 0.0362216 0.0108023 -0.0619943 -0.0442307 0.0799512 -0.0445586 -0.0129655 0.00814852 -0.0255326 0.0147359 -0.0347631 -0.0488082 0.0576665 -0.107889 -0.0570498 0.00167252 0.0232548 -0.0861849 0.0377076 -0.0212426 -0.0237554 -0.0416616 -0.00267681 -0.0911341 -0.0506506 0.0235274 -0.0889492 -0.0172692 -0.0955507 -0.0926103 0.0631015 -0.0967148 0.0259283 0.0233126 -0.0373131 -0.00705084 -0.143141 0.0534924 -0.195013 -0.101052 0.0482551 -0.0596366 -0.0477424 -0.0397035 -0.0468898 0.126476 0.0538126 0.0277703 0.0762818 -0.000483116 0.064483 0.117368 0.0622556 0.0169813 0.067024 0.0864247 -0.0192916 -0.0507378 0.0443975 -0.017294 -0.00255862 -0.0857378 0.0753895 0.0201281 -0.0347634 -0.0276479 0.0406724 -0.00298327 -0.0458819 -0.0504926 0.0747233 -0.0942687 -0.09627 -0.108759 0.0107481 -0.0885985 -0.0197176 0.07207 0.00449695 -0.0321823 -0.0741398 -0.0810677 0.00616417 -0.0448552 0.0505878 0.0504901 0.0169531 -0.072337 0.0679781 -0.0294757 -0.057535 -0.000580618 0.0409999 0.00174921 0.0466768 0.00910146 -0.0567565 0.179935 -0.126591 -0.0690983 -0.0151661 0.111198 -0.0441345 -0.048257 -0.0900613 0.0174919 -0.037002 -0.0254009 -0.0774615 -0.0158414 0.0415398 -0.0505484 0.0362152 -0.0407094 0.145524 -0.0173895 -0.037574 -0.0136667 0.016264 0.0299313 -0.00676799 -0.060089 -0.10868 0.0119067 -0.00762462 0.0183114 0.000202949 -0.0631815 -0.0457121 -0.0121121 0.0652991 -0.0159331 -0.0427318 0.0447316 -0.106913 0.0746225 -0.0299944 0.106424 0.0267426 -0.0795873 -0.015655 0.108583 -0.0994573 -0.00356333 0.027599 0.0295303 0.0136591 0.0177219 0.00902967 0.0418628 -0.0796698 -0.0661692 0.0140233 0.0295953 -0.0221061 0.0474215 0.049884 -0.0264029 0.0662426 0.0617862 0.0480878 -0.0630217 0.0289611 -0.0127189 0.0760026 -0.0653765 0.0447216 -0.0118039 0.000400095 -0.0107702 0.0641005 0.0519433 -0.0525145 0.0644701 -0.0303794 -0.154993 -0.022596 -0.0776546 -0.0247211 -0.0278267 0.0561873 -0.0297588 -0.0505986 -0.013163 -0.0657431 -0.0711952 -0.070029 -0.0402957 0.0626636 0.0280215 -0.0238659 0.0114436 0.0425383 -0.0820317 -0.0523138 -0.0592415 0.0331568 -0.0183317 -0.03128 0.0255083 -0.0353649 -0.0439219 -0.0368301 0.0570282 0.0219069 -0.0221238 -0.032043 -0.0587298 -0.0648503 0.0258083 0.0581644 -0.0483798 -0.0254437 0.00334603 -0.0078754 0.0826722 0.0259226 -0.00933346 0.082296 0.0025071 0.109257 0.0116879 -0.0136215 0.0364465 -0.0248233 -0.0226676 0.059483 -0.024042 -0.0431946 0.0294426 0.0335917 0.0795394 0.007371 -0.00445585 0.0138143 0.0601574 -0.0774368 0.00831938 0.0423463 0.0516892 -0.00591835 0.0817394 -0.0115629 0.0290256 -0.103624 -0.00656293 0.00347996 -0.081301 0.0588964 -0.0877445 0.0528571 0.027481 -0.016786 -0.00351312 -0.0225554 0.0784381 0.0228503 -0.000498882 -0.0353376 0.0138527 -0.0275035 -0.0981055 -0.176852 0.00481307
alexander 0.0669366 -0.0139947 -0.143788 0.129165 0.0368815 0.0152528 0.12136 -0.062381 -0.0515289 0.0298977 -0.0291599 -0.00629977 -0.00703551 -0.159886 0.0546391 0.0624642 -0.0250426 0.0121938 0.0995685 0.0990122 -0.0579604 -0.1741 0.0430895 0.0296435 0.0576697 0.00280493 0.00837922 0.00655496 -0.0203112 -0.0627413 -0.0189136 -0.0242265 0.0378031 -0.037638 0.012381 0.0245916 0.0474354 -0.0615775 -0.119179 -0.0271805 -0.0306813 -0.0300882 -0.0628563 0.0123981 -0.0499022 -0.0445661 -0.16805 -0.0967067 -0.0141236 -0.0238228 0.0285983 0.0512499 0.0633826 -0.033354 0.0503198 -0.0281827 0.0469911 0.0195077 0.0359287 -0.0507311 0.0277259 0.0265981 -0.0310575 -0.0082406 -0.172302 -0.0560061 0.0507418 -0.0756466 -0.116808 -0.0547358 -0.046702 0.0472354 -0.0347541 -0.0664797 0.0478753 -0.0632051 -0.0556531 -0.0153008 -0.0394835 -0.096308 0.0458021 0.0597953 0.0115857 -0.0830561 0.0492183 -0.0855697 -0.019058 0.103803 0.0366081 -0.0747284 -0.00610445 0.0571856 0.0458561 -0.0197572 -0.0611784 0.000544234 0.0605461 0.00153295 -0.0498428 0.0504882 -0.0050627 0.000635835 -0.102808 0.0675366 0.00436978 -0.107355 -0.0461591 0.123634 -0.0805997 -0.0323293 0.0402535 -0.00546332 -0.0632077 0.04591 0.00500201 0.0724374 -0.0444924 0.0610192 -0.0400691 -0.0448475 -0.0703074 0.0718633 0.0273103 -0.0148079 -0.0127315 -0.011892 -0.0199469 0.0243244 -0.0700373 -0.0166182 -0.0508704 -0.00252441 -0.0113308 0.093058 0.101894 0.00552436 -0.0110721 -0.0182368 -0.042895 0.0217723 -0.119779 -0.00430505 -0.0381222 -0.0661058 0.0390604 -0.0884567 -0.0566206 -0.00554836 0.0309735 -0.0349296 0.0808176 -0.0975948 0.00621654 0.0313135 0.0205084 0.0642692 -0.0358504 -0.0457792 -0.0816379 -0.0598817 -0.0114049 -0.0542013 -0.0662632 0.0863247 0.0642694 -0.0816558 0.101894 -0.0380739 -0.03283 0.0325318 -4.27542e-05 0.0544909 0.0188825 0.0230122 -0.0600334 -0.000986739 -0.0961909 0.0384422 -0.0290326 0.0694579 -0.100748 -0.0581322 -0.0373721 -0.0269598 -0.0334203 -0.0593111 -0.0504229 0.0516528 -0.019985 0.0526984 0.0548608 -0.015958 0.05039 0.0106184 0.0772353 -0.034553 -0.0357103 -0.0135262 0.0189698 0.0296449 0.0481032 -0.0544121 0.063558 -0.0552498 -0.00337458 -0.00250703 -0.0644431 -0.000206983 0.0185969 0.0537732 -0.0195257 -0.0640756 -0.058282 0.00118709 0.0345217 0.0276805 0.058724 0.018527 -0.068107 0.0151921 0.0266214 0.0621939 0.0634202 0.0372418 0.023419 0.0544914 0.0529531 -0.0281423 0.0332859 -0.0781459 0.00278858 -0.0860624 -0.0369792 0.0299543 0.0109085 0.0176827 0.0599019 -0.0423443 0.0203544 0.0504018 -0.0564322 -0.0345955 0.0219005 -0.0643013 0.0408992 -0.0183774 0.120795 0.053079 0.00380257 -0.0212947 -0.0740841 0.116541 -0.0314419 0.00410088 -0.0376612 0.00116542 0.0805038 -0.0285741 -0.0578061 0.0642238 -0.0271061 0.085795 -0.0152741 0.0755094 -0.0049478 0.0565317 0.0126469 0.0611887 0.0096095 -0.0246854 0.0340997 -0.0356075 -0.116754 -0.0509448 -0.0154494 0.015779 -0.020706 0.0332818 0.00586218 0.0352209 0.0421253 -0.0873859 -0.132903 0.00369818 0.0421095 -0.0459202 -0.0178863 -0.0275631 -0.0752371 -0.0439298 0.0975341 0.0113266 -0.00366715 0.134856 0.00996883 -0.00116339 0.102587 0.0899016 -0.0275339 0.150571
alfalfa -0.020536 -0.00166977 -0.0399323 0.0864663 -0.064282 0.00388088 -0.0727521 -0.0515864 -0.0308608 -0.00583692 -0.0508065 -0.0154828 -0.154409 -0.00047077 -0.0388448 0.0106854 0.121347 0.01757 0.0302205 0.00605828 -0.0255572 -0.0221709 0.0485406 0.0523807 0.057899 -0.0141921 -0.022686 -0.0159674 0.071841 -0.0726043 0.0431541 0.056753 0.0193848 -0.0724457 -0.00293022 -0.0437089 -0.00820769 -0.0098257 0.0468905 -0.0110672 0.0592108 -0.00444246 0.107306 -0.040178 -0.045811 -0.0562086 0.0306151 0.0737764 0.0159547 0.0537311 -0.021221 -0.0198969 0.035982 -0.0547133 0.0783334 -0.0628 -0.120747 0.00289862 0.0144233 -0.0538429 0.0533868 0.0744215 -0.0783966 0.0379728 0.0245642 0.0490257 0.0739879 -0.097523 0.0413121 -0.0566424 -0.0382351 -0.0495518 0.0765917 -0.0218494 0.00626869 -0.108679 0.133424 0.0350699 0.0406644 0.0259784 -0.107177 0.0492936 0.011372 0.047295 -0.0119418 -0.02291 0.0819562 0.0384416 -0.0355543 -0.00306728 -0.125055 -0.0738904 -0.042528 0.0324198 0.0321535 0.0159614 -0.00763078 -0.00618996 -0.0128616 0.000102578 -0.0432373 -0.0310398 0.00636835 0.0527256 0.0453031 0.110917 -0.065068 0.034022 -0.056664 0.0457777 -0.0390857 0.118533 -0.0222778 0.0899047 -0.0183279 -0.0141203 0.0236412 -0.0322777 -0.0074619 -0.0503892 -0.0455876 -0.036893 0.00932617 -0.0536987 -0.0419594 -0.11848 -0.113915 0.0518669 0.0190396 -0.00609162 0.126823 -0.0550566 0.0882715 0.10283 -0.0365732 -0.0116329 0.0301906 -0.00830724 0.0973497 -0.0499298 -0.0685767 0.0365409 0.0604854 0.00936509 0.0531742 0.0741139 0.0374671 -0.0275411 0.0129905 -0.00994049 0.0151208 0.14496 0.0700986 -0.0152191 -0.0753997 0.0285809 0.0801449 -0.0895545 0.0219899 0.0432267 0.0629874 -0.00328836 0.0272434 0.0692708 0.0272133 -0.0353396 0.0151386 0.0533656 -0.00197135 0.0064185 -0.0836946 0.00541526 -0.108167 -0.0120411 0.030492 0.0397929 0.036868 -0.114196 -0.0151964 0.0547171 -0.0198622 -0.0889459 -0.0462173 0.0316934 0.0609006 -0.0628663 -0.0821506 0.0201968 -0.112253 0.0250482 0.0812168 -0.127707 0.0306436 -0.093914 0.0237813 -0.018663 0.129683 0.0528971 -0.00136303 -0.0246427 -0.00331721 -0.0735706 -0.031668 0.0288287 -0.0358607 -0.0938321 -0.0237822 0.101152 0.0166696 0.0930645 0.0351985 -0.0287319 -0.0373508 0.040902 -0.0242462 0.0575115 0.0223745 -0.0641948 -0.00993143 -0.0591091 0.0339287 0.0719362 0.0111462 -0.00719057 0.0156703 -0.0547177 -0.0563296 0.016997 0.020373 0.00396059 -0.0723543 -0.0723362 0.0583139 -0.0262231 0.069678 -0.0511653 0.0415366 0.0982199 -0.117344 0.00174189 0.0585374 -0.0221372 -0.103621 -0.0362763 -0.0413246 0.062113 0.0114231 -0.0454107 0.0611488 0.00224262 0.0611291 0.037122 0.0547065 -0.0119925 -0.126402 -0.0327 0.0774239 -0.00699567 0.000345054 -0.0228154 0.00545099 0.015605 0.017569 0.0661045 -0.0384864 -0.0264984 0.101393 0.00846885 0.0392622 -0.0486921 -0.0928082 -0.0128647 0.0258606 0.0892401 0.0404625 0.0176596 0.100226 0.0531564 -0.0680091 0.0630803 -0.104657 0.0906346 -0.0924051 0.0648894 0.0233886 -0.0737648 0.100583 0.0654623 0.0137073 0.0102374 -0.108887 0.0296909 0.078487 0.0602613 -0.0125453 -0.0478602 0.0751704 -0.00923701 0.104041 -0.0250955
algorithm 0.0197088 0.0946211 -0.0301291 0.00302804 -0.0156215 0.0351197 -0.0550033 -0.0935454 0.0937117 -0.0164507 0.00576116 0.0206248 -0.0551523 -0.0571577 -0.0308918 -0.0708673 -0.0310579 0.0756305 -0.00404761 0.114164 0.0412055 -0.0179844 -0.000480242 0.0140581 -0.0239503 -0.0272054 -0.081853 -0.0145542 0.0373038 0.0121464 -0.0152958 0.0222387 -0.0499462 -0.00460403 -0.0719959 0.00187414 -0.0296907 -0.162397 0.0416723 0.00519233 0.0814774 -0.102378 -0.111638 -0.0519005 -0.115719 -0.0202045 -0.00483471 0.03042 -0.0782133 -0.00182918 -0.069968 0.000152482 0.0609726 0.0172767 0.0173684 -0.0155168 -0.089534 0.025877 -0.00707572 0.0310167 0.0514991 0.0398099 0.0120969 -0.0885759 0.0212554 -0.106612 -0.00481292 -0.0218941 0.00652307 0.0304868 -0.0872728 -0.0877868 0.0955689 0.0661264 -0.00889617 -0.043227 0.0651615 -0.113118 0.0514746 0.0803709 0.140694 -0.0245759 0.0347426 0.0149802 -0.0259632 -0.00184313 0.0539534 -0.0369897 -0.0709096 0.0537417 -0.0678136 -0.0232229 -0.045447 0.0508224 0.0234343 0.0207168 -0.0133672 -0.103437 -0.0651019 -0.0156778 0.046561 -0.0178955 0.0472173 -0.0628239 -0.00597811 -0.0196523 -0.0638362 -0.00930423 -0.0439049 0.00262062 -0.0532919 0.0667712 -0.171185 0.0274004 0.0838953 -0.00888593 -0.00840777 0.0666188 -0.0738505 0.0615729 0.121604 0.0617503 0.021903 -0.071697 -0.0138684 0.0139502 0.0460728 0.0289342 0.0170422 0.0398656 0.00797701 -0.0405879 -0.0947054 0.0288363 0.0278914 -0.0832302 0.067875 -0.0713641 0.0592004 0.00668882 0.00656591 -0.00811474 0.0427671 0.14942 0.0105471 0.00024953 -0.0250262 0.050192 -0.0750322 0.0133394 0.0127161 0.0094436 -0.0258034 -0.0606029 -0.0183218 0.03492 0.0210018 0.0665048 0.0735547 0.0463954 0.00638199 -0.0181644 0.0970358 0.0278035 -0.0234907 -0.0571535 0.00315077 0.0366611 -0.0254852 -0.0543686 0.0576348 0.0338567 -0.0296898 -0.0920601 0.0463187 0.0925734 -0.0397097 -0.0778901 -0.0106586 0.0286726 -0.0105011 -0.00175005 -0.06444 -0.00140204 -0.0624467 0.0248588 0.00649274 -0.0257879 -0.0655775 0.0203748 0.0684305 -0.151907 -0.0293208 -0.038576 0.00848623 -0.0127814 0.0200127 -0.089875 0.0512367 -0.0218399 -0.00801562 -0.0619777 -0.00177264 0.0432377 0.0848371 0.129355 -0.0792682 0.000962895 -0.00868091 0.0964595 0.0328257 0.00777965 -0.0142818 0.0418831 0.00597661 0.0538824 -0.0276203 0.134191 0.0413402 0.0357665 0.000960428 0.00153403 0.0752165 0.048044 0.11012 -0.0759035 -0.0592275 0.0784604 -0.0472374 0.0996205 -0.0689894 -0.0515633 -0.00183814 -0.0448481 0.0199798 0.0272381 -0.0134678 0.0442332 0.0501286 -0.154523 0.00293122 -0.0413061 0.0513463 0.0500157 0.0542767 -0.0300939 -0.0299446 -0.0322162 -0.107706 -0.0669068 0.0367771 -0.169917 0.00581185 -0.0158832 -0.0311082 -0.0469597 -0.0222459 -0.116875 -0.0803037 0.107883 0.0893168 -0.0259826 -0.117515 0.0263621 0.048922 0.068004 -0.011627 -0.0462938 -0.0590386 -0.0176246 0.031088 0.0416571 -0.0785489 0.0158132 0.0261428 0.0426833 -0.0523606 -0.0871091 0.0295397 0.0562349 0.0516265 0.034051 -0.107269 0.0030091 0.0145331 0.00785813 -0.0473242 0.108385 0.0358101 0.0117671 -0.0353433 -0.00562295 0.0389145 -0.0792243 0.031221 -0.0173212 0.0946483 0.0161738 0.014378 -0.0807421
alt 0.165419 -0.0983886 0.0566806 -0.00981699 0.0188805 0.0963021 0.0625036 0.0258679 -0.0539442 0.0382205 0.124783 -0.00348579 -0.0807561 -0.0306781 -0.0483439 -0.0331758 -0.0477133 0.0588946 0.0294108 0.0299182 0.00980831 0.0274886 0.103584 0.0211427 0.100955 0.0117466 0.0654946 -0.0327697 -0.0762466 -0.0623186 -0.0836727 -0.0127553 -0.0221127 0.0123439 -0.000695741 -0.0556129 -0.0135502 -0.100843 0.0146212 -0.0386383 0.0825224 0.0784349 0.0126308 0.0708908 -0.0197904 0.0490517 -0.00262131 0.0337217 -0.0353251 -0.0283519 0.0143554 -0.103405 0.0741327 0.011437 0.0904103 0.112094 0.0437956 0.018843 -0.00650544 0.0457817 -0.0184801 -0.0585324 -0.011238 0.0770813 -0.078829 -0.0322 0.0833123 -0.0390426 -0.0238803 0.027743 -0.0440424 -0.105561 -0.0205127 0.0212646 -0.0140927 -0.0340523 0.0117532 -0.00144669 -0.0164667 -0.180822 -0.0140978 0.0279413 -0.0228372 -0.1184 -0.0655584 -0.00423893 0.0748488 -0.0336988 -0.0227744 0.0299844 0.0301935 0.0357633 0.117408 0.00140669 -0.0116619 0.106929 0.0127481 0.0164727 -0.0710992 0.0303135 0.0605126 0.0709592 0.0611413 -0.0532829 -0.0832953 -0.0344231 -0.0423563 0.0533421 0.0621192 -0.166845 -0.0670838 -0.0796006 0.0795991 -0.0091039 0.0133945 -0.00482551 -0.0297886 -0.0122048 0.0386339 0.0433578 0.0401004 0.013458 -0.00829186 -0.00737108 0.0267072 0.0132749 0.0190824 -0.0192068 0.0882626 0.027527 0.0122354 0.0665306 0.0356915 -0.042066 -0.0226079 0.0736939 -0.067015 -0.0407417 0.0401019 0.10712 -0.0282909 -0.0398881 -0.0478104 -0.0672362 -0.0514283 0.0397711 0.00853015 -0.0560001 -0.0658794 -0.0149826 -0.00985523 -0.0916075 0.062161 -0.0377732 0.00493913 0.0418834 0.00959023 -0.0895627 0.0846573 -0.127252 -0.0766385 0.0673448 -0.0062452 0.0596029 -0.0859365 -0.0527702 0.00941138 0.0096535 -0.0429881 -0.0155213 -0.0335619 0.0588625 0.0213893 0.0129513 0.0315198 -0.00429558 0.0178089 0.0357742 0.0997898 0.0704989 -0.027066 -0.0267649 0.00308692 -0.00162408 0.0464079 -0.0440407 0.0772264 0.0599304 0.0616017 -0.011999 -0.0411778 0.0324659 -0.069252 -0.137075 0.024609 -0.0445006 0.0510112 0.0317034 0.0343293 -0.0818462 0.118522 0.00522016 0.0630747 -0.0484225 0.0163181 -0.0947354 0.0146338 -0.11176 0.0580126 0.047741 -0.0424421 0.0607553 0.0450453 -0.0867691 -0.0207104 -0.00459566 0.0126705 -0.0157649 0.00662867 0.0510967 -0.058708 -0.00234542 0.155577 0.0986753 -0.0861703 0.0788357 0.00886001 0.0291551 -0.0292006 -0.0134161 0.112357 0.0559881 -0.00657194 -0.013866 0.0360077 -0.0899729 -0.0255922 -0.0347731 -0.00867342 0.00215243 -0.0496959 0.0480205 -0.0277398 -0.00564169 -0.0060111 0.0681361 -0.0520393 -0.17274 0.0123557 -0.0609451 -0.0565219 -0.0304339 0.0117887 -0.0231628 0.0149822 -0.00154083 -0.0571707 -0.0172091 0.0334947 0.0695616 0.0347867 0.0741552 0.0548514 0.0609296 0.0238222 -0.0110145 0.043155 -0.00982308 0.022907 0.0319408 -0.00474846 0.000541936 0.0199383 0.0504963 0.0287185 0.0423526 -0.0143467 0.0368895 0.0341817 0.0772041 0.0699137 0.108432 0.158651 0.0652022 0.038516 -0.0655038 -0.0562615 0.0866036 -0.00996965 -0.0643973 0.0202343 0.0126895 0.0429643 0.00715281 0.0307991 -0.147535 -0.0840986 -0.0223559 -0.0130476 0.024329
andrew -0.00453675 -0.0101782 -0.0664263 0.0789694 0.0360211 0.0194428 0.112569 -0.00571417 0.0525038 0.0390867 -0.0292916 -0.0841468 -0.0729258 -0.151253 -0.0364283 0.0689844 0.0428694 0.110904 0.102895 0.0688625 0.035873 -0.108572 0.00521487 0.0883406 0.0504884 -0.0551904 -0.0246766 0.0357754 -0.0749527 -0.103917 -0.00314183 -0.00108485 0.0188149 0.00431777 -0.0669215 -0.0198462 -0.0647131 0.0131793 -0.144768 -0.0154036 -0.0274571 0.0154966 0.00468636 -0.0562977 -0.0136783 0.00644907 -0.0600419 -0.0644602 -0.0278469 -0.0406414 0.0187531 0.154662 0.00686312 -0.00233728 0.00673735 -0.0834487 0.125373 0.0532464 0.0192315 0.0350454 0.101035 0.0345653 -0.0383683 -0.0181672 -0.0636954 -0.021221 -0.0225205 -0.153982 -0.0689009 0.0521649 0.018807 0.0396616 0.0314697 -0.0838084 -0.0150235 -0.0162528 -0.0901026 0.00453755 -0.0346478 -0.0422175 0.074591 -0.0720138 0.00997258 -0.0494528 -0.0031735 -0.0202667 0.0767649 0.0547699 -0.0177509 -0.0597304 0.0558503 0.0294639 0.0289616 -0.0364688 -0.0301438 0.0121249 -0.0547093 0.0262119 0.0925546 0.0760334 0.02074 0.00591243 -0.00454719 0.0794064 -0.0121561 -0.039296 0.0104726 0.0706543 -0.103384 0.0220174 0.0681657 -0.00283397 -0.0608217 0.0268779 -0.00570535 0.124129 0.00565549 0.0510333 -0.0093656 -0.0753346 -0.00282612 0.0656714 -0.00336509 0.0736527 -0.0761187 0.0495554 0.0486662 0.0820635 -0.0128495 -0.0180289 0.0286013 -0.0711208 0.0586486 0.127376 0.103295 0.0104942 -0.0311543 0.000828714 -0.0209973 0.0512803 -0.00942188 0.103097 -0.0558589 -0.0728419 -0.0590877 0.00464872 -0.0350051 0.00437301 0.097597 0.00240826 0.0445535 -0.106571 0.0441524 -0.0148339 0.0339745 0.0617076 -0.000324238 0.00139548 -0.0193706 -0.0497511 0.0854086 -0.0240057 -0.00410834 0.0610102 0.0427262 -0.0435828 0.104352 -0.0396495 0.0871041 0.0313351 -0.034161 0.09566 0.0167612 0.048411 0.0598189 0.0478678 -0.0602278 0.0245727 -0.0896265 0.0346545 -0.00506167 -0.0597493 0.0352633 -0.0168539 0.0785274 -0.0708656 -0.0505876 0.0678054 0.0349774 0.0596888 0.112001 0.0122955 -0.0141947 -0.0333684 0.0604191 0.000349475 -0.0295932 -0.100754 0.0474588 0.00537999 0.0877998 -0.130138 0.0220304 -0.00569483 -0.0055875 0.00183823 -0.0209341 0.0151082 -0.00732554 -0.0395674 0.0111493 -0.0584246 -0.0121258 -0.0133417 -0.0125439 -0.00461318 0.0366503 0.0169383 -0.0131543 0.00616886 0.0437412 0.058195 0.106109 0.0575594 0.12176 -0.0679031 -0.0143575 0.0465208 0.083766 -0.046113 0.0443774 -0.160312 0.0234226 0.021777 -0.0506372 -0.000138649 0.0542365 -0.0546286 0.0634443 0.0375398 -0.109453 -0.00171327 0.0532169 0.0376396 -0.0524966 0.00247426 0.00730845 -0.126662 0.0390261 -0.0304708 -0.00499849 0.10916 -0.0546673 -0.0649984 -0.0117646 -0.0182298 -0.00398886 -0.0885134 0.0396646 0.113117 0.0279841 0.0671929 0.0699366 -0.0300901 -0.111798 0.0466674 0.0172949 -0.00123333 -0.0385818 -0.010324 0.0473271 -0.00285625 -0.0157257 -0.122296 -0.0182341 -0.0117372 0.0441438 0.0158005 -0.0417425 0.0523857 0.079433 -0.0900998 -0.0863463 0.0466461 0.0544069 -0.0910146 -0.0144971 0.0383201 -0.0448132 -0.0647765 0.0510304 -0.0131513 -0.00547774 0.0323115 0.00967545 -0.0422215 0.0475612 -0.0107023 -0.0615749 0.103352
andy -0.0202303 -0.0371836 -0.00853359 0.0273632 0.0462694 0.00222381 0.0826324 -0.0349838 0.107856 -0.0313181 -0.104577 -0.00337721 -0.0343686 -0.0604172 0.0639818 0.0388972 0.0269358 0.0273187 0.0308285 0.0302628 0.0730211 -0.121161 0.102843 0.0381078 0.0477523 -0.0150202 -0.0429722 -0.0809072 -0.0125355 -0.0614479 -0.0775106 0.00428993 -0.0184856 0.0934126 -0.0299225 -0.0230811 -0.0660612 -0.017546 -0.0657298 -0.0494675 -0.0180179 -0.050542 0.0599686 -0.0999292 -0.0301912 0.00549844 -0.0326179 0.0118787 -0.0436587 0.012196 0.029362 0.125352 -0.020101 -0.0673114 -0.0255761 -0.119383 0.0482482 -0.00414657 0.0178087 0.0888595 -0.00762239 0.120922 0.019222 0.0414429 0.0211356 -0.0138634 -0.0126736 -0.126613 -0.0376532 0.0726371 0.0147955 0.040289 0.148434 -0.118706 -0.0283905 -0.00637244 -0.00929001 0.0205782 -0.0204602 0.0391138 -0.0399054 -0.0351701 0.0324103 0.0322388 -0.0532001 -0.0653002 -0.00112481 -0.0129836 0.0230041 0.00393445 -0.0341855 0.0279427 0.0309459 0.0738172 -0.0939858 0.0537971 -0.0167648 0.0522642 0.0229748 -0.0272953 0.0276134 0.0814286 -0.0580763 0.0864434 -0.0587547 0.00955555 0.0260968 0.0357489 0.0363509 0.0460773 0.0105089 0.0528876 -0.0685445 0.00770591 0.0173178 0.085365 0.0147748 0.0153234 0.0058218 -0.0350493 0.0036281 0.107111 -0.0676758 0.0857328 -0.0639239 -0.0260839 -0.0161323 0.0585745 -0.0255413 -0.115848 0.045609 -0.0288749 0.00556468 0.120029 0.120896 -0.0571312 -0.0268364 0.0479257 0.0140502 0.0791537 0.0856611 0.040411 -0.0117131 0.00464297 -0.0339145 0.00415286 -0.0508118 -0.0268912 -0.0136194 0.0168614 0.0771611 -0.0524045 -0.0499954 -0.0440385 -0.0116476 0.018502 -0.0395518 0.0253034 -0.019222 -0.0274691 0.013195 0.0211259 -0.0550386 0.0287931 0.0146754 -0.0637159 0.0234994 0.069478 0.120911 0.0850005 -0.0167551 0.158536 0.0746449 -0.0305594 0.101094 0.0899148 -0.0109346 -0.0205488 -0.0199792 0.0254075 0.121554 0.0388089 0.0692842 -0.022159 0.000363837 0.0122918 0.0427494 0.0928359 -0.0392359 -0.0104224 0.0427934 0.0107719 0.0422567 0.0286308 0.0438048 -0.0288831 -0.0356751 -0.0363351 -0.0315746 -0.0436898 0.0195389 -0.0898308 0.0164728 0.0561866 -0.107919 -0.0267153 0.00959554 -0.0704628 0.00658045 0.0224479 0.07244 -0.0890791 -0.0372615 -0.0613773 0.00414176 0.0154199 0.134678 0.000116808 0.0360987 0.048288 0.0885744 0.0691911 0.0609365 0.0715563 0.0203167 -0.043823 -0.0887119 0.0521152 0.105721 0.0343473 0.0213051 -0.0993484 0.0419658 0.0782912 -0.0072254 0.0666445 0.0354653 0.0418408 -0.00923419 -0.0189267 -0.0935052 0.0166825 0.0287283 -0.0224572 -0.0246974 -0.0264861 -0.0260804 -0.132792 0.0512646 -0.132057 -0.000789328 0.127983 -0.0278379 -0.0679704 -0.0039481 0.0796153 0.0436083 0.00893405 0.0377664 0.114387 0.0185321 0.0294727 0.0420933 -0.0917517 -0.0304652 0.0752871 0.100939 -0.0364278 -0.0144112 0.0380974 0.0620986 0.111416 -0.0265717 -0.102704 -0.0237243 0.0172286 0.0891441 -0.0634536 -0.0665746 0.0927887 0.0748967 -0.119503 -0.0888383 0.0412093 -0.0313146 -0.0689174 0.0150425 -0.0317103 0.0303948 -0.0897724 0.0655923 -0.0581925 -0.00887218 -0.0556478 0.0227835 -0.0188569 0.0484938 -0.063973 0.0222157 0.0450364
angmar -0.00846547 0.0239344 0.0750468 0.026277 -0.182823 0.0415465 -0.0200775 0.0107162 -0.0362882 0.00851901 -0.0673549 -0.0658523 0.0572159 -0.0299779 0.0272202 -0.0048112 -0.0756286 0.00762032 -0.0366498 0.00598939 -0.0989428 -0.0355486 -0.028578 -0.0307379 0.0577164 -0.0516425 0.105594 -0.0150579 0.0939889 0.0090493 0.0880074 0.0945265 0.00299112 0.0287682 -0.00629371 0.00998407 0.0651328 -0.0131172 -0.0677243 0.0169732 -0.0539632 0.0633933 -0.00097723 0.074394 -0.0011107 0.0732022 0.0179825 0.0378865 0.110582 -0.0332686 0.0354669 0.0200552 0.0522629 -0.0356768 -0.0239781 0.0385031 0.00893406 -0.084914 0.116132 -0.0742678 0.0187432 0.0360554 0.0120136 0.0127095 0.0159685 0.113149 0.00358075 0.0218158 0.00670629 -0.010207 0.0745229 0.00595615 0.0721343 -0.0192622 0.10854 -0.0769033 -0.0278067 -0.0970856 -0.0300786 0.0640264 -0.00626589 0.0373422 0.00674699 0.0465457 0.0898319 -0.0725557 -0.0957742 0.000943617 0.0558953 0.0107191 -0.0801566 -0.00195737 -0.00491366 0.14129 0.0356336 0.0152347 0.00898472 -0.0422466 -0.0147998 -0.0488769 0.056326 -0.0650013 0.0290989 -0.00632608 0.0277957 0.0373081 -0.0862012 -0.0414944 -0.0132101 0.0470373 0.0139535 0.0237064 0.0221778 0.0152033 -0.00843887 0.0783548 0.0807198 0.0342547 0.0438668 0.0460154 -0.0483678 0.00969976 -0.0187749 -0.0378469 0.0475768 -0.0775252 -0.0932225 -0.025148 0.169367 0.053239 0.0294073 -0.0499146 0.143378 0.0791085 0.00625714 -0.00889865 0.0224505 -0.0223372 -0.049465 -0.0567601 -0.0402273 -0.00867999 -0.092385 0.0782583 -0.209237 0.0386179 -0.035824 -0.00261579 0.053256 -0.0267187 0.0392951 0.0048002 0.073679 -0.0749709 0.0414868 -0.00358221 -0.0233865 -0.0165356 0.0199996 0.140237 0.023767 -0.0900728 0.00391951 0.0482076 0.126341 0.0934839 0.04362 0.0867818 0.0363823 -0.0356313 -0.020104 -0.0368429 -0.0489566 0.0672467 -0.0576096 -0.0363043 -0.1264 -0.0517625 -0.0661103 -0.0603812 -0.0706476 -0.0833304 -0.0397096 -0.0312465 0.0648121 -0.0109367 0.0139501 -0.0690565 -0.0633563 0.0291238 0.0267597 0.0431933 -0.0128369 -0.00749494 -0.0603112 -0.10283 0.0540566 -0.0122414 0.0887174 0.114725 -0.0624633 0.0340021 0.019003 0.0451591 0.0414658 0.0248622 -0.0658207 -0.109061 0.0517131 0.0936686 -0.0254007 0.0736027 -0.0212404 0.0853796 0.0998981 -0.0886172 -0.0707418 -6.98672e-06 0.03157 0.0957474 0.0235198 0.00297304 0.0182274 -0.112139 -0.0843236 -0.0514144 0.0605813 0.0178925 -0.0731909 -0.0886817 -0.0303798 -0.0165144 -0.0718713 0.0365201 0.0698415 -0.0153253 0.0413972 -0.10792 0.00572539 0.0258089 -0.020011 -0.0679674 -0.00878164 -0.0349551 0.0366547 0.0256489 0.025872 0.0348749 -0.0427895 0.0725719 -0.0186824 -0.0025998 0.0597638 0.0572903 0.0101985 0.042127 -0.0287002 -0.0427999 -0.00116291 -0.0132315 0.0904875 0.0511875 0.0106421 -0.113042 -0.00476608 -0.0317699 0.0127465 0.00366019 0.0739233 0.0673947 0.0322913 -0.0690997 -0.0651371 -0.0324563 0.0165183 -0.0110747 0.0595362 -0.00965256 -0.023978 0.0152359 0.00284418 -0.0485497 0.0111102 -0.0112137 -0.0583516 0.0487 0.0410337 0.0672154 0.00737023 -0.091428 0.0359001 0.0134947 0.078819 0.033259 -0.0723617 0.0953877 0.070108 0.00571538 0.0387011 -0.0733723
animation 0.0320916 0.0326065 -0.0275249 -0.0282027 0.135581 -0.0184807 0.012916 -0.107374 -0.0170945 0.0232226 -0.0525664 -0.0958569 -0.0653949 -0.0261259 -0.0742708 -0.0797936 -0.0288472 0.0355949 -0.0626538 0.0349556 0.0025389 -0.0113866 0.0854574 -0.121767 0.00823228 -0.0252805 -0.0856918 -0.0903703 0.0476522 0.0696777 0.0111378 -0.083847 -0.00433383 -0.0197139 0.0853377 0.00336562 -0.0264901 -0.0687225 0.0334048 -0.000787706 0.0398363 -0.00731468 0.0147972 -0.0315881 -0.0164417 0.113294 -0.00317131 -0.110919 -0.0440844 0.0224353 0.00804149 -0.109994 -0.0314538 -0.0954759 0.026618 0.0897504 0.0459903 0.0731119 0.0553136 -0.0391642 0.0095597 -0.0109609 -0.0767535 -0.0557228 0.0129943 0.101657 0.0572253 -0.0468406 0.0194799 0.0773064 -0.0890892 -0.0116312 -0.0133098 -0.103179 -0.00772082 0.0393756 0.0722985 -0.0908678 0.0344915 0.0376171 0.022958 0.0106555 -0.074023 -0.0837299 -0.0449833 -0.107496 0.00831339 -0.0239913 0.0232974 -0.0275233 -0.0713834 -0.0142331 -0.0494541 -0.0819815 -0.0489128 0.00326709 0.00517211 -0.083929 -0.0239199 -0.020953 0.0081804 0.0615324 0.00566917 -0.0989811 -0.0515151 0.0301563 -0.1105 -0.0170325 0.0516339 -0.0818771 -0.0186166 -0.00756309 0.00767138 -0.036911 0.128154 0.0263019 -0.0147933 -0.00649807 -0.0456663 0.0237199 -0.0463882 0.00759793 -0.0662684 0.015389 0.0531147 -0.0315334 0.0969885 -0.0374471 0.0505002 0.0457594 0.00920329 0.0428876 0.0320898 -0.0145527 0.0738245 -0.0200085 0.00652505 -0.0623909 0.0166376 -0.0194125 3.10533e-06 -0.0890105 0.0446462 0.0260392 0.0552046 -0.000297561 -0.0206404 0.0631572 -0.0773815 -0.0621175 0.0353178 -0.0192315 -0.04471 0.0243622 -0.0433155 -0.0536253 -0.00774901 0.12468 0.0208501 0.0720461 0.0842192 0.0292675 -0.0678676 0.129649 0.0242493 -0.0689734 0.0484181 0.0506741 -0.0359628 -0.0660838 -0.00264229 -0.18737 0.0443757 -0.0152798 0.0576813 0.0286502 -0.0177177 0.00588582 -0.0457158 0.00172728 -0.0182245 0.0591639 -0.0378399 0.097556 0.0433637 -0.0131083 -0.008751 0.129199 0.0662144 0.0495964 0.016669 0.043937 0.0192142 -0.136572 -0.0955211 0.0759977 -0.00740329 -0.0692266 -0.0344319 -0.0584746 -0.0217788 -0.106267 0.0575095 0.114445 0.0480817 -0.122021 -0.00540835 -0.0249314 -0.0527507 0.134561 -0.0373295 -0.112704 0.0647435 -0.0397307 0.043078 0.0116025 -0.0370772 -0.0424167 0.0366051 -0.0804978 0.0541992 -0.00187033 -0.0494427 0.0899783 -0.0791431 0.0329247 -0.11106 0.00321623 -0.0187615 -0.00835153 -0.00719169 -0.0818187 -0.0213688 -0.061038 -0.0167467 0.0237154 -0.0213282 0.102113 -0.0473587 -0.106769 -0.0392984 0.029893 -0.018661 0.0606304 -0.0513573 -0.0523915 -0.0227944 -0.103887 -0.0437637 0.0196628 0.0253414 -0.0796412 -0.000602117 -0.0225196 0.015933 -0.0183225 -0.0996161 -0.0467624 0.0140692 -0.0293154 0.00328253 -0.00475248 -0.0773987 -0.0361609 -0.00679548 0.12195 -0.0601129 0.0155199 -0.00734049 0.0106404 0.0457424 0.0512152 -0.104971 -0.0698438 -0.00103984 -0.0930348 -0.0335771 0.0217959 -0.00600711 -0.0497834 0.0328021 0.0217334 0.0768933 -0.0500534 -0.0442425 0.0937814 0.0716156 -0.0241404 0.0172289 -0.104873 -0.00690952 -0.0390971 -0.0116329 0.033235 0.0357357 -0.00513182 0.0597937 -0.0703889 0.0253963 -0.0740692
anonymous 0.0397977 0.0800562 0.0257766 0.0065835 -0.0810119 0.0853546 0.00442225 -0.00356777 -0.00303596 -0.00333677 -0.0435499 0.117986 0.000891367 0.0318318 -0.130305 -0.0232959 -0.0970809 -0.0372537 -0.0315158 0.0353416 0.15594 0.0467763 -0.0639245 -0.0731624 -0.0313475 -0.0169036 -0.0107975 0.0277386 -0.0372832 -0.041675 0.0195142 0.00431672 0.0465829 0.0122703 -0.00803725 0.0427413 -0.0401669 -0.0996548 -0.0729724 0.0159358 -0.114146 -0.0402369 0.105404 0.109594 -0.00343411 -0.0732807 0.0138128 0.0833583 -0.0285177 -0.013105 0.0835537 0.0591905 -0.0681442 0.0420532 0.0528289 -0.0765991 0.0497986 -0.0423348 0.0643706 -0.0362571 0.0742964 -0.032972 0.02351 -0.0218125 -0.0856051 0.0683881 -0.00902 -0.0394364 0.00543208 0.0296272 0.105578 -0.0486338 0.069782 -0.000242491 -0.0858046 0.0111925 0.0142945 0.0850209 -0.0141507 0.0487375 0.0749298 -0.125371 0.047484 -0.00400935 -0.071642 -0.11734 -0.00570164 0.0612309 -0.181212 -0.0024201 -0.0347729 0.0403995 0.0813919 0.0234168 0.0263634 -0.00787279 -0.0704582 0.0270922 -0.053735 -0.0590417 -0.0415165 -0.00993433 -0.0895795 -0.0515518 -0.0442731 -0.0465027 0.0626657 0.0130377 -0.0250005 -0.0547543 0.0532588 0.0111405 -0.0317957 -0.0937477 0.044316 0.0810383 0.0680847 -0.0195017 -0.0280324 0.0915437 0.0547602 -0.0586822 0.0466981 0.125967 -0.0144404 0.0100311 -0.0296588 0.0428525 -0.0107683 -0.0555967 0.0355427 0.0314326 0.000708793 -0.0516696 0.056895 0.0246194 0.0166514 0.043573 -0.048457 -0.0717843 0.00996002 0.103801 -0.0584051 0.108576 0.0146729 -0.00996021 0.01628 -0.0270475 0.00588956 0.0412636 -0.0251301 -0.00895321 0.00567202 -0.0175028 -0.00130435 0.00589783 0.00057489 -0.00913657 -0.0621793 0.162156 -0.0419381 -0.0890104 0.0572943 0.110661 -0.0128135 -0.047782 0.0201759 -0.0193501 0.0325666 -0.0563149 0.0276283 0.0885553 0.0354758 0.0176103 -0.0266774 0.0128605 -0.00957674 -0.0804354 0.0499104 0.0405449 -0.0727729 -0.0201347 0.166693 -0.0264333 -0.0664506 0.0856697 0.0468544 0.115514 0.00825657 -0.0645495 -0.0176598 0.0393651 -0.0821484 -0.0145288 -0.0687325 0.0141952 -0.051932 -0.0675957 0.0589344 0.0586706 -0.0510859 0.0100772 -0.0112608 0.0301532 0.00601005 0.111557 -0.0346829 0.0058981 0.0824962 0.0449 -0.0637311 -0.0109967 -0.0590204 0.0693154 0.00632614 0.0852732 0.105706 -0.119818 0.00878532 -0.0180036 0.0125592 -0.130145 0.0864251 0.041165 -0.0642632 -0.0400013 0.0249669 -0.00905061 -0.024646 -0.102863 0.0713741 0.141505 0.0398813 -0.02487 -0.0346154 0.00863469 -0.0501422 0.0738247 0.097092 -0.0405381 0.011078 -0.098255 0.057707 -0.0296852 0.0968258 -0.0839002 0.00523851 -0.0349446 -0.039445 -0.0364633 0.0411054 0.0270889 0.0467963 -0.042359 -0.020057 -0.0549411 0.0281494 -0.0383958 -0.0797246 0.0378632 0.104604 -0.0837451 -0.0115455 -0.0929978 0.0286692 -0.0133559 0.000323376 0.0139805 -0.0477467 0.0755751 -0.0737024 0.0356712 -0.0333461 0.054547 -0.00324025 0.052643 -0.0964042 0.0222527 0.00767501 -0.0467769 0.00197697 0.0601279 0.0207484 0.0159145 -0.0147085 0.00522317 0.0209859 0.0127959 0.0384717 0.00150827 -0.0098196 0.0149055 -0.063618 0.028333 0.079261 0.0577061 -0.0345114 0.00390493 0.0206122 -0.0203693
answer 0.0339141 0.0237194 0.0222022 -0.0646546 -0.0482348 0.0897439 -0.0765762 -0.0949354 0.0392078 -0.0981056 0.0364048 0.0419725 -0.0596787 0.024973 0.0957828 -0.0403252 -0.0486406 0.00394746 -0.0102251 -0.0494423 -0.00668944 -0.0453797 0.0853661 0.0433766 0.00716664 -0.0201286 -0.0015991 -0.132117 -0.0719398 0.0335461 -0.0439896 0.0184161 -0.00106468 0.0256241 -0.0893021 0.0482985 -0.0156289 -0.0153673 -0.0413583 0.0859876 0.00252269 -0.044354 0.0656055 0.0288983 -0.0339782 -0.0774371 -0.062767 0.0304211 -0.051581 -0.0218406 0.0216813 -0.0210564 -0.0227224 0.0731109 -0.0439753 0.0406944 -0.00919453 -0.00355138 0.0344177 0.0427448 0.039784 -0.0119804 -0.0856788 -0.0274853 -0.0491775 -0.0734214 0.0886818 0.00917216 -0.00514129 0.019126 0.0450835 -0.0503931 0.0540079 0.0805421 0.0468664 -0.0113089 -0.0453033 -0.0560678 0.056091 0.0944338 0.0916436 -0.0869295 0.00329721 0.0190014 -0.0852416 -0.0839983 0.00146364 -0.0109346 -0.079928 0.00785069 -0.0347965 0.00456864 -0.0810394 0.0252853 0.0654897 -0.0221381 0.0248536 0.0620676 -0.0216607 0.114879 0.044686 0.0735409 -0.0192952 -0.10351 0.130227 -0.0608049 0.0520265 -0.0626247 -0.0443394 0.141757 0.0303384 0.200943 -0.0967515 -0.0521967 0.115538 -0.0598221 0.0489041 0.00995261 -0.0375813 0.0050492 0.140007 0.0194482 -0.00427175 -0.0297391 0.0224681 -0.0407314 0.0579992 0.0514385 -0.00131691 -0.0426257 0.0495763 0.0589009 -0.0320571 0.00611719 -0.0370716 -0.042624 -0.00214902 0.0753819 0.0558508 0.0680747 0.0468864 0.049385 0.0304335 -0.0520811 0.072432 0.0810675 -0.0362038 -0.10857 -0.0789755 0.0807629 -0.0450805 -0.0362777 -0.0588232 -0.000593183 -0.00365675 0.140622 -0.0741052 0.0356489 -0.0219484 0.057236 -0.00652393 -0.0570671 0.0387048 -0.141306 -0.0758675 0.00870918 -0.00579009 0.0754256 -0.0234033 -0.0225214 0.0210511 -0.0144243 -0.0267429 0.0103747 -0.0788978 0.017867 -0.0112287 -0.0797171 0.101495 -0.0322325 -0.0285097 -0.0262875 0.0683587 -0.0271309 -0.00560482 -0.0636833 -0.0231707 0.012223 -0.0900351 -0.0391515 0.0608795 -0.0132882 -0.0377013 0.046249 -0.0134061 0.041189 0.0055327 -0.125966 -0.0238259 0.0586204 -0.0496794 0.0445042 0.00146856 -0.0194139 0.0640972 0.111072 -0.0302217 0.0728009 0.0332076 0.0195382 0.0541227 0.169513 -0.0513195 -0.0168994 -0.00529066 0.0281754 0.0729156 -0.0370583 -0.0932768 -0.0365408 0.0128022 0.0291936 0.085323 -0.0216986 -0.0146889 -0.0726885 -0.0751407 -0.00671394 -0.0371768 -0.0350673 0.0634657 -0.042189 0.107596 0.00235423 0.0132056 0.00654599 0.0213731 0.0100332 0.0392727 -0.151889 0.0497825 -0.0397569 0.006499 -0.0262159 -0.056574 0.00584262 0.00162086 -0.0394798 -0.109007 0.0242637 0.0312196 -0.0898187 0.00386475 0.0707856 -0.00612282 -0.0129304 -0.0609575 -0.0474698 -0.00970272 -0.0582438 0.119914 -0.0116201 -0.183107 -0.0551896 -0.00826892 0.00876681 0.025054 -0.000722715 0.0183151 -0.0302577 -0.0314243 -0.0480147 -0.0539786 -0.00937997 0.00372553 0.123048 -0.0435152 0.0259504 0.0641253 -0.0215058 -0.00779788 -0.00253814 0.0517584 0.0249562 -0.116791 0.0571786 -0.066148 0.0313918 0.0677102 -0.00040171 0.0234013 0.00128676 -0.0356494 -0.0760867 -0.0360312 -0.0187714 -0.021192 0.0517815 0.0449646 -0.00732907
apparently 0.0307427 0.0651995 0.0110146 -0.0247087 -0.0256384 0.00204852 -0.0977579 -0.0014569 0.0284767 -0.0624289 -0.0968614 0.0846829 0.0350898 -0.00837376 -0.00401492 -0.0837481 -0.00892327 0.0738828 -0.0841703 0.0638305 -0.024049 0.0186098 -0.0224881 -0.00221197 0.0266601 -0.0406086 0.0374196 0.052089 -0.0257108 0.0325979 -0.0414149 -0.0153708 -0.0110691 0.0273921 -0.0650007 0.0169866 0.0114353 -0.0393573 0.00304376 0.0248716 -0.0205568 -0.135856 0.0498632 0.019845 0.0391938 -0.0410521 -0.0348574 0.0724941 0.0731853 -0.0507509 0.0483655 -0.0715345 0.0272728 0.00651284 -0.0773722 -0.0419715 0.199709 0.00567695 0.0903196 0.0192505 -0.0160993 0.025893 0.0229172 0.00209057 -0.0544766 0.127396 0.116858 0.00522153 -0.0711646 0.0313149 -0.0305808 -0.0836903 0.09945 0.0623107 0.0531532 0.0283143 0.0632064 -0.0256488 -0.00430876 0.0589889 -0.0445206 -0.0284333 0.0268979 0.0431005 -0.0188076 -0.0791657 0.0336151 -0.10125 -0.0204999 0.0630438 -0.0286911 -0.151132 0.0658411 0.0372038 0.0296817 -0.0129016 -0.0676247 0.0608209 0.0863143 -0.0135434 0.045016 0.00723758 -0.0745681 -0.0290961 -0.000195015 0.0185407 0.0455865 -0.0870906 0.00350034 0.128476 0.0751074 0.031673 -0.0750725 -0.0327577 0.038225 0.0548941 0.0143078 0.0362734 0.0369521 -0.0389076 0.0401328 -0.00285913 0.0587951 0.0828393 0.00870636 0.0229397 -0.0173229 0.067675 0.0627446 0.0405362 -0.0103894 0.00909083 -0.0490057 -0.0720632 -0.0348754 0.0308446 0.0837407 -0.0165457 0.0142245 -0.0695293 0.0557412 0.106198 -0.0379252 0.0532934 0.040676 0.0780803 0.0226408 -0.0662942 -0.0509178 0.0798359 -0.014191 0.0251481 -0.0263651 -0.0567563 0.0677302 0.00561794 -0.0443928 0.0625914 0.0106272 0.24094 0.033842 -0.0254124 0.0812641 0.116428 0.0603209 -0.0478884 0.0192988 0.0143545 -0.0146046 -0.00902498 0.102772 -0.0425454 0.0152829 -0.0501363 -0.126161 -0.0125423 0.00498386 0.0306679 0.00776664 -0.0372445 0.0435103 -0.0399825 0.00331112 -0.0106012 -0.0598916 0.129919 0.00705367 0.0563321 -0.0333562 0.00998118 0.0841502 -0.00265309 -0.0213482 -0.00310105 -0.0212252 -0.0450194 0.0829599 -0.100749 0.0348406 0.092108 -0.0532301 0.00118768 -0.00652769 -0.00544177 -0.0315825 0.122831 0.00516409 -0.0531718 0.0217957 -0.020022 -0.0640439 -0.0282453 -0.0858134 0.00114045 0.0197651 0.0939844 -0.069526 -0.0669999 0.0255853 -0.0560204 -0.0377652 -0.0313219 0.0203358 0.0343533 -0.1167 -0.0541114 0.0198135 -0.053346 0.0644018 -0.0613308 -0.0363126 0.0987811 0.0043082 -0.0973127 -0.00230648 -0.0404479 0.00441814 0.0537408 -0.0629338 -0.00104335 0.111557 -0.111169 -0.0591779 -0.0209633 -0.0573159 -0.0845375 0.015608 0.086537 -0.0933242 0.0645067 0.0649244 -0.00913665 -0.0663082 -0.143142 -0.126966 -0.032345 -0.0134591 0.00917198 4.76402e-05 -0.0578974 0.0562891 0.0240529 -0.100505 -0.122708 0.0373832 -0.0263345 -0.0017561 -0.00750763 0.000299625 0.0549533 -0.019547 0.0504979 0.00919558 -0.00833787 -0.0085203 0.0066379 -0.00910355 -0.0626204 0.055889 -0.0793456 0.0667112 0.0416891 -0.000104497 0.0156672 -0.0357445 0.0211377 -0.0300047 -0.0347468 0.0186 0.0117251 -0.0906076 -0.0795523 0.0687314 0.02278 -0.0469569 0.0422498 0.0105166 0.0661269 0.00608369 -0.0709346
appears 0.098818 0.0425982 -0.0414934 -0.0312033 0.0288828 0.132523 -0.219587 0.0115846 0.0405174 0.0528802 0.0368631 -0.0318543 0.0455743 0.0641946 -0.108631 0.0557747 -0.00858852 -0.0390946 -0.104397 0.061942 -0.023335 0.164684 0.0589534 0.0240063 0.110109 -0.124391 -0.020349 -0.0254544 0.0492042 0.0791347 -0.014567 0.0433396 -0.0135524 0.0308864 -0.0382791 -0.0739026 0.0456822 0.0614244 0.0255599 -0.0683098 -0.0822286 -0.0166 0.054598 0.0265532 -0.129205 0.0888628 -0.0409955 0.03843 0.00722249 0.0145263 -0.0623197 -0.0761474 -0.0306546 0.0713454 -0.056603 0.0626343 0.100499 -0.0330293 0.0176064 0.0386733 0.0197335 -0.0422731 0.0851371 0.0499765 0.0582553 0.0248641 0.00401085 -0.0072434 0.0178117 -0.00121782 -0.0105538 -0.021488 -0.0594248 0.0365516 -0.00530979 0.065341 -0.0427158 0.0114509 -0.00449127 -0.0159223 -0.01043 -0.0844204 -0.0643259 -0.0294148 0.0123373 0.0584742 -0.00175625 -0.0361489 -0.120609 0.0447487 0.0874055 -0.136758 -0.0192697 0.00556934 -0.00522004 -0.0123472 -0.0822055 0.0040889 0.0285432 -0.0257054 0.076795 0.0560414 -0.100275 0.0655517 0.0376144 0.110653 0.0358404 -0.043149 0.0985699 -0.115538 -0.0680168 -0.0892429 0.0508196 0.0193833 -0.0785286 0.0242291 -0.026332 -0.0125564 0.0175961 -0.0310413 0.0387914 0.00207741 -0.0142035 0.0324258 -0.114257 0.0124065 -0.0122524 -0.0344917 -0.00149538 -0.0150953 0.0681449 0.0109444 -0.0249783 0.0353552 -0.0134463 -0.00397836 0.0269002 -0.00900075 -0.0168598 0.042521 0.040086 -0.0256055 -0.0644204 0.0799327 0.0356765 0.0596067 0.00856987 -0.044115 0.0355409 0.0202536 -0.1321 0.0471146 -0.0126462 -0.00890511 -0.113741 0.0118777 -0.0410234 -0.00401902 0.0936889 0.00847204 -0.0134514 0.0193722 -0.00179232 0.0587249 -0.0216772 -0.0776393 -0.0137773 0.0215796 0.0524862 -0.00969059 0.0775172 -0.062818 0.0660679 0.0278962 0.106226 -0.0216514 -0.0722166 -0.0883485 -0.00640526 0.085893 0.0465458 -0.0437505 -0.0490335 -0.0552803 0.00504612 -0.0155991 0.0295387 0.0324178 -0.0773378 0.0407015 0.0392168 0.0236238 -0.0658657 0.00421528 -0.0570436 0.0264324 -0.0751117 -0.101467 0.05144 0.0350161 0.0549127 -0.0166152 -0.0358721 0.0792374 -0.0457036 0.0254974 -0.00583312 -0.0520397 -0.108718 -0.00291298 -0.065394 0.055171 -0.0128771 -0.115571 -0.119333 0.0491401 -0.00101085 -0.0882625 0.00308546 -0.0277463 -0.0872736 -0.0266797 0.045208 0.0334989 -0.127755 -0.0515892 0.0833818 0.0317201 -0.0577123 0.0361382 -0.0141709 0.0241461 0.112984 0.0610027 0.0809282 -0.0290068 0.125319 -0.0205407 -0.0695354 -0.0127423 -0.103424 0.0588377 -0.0963055 0.0256327 0.0396922 -0.127842 -0.00893319 0.08029 0.01241 0.00106291 -0.0517174 0.0177159 0.0182094 0.0131816 0.0103913 0.0256657 -0.00437434 0.0328606 0.0594073 0.0394241 0.0191969 0.0159305 -0.00276584 -0.0571106 -0.0706988 0.00590038 -0.0923943 0.0416426 -0.00276271 0.120294 -0.00126668 0.0901408 0.0722431 -0.0567796 0.017426 -0.0138297 -0.0314195 0.000116669 0.116803 0.032835 0.00716761 -0.0677748 0.0238414 -0.006804 -0.0398848 0.0553521 -0.0152011 0.0954717 -0.026677 0.0415764 -0.0756915 -0.0266735 0.00962891 -0.00277128 -0.0428777 -0.000310737 0.0489354 0.011023 0.0197927 0.0160689
apple -0.0905235 0.0453125 -0.111677 0.0761628 -0.0390176 0.0192712 -0.0465152 -0.204304 0.00900774 -0.0558233 -0.0552064 0.0568105 -0.00350206 0.00138964 -0.0734653 -0.0753298 -0.0330958 -0.0162376 -0.0269702 0.142549 0.0119805 -0.00659869 0.103483 0.049064 0.0299625 -0.0235868 -0.0638619 -0.0758094 0.041479 0.0536457 -0.057087 0.00130803 0.0683574 0.0423722 0.108179 0.0432605 -0.0703324 -0.04801 0.037311 0.0155248 0.0677615 -0.0837583 -0.0350147 -0.0706488 0.0144031 0.0252061 -0.00168425 0.0939763 0.0693887 -0.0208194 -0.0190762 -0.0199489 -0.125277 -0.031622 0.0598534 -0.0536855 -0.126195 -0.0464917 0.0832365 0.0189103 -0.0122844 -0.0586244 0.0213211 -0.00729675 0.0447767 0.100478 0.0666823 0.0274939 -0.0388037 -0.0585333 -0.00242629 0.0707164 0.148083 0.0190591 0.0469096 -0.0773244 0.0836427 -0.0117601 0.0772474 0.0695062 0.0343051 -0.0345631 -0.0464336 -0.0373055 -0.00856362 0.0288335 0.0105097 0.00876774 0.00740402 0.0961564 -0.0643624 0.0332118 -0.00776484 -0.0654882 0.0234146 0.0328795 -0.0925458 -0.0140415 -0.0218614 0.0319252 -0.0164091 0.0834918 -0.0169406 -0.115328 -0.0685925 -0.109301 -0.0143619 0.0242058 -0.0283638 -0.0377211 0.0207044 0.0378339 0.0160126 -0.0919401 0.0341245 -0.0649667 -0.0100039 -0.00313554 -0.0135351 -0.0795765 0.00680755 0.0875862 -0.0602851 0.0589696 0.0844166 -0.0786303 0.0641827 -0.0113968 0.0558625 0.073527 0.0450379 0.0472452 -0.00184936 0.0821577 0.0645284 0.0480671 -0.00337655 -0.0396106 0.0336137 -0.0166006 0.0241323 -0.039167 0.0456849 -0.00255227 -0.0493536 -0.00868534 -0.0329552 0.0428812 0.0127264 -0.0120194 0.0231395 0.0590597 0.0216399 0.0658302 -0.00848826 -0.000566121 0.000639398 0.140356 -0.0233424 0.118382 0.0398983 -0.0171752 -0.076779 0.0713521 0.0254432 0.0749385 0.0827728 0.0940617 0.0111553 -0.00693987 0.00107893 -0.0342633 0.0907764 0.0623355 -0.020027 0.0100349 -0.0140312 -0.0601258 0.00417202 0.0777226 0.0336213 0.0539636 -0.0450416 0.0195198 0.00461578 0.0363138 -0.0613669 0.0794843 -0.0549271 0.0108131 0.0143426 0.0295961 -0.00136091 0.0325641 -0.0717299 0.0344547 0.078391 -0.0125852 0.0307059 0.0132643 -0.11136 -0.0785592 0.0709633 0.0430686 0.0829008 -0.0400278 0.0378365 -0.043415 -0.0456477 0.0873889 0.0165909 -0.0927362 -0.0744434 0.0148951 -0.0147295 -0.000577922 0.125852 -0.0413334 -0.0416868 0.0280607 0.0313214 0.0238576 0.0101791 0.0554639 0.0278775 0.0969303 0.00757356 0.0800637 -0.0771176 0.000795831 0.0582293 0.0219318 0.00785846 0.0331158 -0.0127837 0.130996 0.00207624 0.0464833 0.0574245 0.0257741 0.00762874 -0.098342 0.0227682 0.0464356 -0.027003 0.0736291 0.0495346 -0.0491774 -0.0747506 -0.00665465 0.0901492 -0.0161474 -0.00108715 -0.0374712 -0.0452402 -0.0607218 -0.0129691 -0.106628 0.0387153 -0.0611925 0.0129456 -0.101066 -0.0140838 0.0592513 0.00318577 0.0649374 -0.064725 -0.0286454 -0.0192414 0.0469075 0.0692301 0.0553827 -0.038256 0.128068 0.0449005 -0.0325092 0.0338249 0.0750815 0.0223897 0.0153432 0.0918336 0.0300401 0.00135473 0.136237 0.0616131 -0.00614994 0.171001 0.0726256 0.0340422 0.00863798 -0.0411171 0.0336177 0.00524003 0.00353205 0.0446211 -0.00702278 0.0577084 -0.0333591 -0.0389841 -0.0947345
application 0.0276691 0.0534813 0.00505542 0.0714699 -0.0198738 0.081868 0.0172088 -0.0475773 -0.00544422 0.0658155 0.0432624 0.0535863 -0.0602036 0.0139653 -0.027304 -0.121923 -0.0392561 -0.00357331 0.00463009 0.140593 0.0334504 0.0265789 -0.00672893 -0.0612072 -0.0355518 -0.0463044 -0.0174805 0.0347159 0.0481519 -0.0350267 0.00914838 0.00745174 0.00745807 -0.0256162 -0.0389093 -0.0845894 0.033241 -0.0468197 0.0456286 0.00119491 -0.0110355 -0.0982185 -0.0297203 0.0549903 -0.0169324 -0.0198973 0.00701683 0.126741 0.0360089 -0.045922 0.0338623 -0.093533 -0.0687578 0.0363937 0.111426 0.0666957 -0.0294935 0.0203222 -0.0499218 0.00420439 0.107812 0.038169 0.0104521 -0.110157 0.107075 0.0666001 0.0483935 0.0165561 -0.000392165 0.00624218 0.025513 -0.039796 0.00711324 0.00991652 0.0333454 0.0162137 0.0785213 -0.0942255 0.133452 0.0336292 0.0879577 0.0304713 0.0247753 0.0402992 0.0392307 0.0363322 0.0642463 -0.0929744 -0.00541342 -0.0158496 -0.12611 0.0340296 -0.0278954 0.0459997 0.0486318 -0.0751966 -0.00108204 -0.0264383 0.0198064 -0.0471295 -0.073504 0.0139124 0.0291886 -0.144792 -0.0198196 -0.0075877 -0.0488051 -0.0745763 -0.101489 0.0424897 0.0162336 0.0263531 -0.125862 -0.0654174 0.0906489 -0.0134096 -0.0136012 -0.000995759 -0.0655062 -0.000362386 0.0600124 -0.0234259 -0.0309309 -0.0121747 -0.0244558 -0.0136701 0.0778157 0.0780284 0.0341816 0.0537108 0.0434426 0.0282479 -0.125495 0.00278704 -0.0961969 -0.0522359 -0.0174357 -0.0335211 0.120167 -0.0460344 0.0465523 -0.00850372 0.0697916 0.0627929 -0.0432326 0.0794248 -0.0633433 0.0584107 -0.042752 0.0579025 -0.0749162 -0.0039016 -0.0420187 0.0460038 0.0116571 -0.0286083 0.0375012 0.0608127 0.0710046 0.00829647 -0.0829719 -0.0475046 0.0268092 0.039912 -0.0845593 0.00719659 -0.0412922 -0.0373787 -0.026617 -0.0350887 0.00827094 -0.00552764 0.108241 -0.035552 0.0884062 0.052699 -0.0616509 -0.0523888 0.00617926 0.0494631 -0.00355684 0.0247898 -0.00498908 -0.0246691 -0.0566593 -0.0212425 0.0496324 0.012912 -0.0900891 0.0138669 -0.0165137 0.00327897 -0.133183 -0.000900272 -0.021145 -0.0223397 0.114707 -0.0673351 0.0205443 0.0304594 -0.138718 0.0202496 0.0112535 0.0244301 0.043444 0.0822737 0.022582 0.0675137 -0.0125561 0.0109688 0.0808217 -0.118109 0.044033 0.0125873 -0.0232724 -0.00172685 -0.0295787 -0.0278934 -0.0333995 -0.0291137 0.0960352 -0.0149576 0.0374618 0.000392171 0.106737 0.0224463 -0.0372405 0.0113121 -0.101758 0.0735819 -0.0750514 0.00759566 -0.0198887 -0.107649 0.0711001 0.0441146 -0.0417855 0.0283321 0.0174094 -0.058137 6.06186e-05 -0.0119324 0.089274 0.0653563 0.0239394 0.0430401 -0.102063 -0.0503284 -0.0429123 0.00399557 0.117395 -0.0870732 0.0617494 0.0279456 0.0166213 -0.0984132 -0.106281 -0.137435 -0.129089 0.0386001 0.0165513 -0.08956 -0.143098 0.0571574 0.0532219 0.000263622 -0.0642624 -0.00144471 -0.0265431 -0.0262481 0.0312858 0.00473795 0.0341955 0.0786797 -0.00739701 0.0768188 -0.03621 0.0609464 0.0167796 -0.00457058 -0.0313406 -0.00572149 -0.016936 -0.0188931 -0.05642 0.0612465 -0.0602869 0.0706425 0.0761318 -0.000410519 -0.0774591 -0.00364616 0.0245324 -0.00764916 -0.0224162 0.0312238 0.103297 0.063669 0.00651523 -0.15912
