accelerator -0.0564362 -0.104036 -0.10693 -0.0332137 -0.0684315 -0.0709207 0.0153369 -0.0318303 -0.048211 0.0460472 0.0820271 -0.00633886 0.00923667 -0.0435249 -0.0131901 -0.0297094 0.105828 0.0475165 0.073585 -0.000320168 0.0904357 0.0559275 -0.0981177 -0.00122247 0.105479 -0.0323219 0.00047415 0.0635258 0.0132646 0.133095 -0.00131285 0.0463247 0.0557694 0.0550266 0.0218934 -0.0153308 0.105333 -0.042243 0.184941 -0.0515889 -0.0180055 -0.0249006 0.00507104 -2.62918e-05 0.0131424 0.00991599 -0.00536468 -0.0430853 -0.0866092 -0.0391465 0.01613 -0.067051 -0.0384274 0.0808125 0.0290513 0.0276693 -0.109916 -0.0417688 -0.0138979 0.0104353 -0.0283581 -0.00314791 -0.110285 -0.0380819 0.0764548 0.0812161 -0.0599673 0.00296016 -0.0154234 0.029472 0.142107 0.0507841 -0.00773392 -0.0432106 -0.0641211 0.00994204 -0.0119247 -0.00482183 -0.0205737 -0.0562637 0.000276593 0.0866054 0.0799905 0.0345225 -0.0607318 -0.0399021 0.041704 0.00104191 -0.0045476 0.0587117 0.0174911 0.0597624 0.0211018 -0.0227083 -0.0685917 0.0326899 0.0883221 -0.0252004 -0.00118576 -0.0377384 -0.0297936 0.00272483 -0.0038644 0.0631488 0.132895 0.0571046 -0.0258889 -0.0744638 -0.0115149 -0.03724 -0.0173811 0.104926 0.0006523 -0.0595389 -0.0405621 0.0112901 -0.00283557 0.10186 -0.0761235 -0.0258491 0.0524104 -0.019625 -0.0240356 -0.0496262 -0.0263999 -0.0191514 -0.0414997 0.0454342 0.084433 -0.0985127 -0.112985 0.00495706 0.0552289 -0.038302 -0.0770067 0.0407662 0.0456188 0.0168813 0.00132811 0.105033 -0.000551991 0.0441654 -0.0064673 -0.063683 -0.0448236 0.00625639 0.0122121 -0.0935604 0.00435888 -0.0176018 -0.0477051 0.0152612 -0.0744361 -0.0159831 0.0741464 -0.0734911 -0.0144262 0.00669973 0.0643831 -0.0834153 -0.0198641 -0.0847539 0.0677259 0.000426438 -0.0240134 -0.048393 0.0825373 0.0395551 -0.00451113 0.0665888 0.0270788 -0.126947 0.063906 0.000282402 -0.14545 0.00501689 -0.0741747 0.0359147 0.0651064 0.00622584 0.0783613 -0.0742327 -0.0247899 -0.152294 0.0011241 -0.0469931 0.0217241 -0.0615217 -0.0484126 0.0186375 -0.0620054 0.0678558 -0.0267281 -0.04311 -0.00668652 -0.0137282 0.0435858 0.0340111 -0.0240369 0.0362205 -0.0107625 0.0567359 -0.0123144 -0.0677705 0.0020135 -0.0172959 -0.0144191 -0.00329829 -0.0393241 -0.0423046 0.0648574 0.0548388 0.00608646 0.0380035 0.0274461 0.0904922 0.0300318 -0.0255434 -0.0256896 -0.0603723 0.0860757 0.0961512 -0.102503 -0.0835428 -0.01161 -0.0155421 -0.0640917 -0.0672363 -0.025371 0.0911463 -0.0312952 -0.0998898 -0.134812 0.0451713 0.0398689 0.0158032 0.0938849 0.0710855 0.00630679 0.0314653 0.0562027 -0.0784385 -0.193814 0.0750853 -0.00702712 0.00391533 0.0178595 -0.0497846 -0.0341039 -0.12305 -0.0823788 -0.0862198 0.029324 -0.087662 -0.0883753 0.0111258 -0.0162041 -0.0464964 0.00342886 -0.0278172 -0.0296859 -0.0140541 -0.0488074 -0.10756 0.0373038 0.0757202 -0.0337166 0.0771534 0.127222 -0.0151601 0.0135981 0.0451261 0.0207097 0.02431 0.0349967 0.0155951 -0.0382437 -0.080988 0.0477616 0.0409313 -0.0596597 0.0811624 0.011799 0.0484145 0.0144464 -0.00640458 0.041867 -0.00781912 0.0398322 -0.0698345 0.0105355 -0.0401703 0.000450895 0.0428995 0.0168318 -0.00710235 0.0265282 0.086219 0.0487853 -0.0519632
accept -0.0187148 -0.0885649 -0.0418704 -0.0267188 -0.0600343 0.0318068 0.0637922 0.0543867 -0.0359105 0.0568932 -0.0369899 0.12378 -0.0282159 -0.0825201 -0.055095 -0.0593875 0.106525 0.0468287 -0.0206991 -0.0359294 -0.0441666 0.0674137 0.0859302 -0.0772303 0.0263303 -0.0827493 -0.00210973 0.0971472 -0.0599842 0.0255004 -0.00409672 -0.023041 -0.0647339 -0.00785591 0.0843358 -0.0162199 -0.124389 -0.0494472 -0.00218087 -0.0173294 -0.00166408 -0.112671 -0.180413 0.00205434 0.0719274 -0.0149923 -0.0563587 0.0357227 -0.122498 0.00400746 -0.0253356 -0.0405347 -0.0441873 0.0582281 -0.0723379 0.0469314 -0.0788244 0.0234113 0.00322118 -0.164617 -0.119358 0.110721 -0.0164077 0.0821172 -0.0123384 0.152954 0.0129533 0.0265761 0.0597705 0.0584914 -0.0675601 0.0195834 0.0739064 -0.0374678 0.0543125 0.0728156 0.0554319 0.0176589 -0.0495253 0.0464815 0.0278336 0.0541086 -0.15183 0.0169762 -0.0575746 -0.072167 0.0579637 0.0230258 -0.00428756 0.011513 0.0230488 0.0235222 -0.0791219 -0.0181327 0.00317484 0.0535174 -0.0432094 0.0483651 -0.0447681 -0.0571492 0.00156743 0.0655086 -0.0242229 -0.0302094 0.0142078 0.0356408 -0.00978362 0.0623595 -0.0256467 -0.00767799 0.0249763 -0.01045 0.0357837 -0.141893 -0.0859096 0.109554 0.0301341 0.00998371 0.0516299 0.0243281 -0.093599 -0.0649895 -0.103766 -0.0356667 -0.021063 -0.00496291 -0.0662632 -0.0192396 0.0267878 -0.063718 -0.00592932 -0.0681798 -0.0728636 0.111771 -0.0501982 -0.0652773 -0.0586652 -0.0256555 0.0541458 0.0509354 -0.108449 0.101054 0.0148189 -0.0806061 -0.0030648 -0.0166539 -0.0210157 -0.0288197 0.0230438 0.129271 0.0831567 0.046757 0.0105128 0.00945838 0.108607 0.0395384 -0.053294 -0.0827249 0.0246423 0.0880106 0.0537158 -0.017303 0.0442102 0.0255709 -0.0517593 0.0250537 -0.000471883 0.0773869 0.0095154 -0.0928944 0.0239344 -0.0465282 0.0148848 -0.0277694 -0.042175 0.0437024 0.0329498 -0.0460021 0.00581134 -0.0039206 -0.0262811 -0.0410266 0.0447361 0.0151246 -0.0164275 0.0383668 0.0520332 -0.0965031 0.00961831 -0.0333081 0.0665723 -0.00893893 -0.0379867 0.0279714 -0.0324268 0.0635047 0.0337641 0.00424379 0.0134706 0.111217 -0.01321 0.00902119 -0.0379531 0.0126033 -0.0343538 -0.0794669 0.0690032 0.0643854 -0.00268531 -0.00449967 -0.0221732 -0.0454907 -0.0480395 0.0264557 0.0104761 0.040054 0.0511405 -0.0175964 0.061728 0.0177153 0.0948149 -0.0278816 -0.0700805 0.0178391 -0.0042474 0.0282102 -0.0510603 0.0512203 0.00492926 0.00829124 -0.0783953 0.00223285 -0.0877519 -0.00551103 0.0554592 0.0468195 0.0566464 0.000188182 -0.147835 0.00629831 -0.01577 0.0443805 -0.0799693 0.0117065 0.0667408 -0.0779514 -0.0357755 -0.0831396 -0.0832763 0.0486117 -0.021604 0.0108118 0.0683878 -0.0513064 0.0124331 -0.00832864 0.0929839 -0.0463152 0.0141742 -0.00439793 0.104844 -0.0485115 -0.165746 -0.0639732 0.0204156 -0.0175498 -0.0261563 0.0572135 0.0225732 0.065469 0.0275818 -0.00498674 -0.0331747 -0.0496849 -0.0237582 0.0245246 0.133851 -0.0355282 -0.0524188 -0.0878568 0.0395688 -0.0449146 -0.055873 0.018388 -0.0301296 0.0057953 -0.0446857 0.011121 -0.00107535 -0.0720346 0.0667268 -0.0334939 -0.0416437 0.0437933 0.0498449 0.0518415 0.0265231 0.0900137 0.0287903 -0.0407284
access -0.0648986 -0.118011 -0.0638498 -0.0134359 -0.0221969 -0.0145713 -0.0241536 -0.163727 -0.0252384 0.105065 0.0166552 0.0634182 0.0149628 -0.0431393 0.0774734 0.0208027 0.160997 -0.0135267 0.0427106 -0.0296146 0.0461481 -0.0338771 -0.0309414 -0.0542828 0.0615124 0.0588997 -0.025029 0.0245992 -0.0253688 -0.0498536 0.0480046 0.019084 0.0391441 -0.0973764 -0.0358104 0.0428659 0.0153254 -0.00773965 0.0607207 0.0386792 -0.0488802 -0.0445908 -0.0548088 0.056658 0.0961557 -0.0670944 -0.113327 0.0262577 -0.0311255 0.0260995 0.02326 -0.0265765 0.0035092 0.0595327 -0.185288 0.0202378 -0.0558516 -0.0236866 0.00186968 -0.0951169 -0.0169009 0.0466234 -0.0318907 0.0503057 -0.00276802 0.167278 -0.0189657 -0.0280841 -0.0777632 0.0542685 -0.00574039 0.0190683 0.0972813 0.0147629 -0.075718 -0.00712015 0.0410499 0.0964691 -0.0729059 -0.0408367 0.0419256 0.139718 -0.0701178 0.0414077 -0.0212468 -0.111632 0.00886642 -0.00925623 0.140539 -0.0834632 -0.0661924 -0.0214487 -0.0367101 0.0101697 -0.055972 -0.0621933 -0.031424 0.187033 -0.0164342 0.00491903 0.0202515 0.0286358 0.0182836 -0.0058388 0.0490117 0.132637 -0.118742 0.00188846 0.0209752 0.0172585 0.0201864 0.00229771 0.0226226 -0.011772 0.0604748 0.0377695 0.047371 0.070151 0.0295376 0.0207767 0.00824862 -0.0556447 0.103796 0.0164819 -0.00731125 -0.054498 0.02174 0.018321 0.0883775 0.0686579 -0.000484426 0.0305228 -0.0652633 0.0571306 0.0244572 0.00460255 -0.0608415 -0.00636658 -0.0093701 0.00324473 -0.0107851 -0.0513541 -0.00808935 -0.0591031 -0.00773939 0.00832368 -0.00720867 -0.00926831 0.0130162 0.00724246 0.0225502 0.00856854 0.0108483 0.0627229 -0.0256153 0.0144041 0.083406 -0.0890033 0.0523566 -0.00386644 -0.0481751 0.0280544 -0.073665 0.0193919 -0.0792348 0.0248374 0.0260785 0.0498386 -0.0184985 -0.0200641 0.0360674 0.00700814 0.0508641 -0.0552366 -0.0994074 0.0595022 -0.0199794 0.00998307 -0.0663012 0.050725 0.055003 -0.01996 -0.00273554 -0.0782824 0.0116634 0.0616023 0.0145366 0.0506719 -0.0193654 -0.0125793 0.000149336 -0.00324981 0.0219419 0.0117735 -0.0361057 -0.0530737 -0.00178159 0.0653142 -0.0366359 0.0612865 0.0616409 0.12085 0.0540202 -0.0248299 -0.0585503 -0.0754189 -0.0360957 0.0852372 0.0206018 0.00188596 -0.0588831 0.0616874 -0.018458 -0.0650691 0.0733122 -0.0397771 -0.0208173 0.0428406 0.0630659 -0.0848089 0.0426425 -0.0107976 0.0111221 -0.0912488 -0.00641022 0.0339004 0.04504 -0.0486838 -0.0419961 0.0903991 0.0182868 0.00210855 -0.120199 0.0183528 -0.0417591 -0.00657209 0.0637661 -0.0221138 0.0228894 -0.0247485 -0.00764121 -0.0760962 0.0237393 0.0406022 -0.113978 0.070369 0.0366203 -0.102692 -0.0171126 0.00229298 0.0313628 0.0340284 0.146727 0.0212952 0.048532 0.058042 0.0748191 -0.00912758 -0.0300513 -0.0564811 0.0987748 -0.0621787 -0.0111925 -0.0706342 0.0843731 0.140566 -0.0677257 0.0380983 0.0198785 -0.0106198 -0.023252 0.0282561 0.0893628 -0.0102454 0.00154748 -0.0458904 -0.0286039 0.0110162 0.0241275 -0.0116014 0.0265295 0.0144227 0.0259247 0.0423547 -0.0095625 0.00825909 -0.0917628 -0.165384 0.027981 -0.0906696 0.0319573 -0.140382 -0.0189139 0.0847732 0.089973 0.0187108 0.0499152 0.0309423 -0.107169 -0.0344468
account -0.0190532 -0.166083 -0.0759512 -0.00943796 0.00419499 -0.030128 -0.0269641 0.0183216 0.0377864 -0.0342052 -0.0569555 0.0865544 0.0186514 0.0185543 0.00969406 0.0531029 0.136206 -0.00587104 0.0585706 0.0356059 0.0116694 -0.0177653 0.0209784 -0.0509096 0.118804 -0.0106546 0.0129148 0.0365977 -0.0464544 -0.00773479 0.00252246 -0.0643216 0.0558838 -0.064552 0.0390637 0.00414493 -0.0356032 0.0499316 -0.0146054 -0.0927488 -0.0364558 -0.0840429 -0.104651 0.00553902 0.0321807 0.00747008 -0.0366403 -0.0172212 -0.0556782 0.0187346 0.0074267 0.0314303 -0.0313541 -0.0437374 -0.0449704 0.00340638 -0.00613813 -0.0208717 -0.0501228 -0.130667 -0.0968069 0.150783 0.0022817 -0.0163202 -0.0120131 0.145239 -0.089047 -0.100313 -0.0249783 0.11007 -0.0453009 0.0827513 0.0232798 -0.00732549 -0.15004 0.0658071 0.036151 0.0156294 -0.0744376 -0.0815828 -0.0191377 0.12227 -0.0409598 -0.0498108 0.0666399 -0.0213749 0.00479239 0.00816675 0.0191983 -0.0268135 -0.0534401 0.0449887 -0.124914 0.0363294 -0.0510197 0.0104688 0.0402344 0.00204373 0.046605 -0.0413788 -0.101224 0.029641 0.0467961 -0.0889569 0.0558345 0.0722715 -0.0347125 0.0562208 0.0380872 0.0675238 0.0294474 0.0112002 0.0254974 0.0170371 -0.0316829 0.0219075 -0.0452981 -0.0438836 -0.144273 -0.0310217 0.0153923 -0.112147 -0.0556224 -0.0272216 0.0393595 0.00202952 -0.0409895 -0.0222959 -0.0171902 0.00449237 -0.00629189 0.00622028 -0.0970718 0.116359 0.0619803 -0.000286876 0.0324466 -0.028769 -0.0710036 -0.0146886 0.0194613 0.00486115 0.0145232 -0.0833124 0.0644801 -0.166588 -0.01169 -0.0364469 -0.0838854 -0.0039127 0.116253 0.0109317 -0.0226534 0.0793704 0.00189497 0.132567 -0.110473 -0.0877625 0.0116834 -0.0374216 0.12884 -0.0289231 -0.0065989 0.0338515 0.056561 -0.0379539 -0.106501 -0.0242855 -0.0356651 0.0334391 0.0291807 -0.0221694 0.0380013 0.069765 0.0129831 0.0469016 -0.0619181 0.0364787 -0.044039 -0.0798172 0.0293157 -0.0534708 0.0023005 -0.0133023 -0.0910856 0.0266134 0.0610941 0.0431604 0.00156872 0.0121212 -0.073647 -0.0162857 0.00637339 -0.0208721 -0.0164483 0.0634886 0.0654512 -0.0109413 0.017548 0.104137 -0.0840502 0.0958764 -0.00121565 -0.10824 0.0439052 0.0507172 -0.0760815 0.00474815 -0.0358889 -0.010461 0.00135632 -0.0249023 0.0164852 0.000113117 0.0105861 -0.0284936 0.0106397 0.0176188 -0.0235315 0.0546699 -0.00414729 -0.0972222 0.0596948 -0.0194147 0.0495869 0.0393707 0.0454763 -0.0617589 0.08193 -0.020389 -0.0277437 -0.000604861 -0.0516258 0.039944 0.0860387 0.0943157 0.054462 0.0220514 0.032426 0.0284269 0.0547698 0.0280541 0.0286684 -0.0668925 0.012417 -0.0477053 0.0660969 -0.0100172 -0.015182 -0.00923367 -0.065049 -0.0993885 0.151665 -0.0137284 -0.0205014 0.0151048 0.0233121 -0.0151888 -0.0209542 -0.00398915 0.112028 -0.00956926 -0.103121 -0.0108342 0.088139 -0.00272832 0.0411173 0.0945498 0.00166719 -0.027577 0.00339292 -0.0107762 -0.0493298 0.0424812 0.0307737 -0.0170004 -0.0214954 -0.0798119 0.0334565 0.107706 0.0602335 -0.00439017 -0.0287605 -0.148091 -0.0203989 0.0732355 -0.0775094 -0.0233743 0.0663923 -0.0457569 0.051423 -0.100821 0.0045795 0.0366295 0.0331247 0.0745043 0.0440393 0.0656435 0.00240762 -0.0178141
acs -0.0394294 -0.101336 0.0599847 -0.0192694 -0.0293184 -0.0375225 0.0164874 -0.055514 -0.0941329 0.0701049 0.00743169 0.0521075 9.87237e-05 -0.0651799 -0.00335484 -0.045764 -0.0157397 -0.0511035 0.0461368 0.0462986 -0.028027 -0.0042969 0.0622344 -0.0308726 0.0537612 -0.00461518 -0.00559455 0.106829 0.0128727 0.0270477 0.0620499 -0.0164876 0.0434606 0.0173652 -0.0299045 -0.0458022 0.02596 -0.073598 0.0512508 -0.0657851 0.0576704 -0.0690416 0.00193958 0.0156683 0.0594713 -0.00666439 0.0124925 -0.0439086 -0.0309689 -0.0336916 0.122008 0.0411755 -0.0119526 0.0697026 -0.0712616 0.0370518 -0.113862 -0.0666769 0.00810938 -0.110591 0.0442105 0.0820441 -0.0903934 0.00650654 0.000398484 0.0632115 0.0226879 -0.0701475 -0.0538312 0.0533029 0.0206157 0.116181 0.0531301 -0.0282247 -0.118318 0.0509672 -0.0614995 -0.0178759 -0.117378 -0.134585 0.0982334 0.0439899 0.0786346 -0.0829399 -0.0146629 -0.0515413 -0.0900813 0.0722048 0.0887255 0.0661738 0.0198217 -0.0253465 0.0360647 0.0748977 -0.0244121 0.00965422 -0.0558224 0.0188812 0.0549247 0.0215998 -0.035486 -0.0273372 0.113134 0.0612606 -0.0722071 0.00715107 -0.101777 0.0221871 -0.0192194 0.0492569 0.0879708 -0.0192205 -0.10028 0.0460689 -0.0803659 -0.00965328 -0.0198553 0.0569078 -0.0016792 -0.0520409 -0.021423 -0.029633 -0.159131 -0.0414735 0.0340549 0.0026135 -0.013729 0.0445476 0.128314 -0.0491983 -0.0167179 0.0422052 -0.0933805 0.0170617 0.0694736 -0.0382436 0.0339763 0.055082 0.13252 0.104958 -0.00713322 0.00984802 -0.0278584 0.00127305 -0.0408317 0.0591996 0.00915374 -0.0171839 0.0488074 -0.0606292 -0.00992947 0.0166405 -0.00671743 -0.0193593 0.113492 0.0209102 0.0510345 -0.0610336 -0.0421843 -0.0433956 -0.0700236 -0.0629753 0.0533433 -0.0301349 -0.0123788 -0.0103229 -0.014478 -0.0407374 0.075682 0.0573198 -0.0044655 -0.0659238 0.0734023 0.0247398 0.00144923 0.0797671 -0.0856776 0.0264897 -0.0396232 -0.0222767 0.0125436 -0.00274747 -0.0365527 -0.171269 -0.0235523 0.00263068 -0.00608717 0.0757741 0.00996304 0.0427482 0.0444916 0.0403676 -0.0840438 -0.0150671 -0.0235728 0.04414 0.150372 0.0918541 -0.0607826 0.0631294 -0.0077083 0.00884994 0.0086277 0.0920262 -0.0751766 -0.00609 0.0498206 0.0997229 0.0113799 -0.0121274 0.0111108 -0.02966 -0.0231138 -0.0241896 -0.077125 0.083035 0.0887024 -0.0349681 0.0298731 -0.0601574 0.0335726 0.00925029 0.0367438 -0.0391938 -0.00367623 -0.0120222 -0.0717576 0.0389592 0.0697987 0.0552192 -0.0417682 -0.053705 -0.0241188 -0.0403937 0.0197057 -0.0335519 0.0600986 0.0292773 -0.0174173 0.0502304 0.025916 -0.0170938 -0.00588583 -0.0205579 -0.0980451 -0.0791923 -0.0182363 -0.105574 0.0172751 0.111518 -0.0465625 -0.0556849 -0.0521825 -0.0730792 -0.0375863 -0.0248609 0.132689 -0.0770492 0.0267349 -0.103917 0.0661809 0.067872 -0.0500554 -0.0966258 -0.0385615 0.0198351 -0.0311671 0.0266637 0.0236844 0.0241892 -0.045641 -0.0284317 0.150041 -0.132744 -0.02966 -0.0317979 -0.0224781 -0.00223327 0.0320138 -0.00717712 0.0349982 0.129479 -0.0105778 0.0934267 0.0410067 0.0385197 0.0233617 0.063782 0.0683335 0.0268987 0.0617702 0.0139943 0.00316291 0.0732494 -0.0160792 -0.000708753 -0.0735344 0.0208396 -0.00949585 -0.0321383
action -0.0725498 -0.109199 0.0739556 0.0289489 -0.034754 -0.116709 0.0330998 0.0833905 -0.00981707 0.0557783 -0.0463342 0.106554 -0.0242667 -0.0381138 0.0209024 0.0791825 0.134611 0.0434012 0.0695512 0.0108676 -0.0582057 -0.0185591 -0.0412448 0.0422826 0.0787651 0.0239897 -0.00227238 0.0142943 -0.021994 0.00606151 0.0842726 0.0321723 0.0229844 -0.0357332 0.0315666 -0.0781612 -0.039063 -0.127113 -0.00528889 -0.159997 -0.00348704 -0.0136982 0.0222562 0.00245071 0.0390378 0.0253911 -0.0386121 -0.0575232 0.0123851 -0.0154522 0.00613602 0.0359058 -0.0175973 -0.0165426 -0.0413494 -0.110499 -0.0564043 0.0954684 0.0308667 -0.046635 0.0374936 0.147838 -0.0555608 -0.0339615 0.0350886 -0.00423733 -0.0165872 -0.0222606 -0.0151132 0.0458424 -0.0159238 -0.0521044 -0.00132985 -0.134477 -0.112506 0.0447184 0.0358327 -0.00993599 -0.12574 -0.0460476 0.00441219 0.132147 0.0176914 -0.0615496 0.0920339 -0.0959087 0.0417578 0.0344524 0.0322502 -0.00382065 0.0085378 0.072182 0.0228656 -0.0544064 -0.0019888 0.0261832 0.0327817 -0.0189985 0.00773987 -0.145517 -0.0856873 -0.0128907 0.00763064 -0.033342 -0.0367485 0.0806801 -0.117317 0.0172571 0.00689327 -0.0600472 0.00683097 0.0309788 0.0182017 -0.0934417 0.0666964 0.00973918 -0.0169951 -0.00117176 -0.0942448 -0.0688603 -0.023159 -0.00920679 0.0301872 0.0447709 0.0124867 0.0425934 0.0745697 -0.0439687 -0.0600376 -0.00668409 -0.0978921 -0.0199472 -0.0411135 0.099031 -0.0932824 0.0258542 0.0809393 -0.0170541 0.0273741 -0.0666651 -0.0133981 -0.0149854 0.0740148 -0.0584793 -0.00837719 -0.0514633 0.0312303 0.0976284 -0.0746123 0.0287066 0.00658895 0.00982639 -0.0525936 0.022953 0.0564207 0.0358579 -0.0318783 -0.00985788 -0.0259139 -0.00114397 -0.0600152 0.0657322 0.0676958 0.00161051 0.0170817 0.0430924 0.012203 -0.0645613 0.0532845 -0.00218528 0.0991179 0.0750996 -0.0300135 0.0132879 0.0357078 0.175934 -0.00447432 0.0348233 -0.00249765 -0.0716043 -0.0660472 -0.0233268 -0.0159539 -0.0415124 -0.0402866 0.114141 0.0843067 -0.117345 0.0805351 -0.0605711 -0.00108379 -0.0118641 -0.0482293 -0.00529253 -0.0193777 0.0393303 -0.0582158 0.0374285 0.00399884 0.0846933 0.0379245 -0.0347425 -0.0100907 -0.00723751 -0.151556 -0.0326841 -0.0209038 0.0539071 -0.0258032 0.0077913 -0.0739869 0.0137758 0.00760926 -0.0248038 0.0519237 -0.0294696 0.0480922 0.000136902 -0.0322491 0.0142873 0.0461877 -0.0240618 -0.0186348 0.000587637 0.0135318 0.038143 -0.0721703 -0.000327125 0.0427157 -0.0190848 -0.0774507 -0.0615656 -0.00485381 -0.0109789 0.00288865 0.0231712 0.0209086 -0.0234716 0.024364 -0.0800646 0.0404006 0.0016712 -0.0677137 0.143304 -0.0115894 0.0928831 0.00222707 -0.133036 0.0850958 -0.125846 -0.015756 -0.0617775 0.059009 -0.0706324 -0.026135 -0.0228827 0.0255164 -0.0195728 -0.00802509 0.0386521 0.106807 -0.0335779 -0.0646042 -0.026633 0.0339871 0.107606 -0.0529932 0.0025205 0.108044 0.107797 -0.0221602 -0.0502614 -0.0588084 0.0387806 -0.0146049 -0.0962701 0.0315299 0.0251422 -0.0296065 0.108396 -0.0307001 0.0405361 -0.032227 -0.0466226 0.0169742 0.0746306 0.0977893 -0.0274524 0.107274 -0.022164 -0.00285156 0.0718741 -0.0168739 0.0762689 -0.00130009 0.0275206 -0.037165 -0.0924331 -0.0761737 -0.0495509
adam -0.0177186 0.0405998 0.00570494 -0.0101044 -0.0443636 -0.0240286 -0.0100635 0.0478966 0.00695242 0.0833963 0.023362 -0.0203186 -0.0163929 -0.0784252 0.0097199 -0.0254162 0.0215696 -0.00484469 0.102713 -0.045871 -0.128996 -0.0343902 -0.11288 -0.0317587 0.0775567 -0.118382 0.0958277 0.135688 0.00147308 0.0548038 0.0319291 0.0493294 0.0215523 -0.0208108 0.0581466 0.0100052 0.0295015 0.0541904 0.0112337 -0.124756 -0.0376362 -0.107823 -0.117579 -0.0122402 0.00657165 -0.0298546 -0.0175486 0.00291026 -0.0645016 0.0536324 0.0103333 0.000229914 -0.0340523 0.0678525 -0.0243649 0.0269555 0.0202801 -0.0277845 -0.00102787 0.0308737 -0.078504 -0.00260176 0.0404559 -0.0342917 0.0206867 0.016036 0.0296865 -0.0252223 -0.0410175 0.164005 -0.0697633 -0.0660375 0.100156 -0.0311503 -0.0582795 0.00172562 0.0332249 0.108546 -0.0219398 0.0462111 0.0320399 0.102463 -0.0182034 0.0142756 0.0364353 -0.0252455 0.0170743 0.00628591 0.0311164 0.0275709 0.138078 0.0271753 -0.0471656 -0.0827385 -0.0136541 -0.0760155 0.00269041 -0.0313349 -0.00743436 0.0233971 -0.0652206 0.0481096 0.0498074 -0.00698966 0.0869728 -0.0293772 -0.0111862 -0.082276 0.00639057 -0.0570725 0.0804937 0.118583 0.0368143 -0.0387601 -0.0226583 0.121482 -0.00286784 -0.0143271 -0.11683 -0.00470689 0.0785346 0.0433987 -0.124953 -0.0641071 0.0238889 0.0518136 -0.031868 -0.0271407 0.0424266 0.0340968 0.011732 0.0146055 -0.109346 0.0339641 -0.0316687 -0.00720599 0.0158249 -0.0234759 0.0298507 0.0278552 -0.00972807 0.0310293 -0.00841965 -0.0257229 -0.094537 0.0284386 0.00223316 0.023117 -0.0542198 -0.00826136 0.0635584 -0.048197 -0.0387248 -0.00472298 0.010225 0.0915813 0.0432051 0.0537454 0.0213625 -0.0746451 -0.010619 0.0159253 0.0868038 0.0139834 -0.00834026 0.00117314 -0.0428661 -0.0647219 0.00774765 -0.0431494 0.0886774 0.0313983 -0.0219881 -0.057067 -0.0456977 0.0510454 -0.0458609 0.0612629 -0.0754512 -0.0585256 0.0162546 -0.0359572 -0.0589289 -0.0323924 -0.211451 0.0332531 0.0595645 -0.06085 0.0349518 0.0457582 -0.0371071 0.0186964 -0.0997218 -0.0283787 0.0684951 -0.0871468 -0.104881 -0.0128834 0.0665732 0.0249395 0.0231698 -0.107489 0.00569837 -0.0488213 0.00933754 -0.0511464 0.1109 0.00484308 0.0142408 0.0567592 -0.0786397 -0.0145206 -0.0676741 -0.0385101 -0.124743 0.0218254 0.0931469 -0.0102737 -0.0127632 0.00161543 0.083054 0.0690408 -0.0308009 0.0230138 -0.00384536 0.0482761 0.00472051 -0.0884809 0.00782074 -0.0445697 -0.0900556 0.0042786 0.0292671 -0.0185085 -0.0136605 -0.0746679 0.00973604 -0.0301626 0.0548413 0.0547041 0.00158096 0.0566744 -0.0844738 0.0919242 0.0693715 0.0340158 0.0909717 0.00466612 0.024764 -0.0233384 -0.0490927 0.111134 0.0973676 -0.0486391 -0.0263814 0.0165034 -0.055505 0.0304431 0.125051 -0.0108396 0.0246909 -0.0510652 -0.0915764 -0.0888737 0.0330094 0.0716732 0.0115959 0.0386044 -0.0545144 0.0629468 -0.1708 -0.0392121 -0.0776131 0.0370536 0.0412206 -0.00526915 -0.0367425 0.0764686 -0.0832064 0.0260763 0.122917 -0.0100043 0.0876016 -0.140082 -0.0582 0.0461661 -0.0127015 -0.00175149 -0.00294583 -0.0530299 -0.0133614 -0.0169175 -0.0221447 0.02926 0.0465807 0.00268068 -0.05414 0.0530379 -0.0481456 -0.0251474
add -0.0943317 -0.0797425 -0.0172944 0.0307403 -0.145637 0.0286485 0.0029414 -0.0461177 -0.0261638 0.0998462 -0.0425942 0.0739148 -0.0423281 0.098833 0.0117394 -0.0150952 0.0875925 0.0290115 -0.0119582 0.0396467 -0.0146477 0.000309129 -0.0151767 0.00738621 9.66579e-05 -0.0337712 -0.0435426 0.0399891 -0.0729622 0.0810198 0.0183146 -0.0474814 -0.00190455 -0.0638815 0.089688 -0.0201526 0.00278285 0.0174762 0.111882 -0.0759484 -0.00181153 0.00431165 -0.0723169 -0.0313528 0.149567 -0.0130355 -0.0971693 0.0429278 -0.142654 0.0178733 -0.0109556 0.106157 -0.00192639 -0.0132145 -0.0537515 0.0890143 -0.0480175 0.00918671 -0.0291706 -0.0386191 -0.061134 0.0571042 -0.0404163 -0.0419802 -0.0244002 0.0502755 0.0234485 -0.0679213 0.125142 0.142814 -0.0279618 0.0434364 0.118843 0.0139114 -0.00465367 0.0908738 0.0524511 0.0584317 -0.0499869 -0.0839979 0.12808 -0.0351803 -0.0982433 -0.0119086 -0.0132894 -0.0857763 -0.0216352 0.0267403 0.0721417 -0.0268609 -0.0603695 0.049782 -0.107411 0.027289 -0.0269259 0.0057807 0.015663 0.01956 -0.0787349 0.0184775 0.0414998 0.00112991 -0.00643546 0.00298715 0.16 -0.011822 -0.153891 0.0289857 0.00732371 0.0135536 -0.0617198 0.0667982 -0.0365931 -0.104265 0.0113291 0.103747 -0.0488457 0.0715547 0.0126062 -0.012278 -0.0461208 -0.0609476 -0.0184259 0.0114781 0.0459585 -0.023304 -0.0250558 -0.0472698 0.0385247 0.0539715 0.0210974 0.0344811 -0.0328487 0.0681783 -0.0483447 -0.0957146 0.115588 0.0492972 -0.0329686 -0.0369701 -0.088171 0.0407913 0.0674569 0.0165641 -0.0635979 0.000917689 -0.0438361 -0.0761602 -0.0683686 0.0565365 0.109825 0.0497691 -0.0138968 0.0206603 0.0155817 -0.0554428 -0.0166311 -0.052237 -0.0518744 -0.00823593 -0.0127326 0.0367756 -0.0523724 0.0142325 0.0121282 -0.00410204 -0.098642 -0.0417444 0.0627174 0.0635924 0.0218131 0.0339656 -0.00465945 -0.0375556 -0.122375 0.0170521 -0.0126145 -0.0142472 0.0130693 0.0485514 -0.0106118 -0.0847875 -0.0114068 0.000441764 0.0744609 -0.0174554 0.0215346 -0.0287196 0.0153005 -0.000459481 -0.0842159 0.0176579 0.00336005 -0.0162045 -0.0407773 -0.0442888 -0.00300828 0.0071892 -0.0299827 0.100353 -0.0650194 -0.0609011 -0.0567583 -0.0440643 0.0367824 -0.064681 -0.0460034 0.0120184 -0.073531 -0.0803156 -0.0105526 -0.0378132 0.0647668 -0.0304124 -0.0120013 0.027504 -0.0021939 -0.00762752 0.0634604 0.0810231 -0.0485729 -0.0331024 0.0231268 -0.0299873 -0.0685923 -0.0366094 -0.0127196 0.0336917 -0.0890457 0.0731683 0.00471618 0.00278346 -0.0744113 -0.115821 -0.028501 0.0563648 0.0299758 0.0483597 -0.00530278 0.124127 0.00470004 -0.0398134 -0.0156801 0.00174959 -0.0109773 0.0410874 0.00391254 0.0285533 -0.00356568 -0.0380151 -0.0252188 -0.116704 0.0351137 0.00887998 0.0985757 0.034523 0.142279 -0.16109 0.046519 0.00998061 0.0662053 -0.0286263 -0.0910736 -0.049387 -0.0131342 0.0138198 -0.108685 -0.116652 0.053232 0.115362 0.0171901 0.0152758 0.0377225 0.0436485 0.0105068 -0.0874319 0.0218649 -0.00842443 -0.0918948 0.0514315 0.0080694 0.0208502 -0.0750018 0.0112613 0.0435377 0.0227183 -0.0520727 -0.0334965 0.019186 -0.0761385 0.0385542 0.0105848 -0.00238009 0.00205174 0.0451504 0.0903106 0.0515498 0.0488486 -0.0138675 -0.12383
address -0.0743734 -0.0342785 -0.00831696 -0.0625246 0.0050928 0.0266645 -0.00941168 -0.0470255 -0.0196817 0.0133944 -0.0453315 0.0630234 -0.112722 -0.000189493 -0.00439985 -0.0056506 0.102126 -0.0259658 0.0589347 0.0027927 0.0188007 -0.0111346 0.00976995 -0.0605918 0.0495029 -0.0899998 0.00651806 0.0660073 -0.0218248 -0.0205187 0.0324901 0.0153634 -0.00138266 0.0585955 0.0667665 -0.0237385 -0.0542606 -0.061258 0.0124278 0.0973639 0.0048897 -0.0734072 -0.121383 0.0444634 0.194119 -0.0569333 -0.0807721 -0.00200292 -0.0193145 0.0715746 0.124636 -0.067921 -0.0271883 0.021035 -0.081679 -0.0447168 -0.0827941 0.00975021 -0.0728008 -0.134538 0.0139498 0.0733996 -0.0818599 0.0220876 0.0269736 0.144449 -0.0151587 -0.0794875 0.0935409 0.0899826 -0.0298896 -0.00869178 0.0614482 -0.0456407 -0.126543 0.04366 0.0109119 0.0711674 -0.0107843 -0.183837 0.0736153 0.123911 -0.042317 0.0918263 0.0374398 -0.0858182 -0.00639602 0.00755578 0.0621998 0.0124717 -0.119574 0.0992205 -0.036041 0.0368798 -0.0884504 0.0298583 0.0142866 0.0115741 0.0604607 -0.0470836 0.0145061 -0.0193879 0.0863183 -0.0845946 0.0486327 0.0619938 -0.0843633 0.0532804 0.0526209 -0.00497239 -0.0570257 0.0594454 -0.0109429 -0.0218713 -0.0489152 0.0598616 0.0177261 -0.00339143 0.059279 -0.119387 -0.0140863 -0.0934335 0.0217234 0.0518931 0.0872533 0.0584834 -0.0462975 -0.0219779 -0.0203434 0.0883072 0.112859 0.050855 -0.063033 0.00477618 0.0549241 0.0564643 0.0224392 -0.0580171 0.000427127 -0.0186794 -0.0117282 -0.00978772 -0.0385949 -0.104999 -0.00777136 -0.045359 -0.0594303 -0.0639802 0.0801789 0.0517588 0.0562654 0.0260977 -0.0150601 0.03502 -0.0349545 -0.0208928 0.0120785 -0.0772301 0.0704866 -0.0217451 0.0452135 -0.0311156 -0.032206 0.0144839 0.022635 0.0178777 0.0271638 0.0110298 -0.00403927 -0.0220891 0.0357112 -0.118755 0.0570445 0.0174453 -0.0926305 -0.0125613 -0.0421021 0.00961818 -0.0698911 0.0555089 0.00452973 -0.0128281 -0.035053 -0.0209646 -0.129006 0.0663518 0.0309324 -0.00216228 -0.0145178 -0.0165322 0.0460334 -0.0550853 -0.0248335 0.0793147 -0.0203156 0.026945 -0.0399576 -0.00991297 -0.0485354 -0.00756604 -0.0417235 0.0780998 -0.0228041 0.0352145 -0.0214988 -0.0602911 -0.111673 -0.0201605 0.0067568 0.00191069 -0.0612879 0.0550032 0.00864104 -0.0640076 -0.0504222 0.0827594 -0.0242196 0.0650209 0.0298123 -0.0355616 0.0657531 -0.00423259 0.100086 0.0271647 -0.0546657 0.120856 0.0171627 0.0265936 -0.0375138 -0.0006176 0.0314312 -0.0392265 -0.0369759 -0.0308711 0.0422273 0.163646 0.0532307 -0.0188419 -0.0220985 0.000459586 0.0914935 -0.0300592 0.00702176 0.0961673 0.011064 0.0970361 -0.00870655 -0.00250485 -0.0110929 0.0106925 -0.0598059 -0.0429323 0.0625754 0.0215246 0.0193013 0.0107468 -0.00616458 -0.0184941 0.0942905 -0.057315 0.060115 0.0790904 -0.0169431 -0.070179 0.00855208 0.100122 -0.0297316 0.0418169 -0.0556883 -0.0150638 0.00468207 0.0162373 0.0489535 0.0457189 0.0205012 -0.0544345 0.0192424 0.0242986 -0.0292521 -0.0189916 0.0699019 0.094148 -0.0634053 -0.0282324 0.0488712 0.0241929 -0.124252 0.0399929 0.0325092 -0.0349809 0.0377537 -0.114906 -0.0810951 0.0849079 0.00428953 -0.0422279 0.0214754 0.0276375 -0.0354801 -0.0779316
addresses -0.0458028 -0.0875248 -0.0524374 -0.00528757 0.059357 -0.0133772 -0.00744492 -0.070659 -0.0107682 0.0727804 -0.0474243 0.121186 -0.0654202 0.0584257 0.0611514 0.0256889 0.00844353 -0.0111641 0.0669061 0.00483444 -0.0492755 -0.0129979 0.0805393 -0.0850481 0.064766 -0.0866086 -0.0593549 0.0247356 -0.00581957 -0.0512197 0.0327184 -0.00644018 0.0176326 -0.0591673 0.052476 0.0212066 -0.0324296 -0.00829502 0.0434983 0.0573424 0.0442467 -0.0939788 -0.137933 0.0156765 0.145544 -0.0240331 -0.0279165 -0.0119629 -0.019072 0.0427974 0.109765 -0.08049 -0.0595828 0.0711313 -0.0593658 -0.0419137 -0.0102415 0.0460867 -0.113769 -0.124334 0.00161161 0.124187 -0.0588598 0.00483285 -0.00158351 0.118704 -0.0350436 -0.0957298 0.0557513 0.137284 -0.0254778 0.0156268 0.0403909 -0.0659224 -0.158786 -0.0174352 0.0300573 0.0493713 -0.0536339 -0.219063 0.0192289 0.137011 -0.0150068 0.0997959 0.0604669 -0.067012 -0.0239234 -0.0233554 0.0771523 0.0146996 -0.0929069 0.0341627 -0.0193936 0.0380996 -0.0484921 0.104671 0.024541 0.0365352 0.0389339 0.0157816 -0.0289514 0.0619701 0.0719773 -0.0778325 0.0346685 0.039314 -0.108782 0.0148382 0.0580829 0.0533299 -0.0618454 0.0602524 0.00623427 0.0490925 0.0186315 0.0703045 0.0517118 0.0012678 0.0280852 -0.0780772 -0.0231382 -0.0350629 -0.0153476 -0.00115357 0.0251107 -0.00142735 -0.00761186 -0.0152331 -0.0238938 0.0627952 0.0564481 0.0310446 -0.119837 -0.00655242 0.0395685 0.0351575 -0.053916 -0.0152245 -0.00284977 0.024553 0.0079536 0.0509103 -0.072531 -0.138248 -0.0369886 -0.0586748 -0.0187054 -0.0653406 0.0777744 0.001734 0.0138934 0.0295901 -0.0188804 0.0204315 0.000164994 -0.0400883 -0.0226583 -0.071922 0.0492859 -0.0279963 0.0619818 -0.0644194 -0.0280193 0.0518354 -0.0145243 0.016876 -0.062696 -0.0215266 0.017521 -0.02363 0.00870637 -0.0575297 0.0519067 0.0463919 -0.104234 -0.0941383 -0.0574145 -0.0344641 -0.0763766 0.0213725 -0.0085033 0.0109254 -0.00509932 -0.0113438 -0.114473 0.0284803 0.0624729 -0.0228062 -0.0204261 -0.0458911 -0.0392642 -0.0679272 0.0562586 0.0979801 0.0025283 0.0190084 -0.0215488 0.0113739 -0.091099 0.0377583 0.0233794 0.0208322 -0.00387028 0.0514451 0.0162612 -0.07415 -0.126117 0.0156842 -0.0268098 0.0027704 0.00207466 0.0187639 -0.0104041 -0.0791724 -0.0334157 0.0471335 -0.0605754 0.0680521 -0.0101798 0.0193199 0.0790673 -0.0326037 0.0201567 0.010264 -0.00553195 0.0488758 0.00928106 -0.0400636 -0.0220049 -0.0108837 0.0236609 -0.0017347 -0.0848195 0.00636986 0.0694637 0.13824 0.0276647 -0.0707977 0.0665795 0.0131743 0.0776624 -0.0359151 -0.0683455 0.0334473 0.0235419 0.0726799 -0.0118065 0.0563512 -0.0315699 -0.00454335 -0.048902 -0.00957776 0.0835074 -0.0563423 0.0063701 0.0258668 -0.0447946 -0.0383575 0.0779655 -0.109741 0.051561 0.071953 -0.0419391 -0.0771488 0.021984 0.0978875 0.0102513 0.0358795 -0.0230255 -0.0343364 -0.0429194 -0.023192 0.0233325 0.0264947 0.0224302 -0.00964053 0.0211738 0.0255304 0.00347511 -0.0303902 0.101895 0.0583176 0.0180792 -0.108534 0.11025 0.0753654 -0.124238 -0.00661386 -0.0198926 0.0102065 0.0187831 -0.116959 -0.0809393 0.0854909 0.0249915 -0.0307484 0.036135 0.0840663 0.0229172 0.0104867
advance -0.0866367 -0.0529358 -0.105775 -0.00746457 -0.114732 -0.0428126 0.0973567 0.0198992 -0.0340431 -0.0233914 -0.0381216 0.0620652 0.0167921 -0.136956 0.0914376 -0.00815252 0.0517848 0.0237734 0.00507132 -0.0417204 0.016006 -0.0105468 -0.0390395 -0.0617309 -0.024065 0.048921 0.0235697 0.11227 0.088201 0.0228522 0.0796815 -0.0152786 -0.0776287 0.0233467 0.0116464 -0.117927 -0.00192736 -0.0597815 0.0223091 -0.080754 0.00178121 -0.137561 -0.0227138 0.0608508 -0.0293237 0.0271835 -0.0300316 0.0245111 -0.0865775 -0.0334539 -0.0192653 -0.0124768 -0.0533404 -0.0519572 -0.179698 -0.0256341 -0.0194011 0.0912428 -0.0683137 0.00776469 -0.0577135 0.0697085 -0.0799835 0.0144961 -0.0133504 0.159531 0.0412799 -0.0364798 -0.0993775 0.0711297 -0.0299683 -0.0248335 0.0724806 -0.0530026 0.00295878 -0.0220394 0.0228346 -0.0415338 -0.0617712 -0.0586354 0.0414495 0.0318795 -0.107379 -0.043176 0.103196 -0.0443268 0.0208988 0.0622106 0.0132224 0.0324643 -0.0468624 -0.0378154 -0.0291205 0.023913 0.0211962 0.0308287 0.0301173 0.0420282 -0.0672586 -0.0668909 0.00130628 0.0583865 -0.0180785 -0.0340239 0.153682 0.0913972 -0.0872509 0.00096024 0.0237115 -0.0524555 -0.0571603 -0.0194598 -0.0295765 -0.0566442 -0.00405428 0.0692357 -0.0191695 0.0819501 -0.0441227 0.0371981 -0.0686839 -0.0434453 0.0509243 -0.119509 -0.00714882 0.00329036 -0.0680787 -0.11202 -0.0602324 0.00939602 -0.0441983 -0.0283911 -0.0122546 0.0107942 -0.0514562 -0.0507735 0.0196622 0.0150228 -0.0831941 0.00547923 0.052476 -0.103012 0.0187906 0.0340268 0.0521483 -0.0017555 0.00760871 0.0889187 0.0156003 0.0416089 0.0494733 -0.0142294 -0.0978541 0.048029 -0.00807804 -0.0399029 -0.00958737 0.0121087 -0.0224218 -0.0680522 0.0222055 0.00931271 0.0842121 0.0871445 0.00337269 0.0104142 -0.01056 0.0246687 -0.0626222 0.00361541 0.0632353 -0.0267038 -0.0361899 -0.0355098 -0.0706305 0.0829989 0.0119022 0.0960786 0.0109247 0.00170055 -0.062864 -0.0229229 0.0302837 -0.0471102 -0.0162727 0.0124014 0.0163817 -0.0483083 0.00286753 0.0105959 -0.00780152 -0.0138595 0.0569049 0.0275321 0.0675176 -0.0876949 0.0765503 0.00955233 -0.0362546 0.040236 0.0413392 0.0012239 0.0399708 0.0221351 0.0337117 0.032138 0.0313721 0.0141539 -0.00238621 -0.03382 -0.0590349 0.0312856 -0.0625043 -0.0585118 -0.0449203 0.00127504 -0.0212168 -0.0474854 -0.0251656 0.16065 0.0161221 0.0286346 0.101757 0.0274493 -0.0813265 -0.00421635 -0.0825084 0.0467743 -0.0258555 0.0894677 -0.0687284 -0.000517772 -0.0881747 -0.0357234 0.0726447 0.0114333 0.0293901 0.0045363 -0.0430866 -0.0144768 0.00347761 0.14775 -0.0152283 0.147883 0.0417933 0.0347224 0.0104194 -0.128084 -0.0446927 -0.0698755 -0.0191144 -0.0325011 0.013998 0.0688401 -0.00521168 -0.0315007 0.0769839 -0.0123027 0.0198488 0.0246807 0.00629457 0.0360981 0.0443949 0.0245411 0.0837807 0.0744958 -0.128899 0.00167673 0.0877714 0.0415713 -0.0672034 -0.00665426 0.0464693 -0.0930334 0.0212467 -0.0419983 0.0499867 -0.0241239 -0.0328728 0.0830486 -0.0449318 0.102949 -0.044349 -0.000343798 0.0349607 0.00767033 -0.00699787 -0.0536204 0.0884788 -0.132227 0.089322 -0.118048 -0.0852563 0.0858794 0.0473109 0.0959792 0.0285768 -0.030588 0.0226224 -0.057947
advantage -0.131355 -0.0811695 -0.029852 0.0695161 -0.0351872 -0.176899 -0.127737 0.00198915 -0.0243318 0.0938902 -0.0302209 0.0888519 0.00248036 0.0248072 0.0749214 0.00624487 0.0751326 -0.00566163 0.0111252 -0.0145265 -0.00106166 0.0127311 0.0602756 -0.0363317 -0.039554 0.0269914 -0.100472 0.0772213 0.0758554 -0.0355423 0.0482919 -0.0592099 -0.0250107 0.00957155 0.0520013 -0.0236231 -0.0023358 -0.0448959 0.101942 -0.0608191 0.0435709 -0.0954179 0.00849006 -0.0449792 0.024662 -0.00359636 -0.014856 0.0233875 -0.0351153 0.0277544 -0.0115873 -0.0932147 0.0299072 -0.0237559 -0.100332 0.021051 -0.14299 0.0230905 0.0636056 -0.0807829 -0.0558023 0.0888657 0.0324705 0.0632655 0.0452602 0.135689 0.0422528 0.014336 -0.114865 0.0227637 -0.00693913 -0.0295991 0.105395 0.0334942 -0.0707295 0.0649367 -0.0764844 -0.0162201 -0.14232 -0.095368 0.0186231 0.0153749 -0.0390333 -0.032296 0.0839934 -0.0676933 0.100152 0.0246599 0.0625923 -0.0462487 -0.0881061 0.0745952 -0.0223993 -0.0529806 -0.0132045 -0.00557744 0.00799 0.0867478 -0.0470211 -0.0316411 0.0154062 0.0569381 0.0106869 -0.0887088 0.138577 0.0805788 -0.113693 0.0290171 -0.0023952 0.0263751 0.0101474 -0.0359961 0.0145 -0.0256881 0.00324353 0.0360819 0.0480213 0.0737534 -0.0665451 0.0203348 0.039518 -0.0867312 -0.0368729 -0.0127243 0.0122319 0.0816869 -0.133559 -0.0774473 0.0171802 0.0979934 -0.0988115 -0.0614977 -0.0744193 0.0512093 0.0536141 0.0149477 -0.0415383 -0.000729765 -0.0540419 -0.0395032 0.0182669 -0.0341829 0.0740773 -0.0338257 0.0671485 0.0962556 0.0516638 -0.0456863 0.041454 -0.021866 0.103458 0.0167324 -0.0333955 0.104097 0.0343671 0.0299182 -0.0106307 -0.02546 0.0793272 -0.110978 0.0120879 -0.00598242 0.0223844 0.0102275 -0.0542093 0.0605264 0.00204126 0.0257601 -0.00838853 -0.0625273 0.0530339 0.00829101 -0.0589212 0.0148843 -0.0775068 0.12386 0.0279983 0.0546339 -0.0272918 -0.0407155 0.0422758 0.00151376 0.0644003 -0.0904405 0.0238486 -0.0877158 0.0581703 0.0676926 -0.0466608 -0.0185722 -0.0343643 0.0106112 -0.0510167 -0.0328027 -0.0337982 0.0599565 0.0251257 -0.116089 0.0331864 0.0165079 -0.0219058 0.0555845 -0.00491607 0.00615473 -0.00155119 -0.0344028 -0.000560945 -0.0702018 0.00957636 -0.0448954 0.00245493 0.0449051 -0.071744 0.0539417 0.0206687 0.00765493 0.0167677 -0.0188425 0.00171342 0.00774741 0.0561072 0.00800099 0.0255362 0.00442835 -0.0187568 -0.037389 -0.000327377 0.0191192 0.014246 0.0550914 0.0228096 0.0172886 -0.0545946 0.070521 0.0134243 0.0202727 -0.00362109 -0.0262692 0.00818864 0.041792 0.0628958 0.0410266 -0.0818704 0.00130038 0.000634705 0.0432075 0.0160308 -0.0731447 0.0554524 -0.0141667 -0.0612358 -0.0731571 0.1021 -0.113403 -0.119438 0.0693476 0.0264405 0.0299594 0.0060436 0.0337359 0.153313 -0.0109648 -0.0246324 -0.120724 0.0429412 -0.0174654 -0.0190791 0.065162 0.0249463 0.0111802 0.0127525 0.00366498 -0.029338 -0.0173171 -0.00948324 -0.0376358 -0.0636609 0.00906553 -0.0197888 0.0325744 -0.00931328 0.0165626 -0.000897747 0.0163312 -0.0351573 0.0211392 0.0313832 -0.0173712 0.159993 -0.108721 0.0430091 -0.102845 0.00226648 0.0878475 0.0441534 0.117672 -0.0279342 -0.0288395 -0.0717326 -0.0959963
advice -0.0180849 -0.100772 -0.0599307 -0.038994 -0.0135939 -0.088544 0.0156881 0.0171285 -0.0455569 0.0758084 0.005265 0.0465345 0.00955239 -0.00260268 0.0767535 -0.0293147 0.056938 -0.0257801 0.00913626 -0.0369963 0.0647737 -0.0461877 0.0823447 -0.0617479 0.111387 0.00386242 -0.0821437 0.132982 0.04235 -0.0197344 0.0428305 -0.0636992 0.0408661 -0.0676439 -0.0771102 0.083804 0.0105799 -0.0706906 0.000607729 -0.0494347 -0.00994782 -0.0540079 -0.0616593 -0.0204563 0.0433245 -0.09998 -0.0826361 -0.0667702 -0.111462 0.067869 0.0942964 0.0277297 -0.095695 -0.00862287 -0.0779176 -0.0227195 -0.0287196 0.0618558 -0.00840283 -0.0355591 -0.00837324 0.153745 -0.0182619 0.0559345 -0.00376122 0.110226 0.0717246 -0.0209243 -0.0163848 0.030354 -0.0703142 -0.0342011 0.115955 -0.138491 0.0317902 0.0920665 0.0583232 0.00763457 -0.0614597 0.00345863 -0.0160158 0.0665357 0.019493 0.156859 0.0127637 -0.167557 0.117431 -0.0255917 0.0387188 -0.0382404 -0.0664863 -0.0125833 -0.0161529 -0.00797589 0.0658622 -0.0702748 0.00841346 -0.0319056 -0.0736755 -0.0371573 -0.0189855 0.152746 0.0335175 -0.0393438 0.106423 0.0560398 -0.0132203 0.00673431 0.0618062 -0.0174243 0.0735231 -0.0249953 0.0370111 -0.138983 -0.07963 0.085253 0.0161941 0.0237502 -0.0132364 0.0620471 -0.050569 -0.0269086 -0.0549379 0.0196434 0.0150159 0.00541466 -0.017452 0.025792 -0.0345474 -0.0363693 0.0216916 0.0395816 -0.0471805 -0.0226752 0.0301309 -0.0136433 0.104547 0.00423805 0.00300714 0.0149416 -0.0159721 0.0545547 -0.0860597 0.0394127 -0.0299651 0.0250454 0.0769061 -0.0196657 -0.00533566 0.0587323 0.0485477 0.0584243 -0.0273955 0.0467081 0.0413528 0.012046 0.0737303 -0.123994 0.0214358 -0.0377331 0.0916367 0.0404651 0.0547653 0.0776438 -0.00351475 0.0443249 -0.0362734 -0.0463211 0.0498199 -0.00653525 0.0197537 -0.0227545 -0.0802051 0.00855165 -0.0157323 0.0825829 0.0261981 -0.0662571 -0.0592726 0.0633724 -0.00702164 -0.0499525 0.0810008 -0.0465927 -0.00482913 0.043475 -0.0214436 -0.0301527 0.0164254 -0.00746294 0.0575656 0.0316813 0.0620488 0.00885155 0.0744511 0.00292922 0.0186641 -0.0375458 -0.0206019 0.117154 -0.0016329 0.0688494 0.037846 0.0410915 -0.0585353 -0.0611946 -0.0623698 -0.0259502 -0.00015801 0.0208893 -0.0423206 -0.0451455 -0.0272637 -0.0175734 -0.0419988 -0.0103956 0.0745945 -0.0427971 0.0134992 0.0838919 0.139644 -0.0341549 -0.0101308 -0.00188124 -0.0214278 -0.0292196 0.0422895 0.0158219 -0.0444601 0.0183361 -0.163584 0.0459342 -0.058073 0.000188267 0.00763385 0.0260277 -0.0193183 -0.0590051 -0.0216418 0.0610313 0.081574 -0.00385288 -0.0525554 -0.0118694 -0.0179372 0.07961 0.0201015 -0.0439647 -0.0310488 0.0340838 -0.00110699 0.0108287 0.0239682 -0.0630803 -0.0383006 0.131402 0.144938 0.0450583 0.108769 -0.0192392 0.030533 0.0851399 -0.0446729 0.0119354 -0.0921492 0.0322975 0.0291628 0.0624052 -0.0160288 -0.0360234 -0.0357965 -0.0269464 -0.102008 0.000760678 -0.0117674 -0.080184 0.0483853 0.0279789 -0.0409292 -0.0192937 0.0339558 -0.0500839 0.016749 -0.155131 -0.0433161 -0.0169241 0.050586 -0.102847 0.0568911 -0.0184695 0.0519269 -0.0570924 0.0138952 0.0765245 0.0410016 0.0968091 0.0519521 0.0127589 0.016755 -0.0475693
ago -0.112765 0.00756926 -0.0992249 -0.0444317 0.0309356 0.0659339 0.0430143 0.0197145 -0.0468102 0.0421918 -0.000288467 0.0169967 -0.00398174 -0.0367998 -0.0446329 0.00481515 0.109349 -0.0381166 0.0416807 0.0589241 -0.0959958 -0.0576368 0.0236331 -0.0552636 0.0481781 -0.0449023 -0.0164542 0.0582889 0.0153873 0.0650605 0.0303392 0.0450724 0.0822681 0.0692929 0.0532363 -0.0400797 -0.0327335 -0.0539226 0.0115497 -0.00713888 0.0864385 0.0378832 -0.157588 -0.042034 0.0266635 0.00285142 -0.031225 -0.0477552 -0.0424541 -0.0038167 -0.0323828 -0.0236755 0.0635281 0.0047845 -0.0274132 0.0330381 -0.0377657 -0.0241896 -0.0198418 0.0156521 -0.062285 0.109697 -0.0278557 0.0369811 -0.00302726 0.0683095 -0.102738 -0.0780914 -0.0723281 0.000740677 -0.0886422 -0.00480654 0.0781012 -0.0923966 -0.00514774 -0.0374094 0.0527493 0.0246841 0.030547 -0.0814362 -0.0123869 0.0237839 0.0393588 0.131301 0.139858 -0.0832387 0.0403426 0.0418984 -0.0376817 -0.0182007 -0.00607423 0.00923828 0.0175799 -0.113487 -0.000118103 -0.000559189 0.0380646 -0.0370805 -0.0782509 0.0633867 -0.0177725 0.0315672 -0.0657432 -0.0201286 0.0675447 0.0764149 -0.0036115 0.0256617 0.00395799 0.0871666 -0.0198972 0.103276 0.0369899 -0.00621702 0.00362063 0.0424123 -0.0237692 0.0495465 0.0412203 0.0878322 -0.00918756 -0.0319856 -0.0285641 -0.0824176 -0.0883088 -0.0902406 -0.0631 -0.0793804 0.0560149 -0.0358762 -8.54314e-05 0.0371107 0.0189321 0.010214 0.0430033 0.040638 0.0454027 -0.0660689 0.0177962 0.135844 0.0160602 0.0326732 -0.0120101 -0.0326162 0.112526 -0.0263817 -0.0549293 -0.0357075 -0.0546896 0.0130814 -0.00684188 0.0066936 -0.0497004 0.000457916 0.0540729 0.0137756 0.0251166 0.00235108 -0.0144148 -0.121779 -0.0318374 -0.0801577 -0.0135673 -0.0249094 -0.0055352 -0.0843114 -0.14357 -0.117934 -0.0842475 -0.0144366 0.031889 0.0855074 -0.0551861 0.0205225 -0.0262737 0.0188937 -0.153122 -0.0785129 -0.0889058 -0.044107 -0.0986296 -0.0656588 0.0281089 0.0388668 0.0377126 0.0040524 -0.0347889 0.0539486 -0.00956399 0.0146615 0.00254401 0.0130963 -0.00423685 0.0226173 -0.0797472 0.0677997 0.154693 -0.0414861 0.0385189 0.1165 0.0390651 0.0292634 -0.00426376 -0.118601 -0.0628358 -0.0923637 0.0293677 0.0663183 0.0307118 -0.00949942 -0.0949316 -0.00878609 -0.128462 -0.00332197 -0.0406591 -0.0212212 0.0235433 0.0669046 -0.00111657 0.0221348 -0.00179148 -0.0740033 0.0612718 -0.0718744 -0.079463 0.0872806 0.000396038 0.011894 -0.0319243 -0.0596037 -0.0173398 0.00897079 -0.0394137 -0.0125963 0.0226637 0.0673295 0.0528163 0.100271 0.0629149 -0.0299188 0.0999371 -0.00198821 -0.0435391 0.0126399 0.0161369 -0.0335131 -0.0554697 -0.0817995 0.016795 -0.0206017 -0.0396186 -0.0352543 0.170578 -0.0122439 -0.0355979 -0.0240761 0.00143575 -0.0623945 -0.0562311 0.00419982 0.0795787 0.0625346 0.0258608 -0.0777807 0.0472274 -0.0694919 -0.00847321 -0.0835745 -0.0305044 0.0989662 0.0492561 0.0349011 -0.00228441 0.00907427 0.0145203 0.0376812 -0.00261928 0.082257 -0.0855847 0.0416997 0.0175463 0.0328849 0.0785371 -0.069041 0.0156229 0.048473 -0.141164 -0.0459149 0.0716824 -0.0457703 -0.0168998 -0.0497929 -0.0868156 0.0483854 -0.000561126 -0.0101889 -0.0680189 0.0953589 -0.0479148 -0.0644026
air -0.0127704 -0.0154032 0.0473079 0.0770887 -0.0591243 -0.0110253 0.0287573 -0.00407334 -0.0244094 0.0490117 -0.0237411 0.0539405 0.01111 0.00705941 -0.0441139 -0.0116185 0.0463108 0.0550006 0.0946618 -0.0304372 -0.0308362 -0.047623 0.013626 0.0172695 0.138544 0.0354907 -0.0219325 0.0998782 0.0222392 0.0777702 -0.0425834 -0.118271 0.0220901 -0.015411 0.0521626 -0.0655055 0.0281585 -0.0194479 0.0612031 -0.0188401 -0.054002 -0.0638839 -0.0773693 -0.0471671 0.0519594 -0.0954418 -0.0802098 0.0669605 0.120217 -0.0336996 0.056266 0.0080665 -0.0472951 0.029648 -0.118451 0.0769565 -0.0832166 -0.0353465 -0.0296088 -0.0223631 0.111549 0.106663 -0.0842775 0.0863642 0.0173998 0.0328686 0.00707066 -0.0575018 -0.00929349 -0.0907533 -0.124967 -0.0577786 -0.0218863 -0.0472338 -0.038163 0.0136601 -0.00587939 -0.0889359 -0.0999232 -0.00572497 0.0445291 0.012125 -0.0699315 0.00455923 0.0461674 0.0535123 -0.0605989 0.0129235 0.0541209 0.131773 0.013948 0.0147787 0.0464175 -0.0233101 0.0307668 -0.0638745 0.0235661 -4.9858e-05 -0.00284999 0.0177094 0.0146537 -0.0791748 0.146692 -0.0562175 0.0311253 0.0167911 -0.0952168 -0.0588834 0.00392837 0.024421 0.0611534 0.0735976 -0.0153538 -0.0111146 0.0280269 0.074733 -0.038795 0.0136893 0.0178 -0.0210812 0.000520274 -0.0665017 -0.0400927 -0.000750343 -0.0720477 0.017037 -0.12686 -0.067605 -0.050631 0.0337266 -0.0149632 0.0365931 -0.104397 -0.0278447 -0.0611756 -5.17065e-05 -0.0180776 0.0490809 0.0681499 -0.151652 -0.0768125 -0.100779 0.043006 -0.133605 0.0395441 0.00740035 0.146033 0.0256483 -0.0850709 -0.0443602 0.0045378 -0.0679261 0.047537 -0.0389853 -0.0223277 -0.0643311 0.0228708 -0.0223698 0.0410025 -0.032582 -0.0204125 -0.03002 0.154204 0.0160019 -0.0252974 -0.0274189 0.0985957 0.00186694 -0.0149018 0.0323096 -0.0306459 -0.104919 -0.0399623 -0.0891592 -0.0181424 0.0911044 -0.0317254 0.0216893 0.00126066 -0.00181447 -0.0380485 -0.104741 0.0315178 -0.156917 -0.0654241 -0.0905224 0.0898163 0.00250633 0.0739123 0.0683292 -0.031521 0.0309258 0.0300755 0.0521152 0.0199411 0.00738821 0.0315765 0.0650724 0.0420152 0.00263512 0.0105122 0.0340281 0.0536976 -0.0625887 0.0678206 0.0164474 0.0237013 0.0236328 -0.0243715 0.0619282 -0.0126828 0.063463 0.0288711 -0.00138405 0.0698538 0.0253094 0.0712868 0.0284757 -0.0210007 -0.00650819 -0.0466451 -0.0410738 0.0488398 -0.124754 0.0195553 -0.00631564 0.0216494 -0.0313358 -0.00867044 0.00466666 -0.00846076 0.00909989 -0.0718388 -0.00599419 0.0394839 -0.0251077 0.0834031 0.0872737 -0.0406082 0.00184831 -0.0869234 -0.120857 -0.142535 -0.0105618 -0.048568 0.0779717 0.0329059 -0.0575842 -0.076144 -0.125897 -0.0962935 0.00676589 -0.0149266 -0.0105046 0.0441021 0.0211198 0.108106 -0.0222262 -0.0293809 -0.0900497 0.0208145 -0.000512524 -0.0573594 0.0192854 -0.0175078 0.0283694 0.0360791 -0.0650777 0.0197515 -0.00327235 0.0353113 -0.0858454 0.0174896 0.0214016 -0.0166766 -0.0772 -0.0083734 0.097788 -0.0199072 0.00972566 -0.0448596 0.0373105 0.0148635 -0.0429499 0.0108082 0.0936265 -0.074692 -0.0346486 0.0656613 -0.0423325 0.0477022 0.0595364 -0.0670182 0.0367957 0.0404087 -0.00762749 0.0673046 -0.0512484 0.0669587 0.000773081
alan -0.00604403 0.0462251 0.0186447 0.0103091 -0.0239214 0.0472657 -0.00349922 0.00532582 -0.0513551 0.0759598 0.00383047 0.00611916 0.0366967 -0.0947538 0.097027 0.0461938 0.109892 0.019838 0.0425537 -0.0490132 0.00235691 -0.0283196 0.0131433 -0.0367243 0.121555 -0.0506176 0.0222279 0.127982 0.0941852 0.0443679 0.0574409 -0.030548 -0.00300315 -0.0509676 0.0693576 0.00734675 0.0254056 1.76838e-05 0.0550194 -0.0651428 -0.016955 -0.159748 -0.0958935 -0.0452504 0.0286506 0.0743608 0.0232887 0.0104367 0.0501027 -0.0575935 0.0762762 0.0811674 -0.0797077 0.0254328 -0.0501081 -0.0167254 0.00827491 0.0762826 -0.0486698 0.038194 -0.0155841 0.0743016 -0.0528305 -0.00931816 0.0485557 -0.00135109 -0.0252165 -0.00151404 0.028649 0.0596213 -0.0216174 -0.0349835 0.107337 -0.0168659 -0.0113213 0.0774888 0.0630164 0.113976 -0.0768187 -0.0628913 0.0142479 0.0484973 0.0455732 0.000618729 0.0283564 -0.113004 -0.0261626 -0.0555252 0.0181209 0.0717696 0.0522397 -0.0143839 -0.0511571 -0.0231495 -0.00222229 -0.0764151 0.0785905 0.0413771 -0.0608756 0.0375489 0.0335414 -0.0445057 0.0144837 0.046127 0.00567467 -0.0248965 -0.132333 -0.0463093 -0.0168322 -0.0384251 0.0248324 0.0915035 0.028471 -0.0559881 -0.0494878 0.0660307 0.0515234 0.055556 -0.12398 -0.00674224 0.093605 -0.0309634 -0.0220756 -0.0297593 -0.0485567 0.00922815 -0.0886234 0.0428606 0.0775196 -0.00692441 0.0463358 0.0431923 -0.0837571 -0.00915637 0.00817645 -0.0501593 0.0133561 -0.0366626 0.021552 0.0758788 -0.0583673 0.0635719 -0.0189587 0.015797 -0.11908 0.0594788 0.0186939 0.0624837 -0.141547 0.0145776 -0.0266847 -0.00862135 -0.0674459 0.0332697 0.0402334 0.0228236 0.031148 0.0213315 -0.0261148 -0.0665697 -0.00503177 0.0283124 0.0387138 0.0409662 0.0166528 -0.00568057 0.00283809 -0.10521 -0.00871753 0.0130856 0.148628 0.0694928 0.0584132 -0.100887 -0.00878537 0.0589599 -0.0210755 0.0307296 -0.0533763 -0.0208543 0.0656102 -0.0733322 0.0129173 -0.038903 -0.148727 0.0449315 0.0311111 0.0569247 0.0112049 -0.0251898 -0.0739767 -0.00287875 -0.0056351 -0.0355535 0.0483239 -0.0490361 0.0185464 -0.0594931 0.0269473 -0.0212932 0.00774636 -0.0325977 -0.00823121 -0.0562685 0.0192669 -0.129167 0.0719085 -0.0651344 -0.0944936 0.13209 -0.059257 -0.0715497 -0.076132 0.0270017 -0.0894251 0.0529776 0.0818429 -0.128086 0.0407708 0.0752779 0.0451672 0.0743012 -0.040467 0.0527172 -0.0160479 -0.0573525 -0.012523 -0.0193902 0.0371289 -0.0279701 -0.0538451 0.0374421 -0.0923931 -0.057709 0.0621368 0.000227738 -0.0214785 -0.00999489 -0.0347907 0.00167881 0.0151562 0.0914998 -0.0441914 0.0909007 0.0198701 -0.00500824 -0.0377052 0.0663002 0.0560608 -0.0283733 -0.0753314 0.0513939 0.0657153 -0.0338492 0.070642 0.0109643 -0.0233604 0.0994255 0.0359058 -0.0095687 -0.0279499 -0.0750478 -0.0220454 -0.128002 0.0479245 0.0827369 0.00481266 -0.00123682 -0.0896038 0.0325823 -0.0863003 -0.0765416 -0.0753645 0.0242758 0.0272136 -0.00544092 -0.035281 0.123483 -0.0511473 -0.0326243 0.0929467 0.0291637 0.136758 -0.0449727 -0.0714484 0.0754469 -0.100145 -0.0401193 0.0284204 -0.0172675 -0.00678444 -0.000312985 0.0198575 0.00790825 0.00863894 0.0385565 -0.126117 0.0150848 -0.0730971 -0.0723348
albany -0.118535 0.0656529 -0.0852692 -0.0762723 -0.0690523 0.0196759 0.0609257 -0.000994832 -0.00752077 0.0926104 -0.0611779 0.00900459 -0.178746 0.0390812 -0.00208889 0.0251581 0.000525997 0.0502158 0.0017254 0.00476942 0.0667732 -0.084284 -0.0467242 -0.0413488 0.0579169 0.0190662 0.0310056 0.13525 0.0313894 0.0139236 0.0426291 -0.0161848 0.0965036 0.0383472 -0.0422505 -0.076122 0.046584 -0.030511 0.0345149 -0.059234 -0.0118815 -0.0587095 -0.0680288 -0.0045514 0.103038 -0.0543144 -0.0309 0.0121414 -0.00774921 -0.0625813 0.0829539 0.0581578 -0.0107337 0.107949 0.0224062 -0.0447838 -0.0208315 -0.0503292 0.00669655 0.00330085 0.0256379 -0.0607461 0.0968536 0.0637754 0.0475763 0.02912 0.122218 -0.0376591 -0.0495414 0.0426301 -0.0273783 -0.0036697 0.115808 0.00842092 0.04652 0.0278419 -0.026343 -0.00768735 -0.0574529 -0.0791026 -0.0510631 0.0770225 -0.0776281 -0.0482547 0.00261085 -0.0653192 0.0286853 -0.0251911 0.0881752 -0.0574702 0.033443 -0.062243 -0.0231465 -0.0864766 -0.0924317 0.0100543 -0.0270057 -0.0151165 -0.000759894 0.0115378 0.0576566 0.0142176 0.0179946 -0.0212631 0.0810361 0.0580547 -0.0692635 0.00329046 -0.0311948 0.104023 0.0404671 -0.0182392 -0.0444751 -0.0298567 0.033919 0.0826817 -0.0857826 0.054384 -0.0148937 -0.0520466 0.0411046 -0.00979606 -0.0259132 -0.154422 -0.0160305 -0.0437741 -0.138525 0.00230981 0.0553252 0.033329 -0.0507785 -0.111428 -0.066005 0.0324325 0.0112188 -0.0174426 -0.0914105 0.0665104 0.0100759 -0.00866313 0.0313613 0.0183858 -0.00537571 -0.0599059 -0.0396599 -0.0244743 -0.0308856 -0.0551833 -0.0589039 -0.0179525 0.0271598 0.00213179 -0.0134556 0.030549 0.0264643 0.0317758 -0.00291716 -0.03636 -0.0701199 0.00810724 -0.00862594 -0.0242634 -0.0373196 0.133539 -0.0467139 0.0450805 -0.0457331 -0.0261564 0.0891907 0.0327858 0.060158 0.0171376 0.04945 0.0401396 -0.011878 0.114624 -0.071868 -0.0459524 0.0259764 -0.0821265 -0.00871679 0.0178612 0.00624675 -0.135076 -0.118066 0.0280959 0.0610616 0.0910599 -0.0740545 0.0262192 0.113684 -0.047395 0.0117325 -0.132462 0.00933919 -0.0422931 -0.0361304 0.0772595 0.0443379 -0.0919393 0.00963206 0.0104203 -0.013507 -0.083275 -0.102161 -0.100217 0.0659636 0.0766521 -0.0345073 -0.0192326 -0.00468282 -0.00658003 0.0545426 -0.0200695 0.091423 0.0398458 0.078062 -0.0181075 0.117065 0.0593808 -0.0191442 -0.0150573 -0.0173086 0.00761576 -0.0582274 -0.0282012 -0.14048 0.0153657 0.01932 0.0295359 0.00787037 0.0426688 -0.178739 -0.0502964 -0.0567966 0.00995388 -0.0355137 -0.0278834 -0.0114319 0.0333099 0.0540239 0.0708405 -0.0371159 -0.0712399 -0.0535614 0.0517771 -0.00500536 0.0278292 0.00145905 -0.0368329 -0.0379667 0.000783776 0.103099 -0.0574186 0.0710986 0.0306121 0.0168669 0.0552958 0.0908797 0.0228525 0.0495671 0.0529453 -0.03199 -0.0489817 -0.016921 0.0466866 0.0235501 -0.00703707 -0.00102007 -0.0531185 0.0232569 0.0819106 -0.0642058 0.0508088 0.00940045 -0.0468348 0.0337463 0.0835098 -0.0184106 0.0295383 0.142471 0.0410437 -0.0730934 -0.00855157 -0.0589121 0.0907461 -0.108533 0.0339492 0.030449 -0.0240544 0.0592764 -0.0700525 -0.0551091 0.0230733 0.09989 -0.0129857 0.0112103 0.00908865 -0.0340163 -0.029702
alexander 0.0171029 -0.0033201 -0.0820202 -0.00653399 0.0331842 0.0148902 -0.0116857 0.0341638 0.00502532 0.0988436 0.0131904 0.0246582 -0.00363749 -0.00453968 -0.0233933 -0.0632527 0.085397 0.0442812 0.0163517 -0.0588425 -0.0573887 -0.0291973 -0.132528 -0.0198421 0.0803691 -0.0417811 0.0284762 0.0581003 0.0485616 -0.0141913 0.0349853 -0.0248691 0.0117479 -0.0274483 0.0453211 -0.0809743 0.088584 0.0205495 -0.0214879 -0.0341003 -0.0794641 -0.136824 -0.0176806 -0.0731137 0.0750527 0.0509514 -0.0183441 0.0395178 -0.0127355 -0.0551156 0.0345594 -0.0161283 0.0435065 -0.015335 0.0648319 -0.0206885 0.0286667 0.0194863 0.00908779 -0.00873658 -0.0570072 0.110928 0.0639323 0.00426757 0.0260307 -0.0275469 0.0275037 -0.0237 -0.0360023 0.0274791 -0.0818064 -0.00238846 0.113154 -0.0494163 0.0520616 0.0248972 -0.0312213 0.0706156 -0.0775641 0.0262273 0.031823 0.148528 -0.143222 -0.00903452 -0.00335965 -0.0279399 0.0491449 -0.0304822 -0.0150216 0.024624 0.0709607 -0.0381796 -0.0403736 0.0109014 -0.0412261 -0.0209164 0.0146322 0.0560589 -0.0938453 0.0643085 -0.0118641 0.00492201 0.0469277 -0.0294719 0.0231856 -0.0708809 -0.141341 0.0838848 0.0353789 0.055584 0.101259 0.0982421 -0.118622 -0.0389204 0.00435814 0.0461001 0.0224592 0.00598235 -0.0557296 -0.0210391 -0.00960047 -0.00434221 -0.03296 0.0243109 -0.0142148 0.0356941 -0.106224 -0.039469 0.00315009 -0.0315338 0.0519016 0.0239514 -0.14704 -0.0783311 -0.0145354 -0.0709158 -0.0355856 0.0553768 -0.062842 0.0731512 0.059145 -0.00594298 0.00853567 0.0971075 -0.0222689 0.169534 0.0399733 0.0690615 -0.134296 -0.0161093 -0.0042482 -0.0795846 -0.036791 0.0261513 -0.011555 0.0188553 0.0107204 0.00659734 -0.0594779 -0.0242354 0.0600909 0.0768387 0.0270405 0.0928102 0.0584318 0.0300501 -0.00780887 0.0114907 0.0876714 0.0884833 -0.0138579 0.065268 0.0703029 -0.0468167 0.0218528 -0.0384473 -0.0196398 0.0312115 -0.122011 -0.116647 -0.0140865 -0.052591 -0.0213335 -0.115145 -0.210599 0.0708827 0.103131 0.0331033 -0.0263075 -0.0205665 -0.0508759 0.0690706 0.0772735 -0.00789267 0.0421189 0.0185256 -0.0431186 -0.0388571 -0.0206415 0.0177927 0.00927745 -0.00758369 -0.0103168 -0.0782138 -0.0681034 -0.0489285 0.0531252 0.0318602 0.0337584 -0.026874 0.00228368 -0.0721684 -0.0624761 0.0361626 -0.0365095 0.130558 0.0325438 0.0200496 0.0708544 0.0947345 -0.00329199 0.080944 -0.0676541 0.0742414 -0.0488505 0.028486 -0.0614485 -0.0327994 -0.00629761 0.105873 -0.0363923 0.0173096 -0.0570738 -0.0343175 0.033024 0.097798 -0.0678686 0.018897 0.0360469 0.044158 0.0443726 0.0471853 -0.042493 -0.00899568 -0.0312457 0.0864441 0.0242181 -0.0392677 0.0229396 -0.0364524 -0.0146466 -0.0371327 0.0499642 -0.0537511 -0.0514852 0.0680093 0.0211566 0.00797033 0.026736 -0.0253407 -0.00246639 -0.0194114 -0.072379 -0.150022 0.0146695 0.0620857 -0.122651 0.0313401 0.0842132 0.0781958 -0.0724646 0.0232576 0.0148068 0.0330669 -0.0207799 -0.0903621 -0.070877 0.128195 0.00631276 0.10503 0.0690536 -0.0163045 0.0683194 -0.00276922 -0.0466928 -0.0120027 -0.0500096 -0.039579 0.0189214 0.0586738 0.00108776 -0.0143539 -0.0464483 0.0152156 0.0111313 -0.0251903 0.0122665 0.0100072 0.0982173 -0.0328514
alfalfa 0.00801412 -0.00715675 -0.0146462 -0.037105 -0.0152691 -0.0175065 0.0477035 0.0325763 0.0433451 -0.09786 0.0592944 -0.0113923 -0.0626016 0.0252238 0.044357 0.000702674 0.0191553 -0.00105945 0.0169185 -0.0845919 -0.087835 0.0253515 0.0201461 -0.071188 0.0310694 -0.0911683 -0.0376238 0.0597421 -0.0129506 0.0115014 0.0605812 -0.0657267 0.0102184 0.0785155 0.0662014 0.0670115 0.0932118 -0.0589285 0.107482 -0.106673 0.0709268 0.00521246 0.0242635 -0.0747705 0.120281 -0.0654573 0.00442656 0.0308553 -0.0485762 0.0292237 -0.0372683 0.0527854 -0.0314252 0.00308227 0.00927952 0.00411747 -0.11959 -0.0205618 0.0590522 -0.0402165 -0.106079 0.0745186 0.0192952 -0.0146751 -0.0294297 -0.0388055 -0.0778671 -0.0912387 0.00286158 0.0532304 -0.0500157 -0.0421402 0.0225144 0.00627736 -0.0693768 -0.124554 0.0120542 -0.0251071 0.0776616 -0.00401887 0.113528 0.0381134 -0.000590399 -0.0677828 -0.0400935 -0.0849713 -0.0225462 0.0285301 0.00290955 0.0132963 0.0056065 0.0707645 -0.0208783 0.00244966 0.0308343 -0.140242 0.0022483 0.0452408 0.0566106 0.0534868 0.0245785 0.010638 0.0430241 -0.137646 0.0774125 -0.073448 -0.0541144 0.0350439 -0.0406815 0.12312 0.0516177 0.00895022 -0.0690328 -0.020239 -0.0315438 0.0107316 0.00114721 0.00667493 -0.0397555 -0.02351 0.0364462 -0.0696156 0.0471197 -0.00395852 -0.0460115 -0.0175733 -0.0911557 0.0837044 0.045677 0.114413 0.0169571 -0.0211151 0.0232792 -0.141637 -0.00638832 0.0539644 -0.0132922 0.0586143 0.0155804 -0.0219758 -0.0279937 -0.0433268 -0.00753074 0.0276137 -0.0180155 0.12168 0.157091 -0.00176806 -0.110403 0.0226181 0.0602432 0.0102555 0.0400345 0.00429441 0.0476802 -0.0456448 -0.0651569 -0.044121 0.00219817 -0.0220468 -0.0323328 -0.0741064 0.0426916 0.0695999 0.00158545 -0.0540893 0.0492711 -0.0586243 -0.00694211 -0.00787969 0.0613964 -0.135325 -0.101008 -0.0739513 -0.177948 0.0271798 -0.00720395 -0.125952 0.0201705 -0.0935593 -0.0325084 0.0253588 0.0154116 -0.0819871 -0.0819748 -0.036802 -0.0533243 -0.0299435 -0.128783 0.00067778 0.0376499 -0.12464 -0.00253711 -0.0079767 -0.0110283 -0.0011321 0.0590181 0.0493004 -0.0479355 -0.00901215 0.0504034 0.000258029 -0.0280427 0.0317875 -0.0747136 -0.0121862 0.0549534 0.0138936 -0.048478 0.0724493 0.104271 0.0256214 0.00106421 0.00443619 0.0467287 -0.0372227 0.0555058 0.0373393 0.00662164 0.0422901 0.0532246 0.0527334 -0.0531984 0.0163446 -0.0355416 -0.0225442 -0.139128 -0.0730331 0.0965481 0.0726285 -0.108223 0.0146545 -0.0631269 -0.0532554 0.0470422 0.00238075 -0.010646 -0.0393686 0.02046 0.0963944 0.0485314 0.121021 -0.0628128 -0.027181 -0.0625789 0.0244609 0.00503329 -0.0111238 -0.0137154 0.0926268 0.0274049 -0.0944368 0.0183881 -0.0451223 0.00316515 0.0481407 -0.0301135 -0.122613 -0.0725464 -0.0280017 0.00265167 -0.0281205 -0.039267 -0.0451842 -0.0336895 -0.00986139 0.0946856 -0.00650094 -0.0640046 -0.0460515 -0.102711 0.0334227 0.0314791 0.0128356 -0.0370039 0.0393452 0.0254137 -0.0686649 0.0332438 0.138703 0.0620442 0.0399987 0.0518169 0.0113577 -0.024224 -0.054819 -0.0126843 -0.0530172 0.0223749 -0.0742198 -0.0299313 -0.0758132 -0.00485757 0.016389 0.0449937 0.0692817 -0.0347601 0.0455379 -0.0561649 -0.0126027
algorithm -0.136228 -0.122008 0.00817208 0.148196 -0.0709391 0.014449 0.0514806 0.0162105 -0.109402 0.0300892 -0.0248453 0.166185 0.015188 0.0332903 0.0562984 -0.0251683 -0.0272809 -0.0337927 0.165369 0.0192094 0.106971 -0.018122 -0.0306835 -0.00205328 -0.00152285 -0.121516 -0.0392707 0.0352311 0.0475253 0.0534656 -0.0336748 -0.0013261 0.126087 0.0235158 0.0636453 0.0649548 0.0388556 0.0996651 0.0863686 0.0378955 -0.0503147 -0.0394155 0.0260746 0.0137802 -0.047556 -0.0412723 0.0530895 0.113769 -0.118068 0.0275791 0.0385408 -0.0470671 -0.00967063 -0.058807 0.00973453 -0.0158413 0.00646566 -0.00331558 0.0603688 -0.0674649 -0.104926 0.0425852 -0.0479864 0.0462798 0.0158005 -0.0131835 -0.0678035 -0.0827318 0.0884852 0.0294215 0.0167911 0.022371 0.0599515 -0.00825265 -0.0796278 -0.00969366 -0.0441521 0.0996375 -0.0288075 -0.0787186 0.0276521 0.0225783 0.00993302 -0.0850691 0.0486521 -0.0656904 0.0897459 0.00628625 0.0774116 0.00642225 -0.063823 0.00520887 0.00132671 0.0413264 -0.00472095 0.00730498 0.11547 0.0368896 0.0253619 -0.00231581 0.0323287 -0.0180345 0.0168316 -0.0485053 0.0308915 0.0436549 -0.144503 0.0903506 -0.00385977 -0.00600946 0.0604065 0.0575369 -0.0184487 0.00567259 -0.00671718 0.0113983 0.0664218 -0.020505 0.0297447 -0.0213769 0.0253898 -0.0575519 0.00331466 -0.0847667 0.0889398 0.0675895 -0.0588646 -0.0145568 0.045536 -0.000763376 0.128644 -0.000483364 -0.0572124 0.00224471 -0.0627023 0.0251452 0.000374785 0.0756032 -0.0337436 0.0350797 -0.0756374 -0.0122664 -0.0050894 -0.0304156 -0.00808493 0.02356 0.0412745 0.0238727 0.0567313 -0.0444297 -0.000600838 0.0356184 -0.101756 0.056535 0.0362959 0.0462612 0.00557593 -0.100064 0.0234269 -0.0144744 0.0226333 -0.153736 -0.0392307 -0.0226857 -0.023652 -0.0719764 -0.0110366 0.0399959 -0.0223566 -0.0380062 0.0818758 0.00701509 0.0611515 -0.0271194 -0.100326 0.0764735 0.0544027 0.131756 -0.00190233 -0.0592589 -0.00713647 -0.0119187 -0.0373835 -0.108464 -0.0275915 0.0276462 -0.0539518 0.0117567 -0.0357011 -0.0308033 -0.0337085 0.124986 -0.0471956 -0.0825371 -0.0289459 -0.0323178 -0.0381846 -0.0570603 0.0199894 -3.50115e-05 0.0305909 0.0115906 -0.125321 -0.0362801 -0.0633468 -0.00977011 -0.061671 -0.0584579 -0.0310165 -0.0497696 -0.00719587 0.0501086 -0.0175635 0.0369835 -0.0109023 0.110344 -0.000512372 0.00969071 -0.0879718 0.0731246 0.0747856 0.0752994 0.0319661 -0.0541046 -0.0227101 -0.0281254 0.00578216 -0.0461614 -0.000585204 0.0429594 -0.119069 -0.0314194 -0.0328767 -0.079291 0.0809165 0.0196278 -0.0769795 0.0314392 -0.0243107 -0.0194043 0.0112398 0.0947883 -0.126824 0.0408978 0.0104676 0.108972 -0.021413 -0.0493836 0.0239677 -0.0193661 -0.0677845 -0.0608914 0.0613071 -0.101137 -0.0188613 0.0204412 0.00954185 -0.00110851 -0.0331476 -0.0472469 0.00469053 -0.00104746 -0.0519435 -0.0609074 -0.0272137 0.0646188 0.039297 -0.0226953 -0.0555409 -0.0891296 -0.0780632 -0.0259741 0.0297177 0.0299681 0.102451 -0.0553109 0.00366903 -0.0984074 0.0139968 -0.0160107 0.0459132 0.0593076 0.0603507 0.0311547 -0.0380661 0.0802754 0.0684747 0.0343936 -0.0110117 0.0422272 -0.0113583 -0.0182593 0.0368104 0.00880583 0.0983065 0.0593794 0.0431234 0.0617815 0.00683853 -0.131866
alt -0.0342756 0.0555614 0.0693712 0.0696795 -0.0664031 0.0792971 -0.00652168 0.00354455 -0.00554927 0.0122096 0.0340763 -0.0421292 0.0306363 -0.027745 0.0142614 -0.0707871 0.0222281 0.0120677 0.0234914 -0.0604293 -0.0321918 -0.0386986 -0.0709228 -0.05386 0.102676 0.0249032 0.0598506 0.07672 -0.0183637 -0.0617563 0.0391143 0.0419475 0.0377298 0.00196318 -0.0135406 -0.0291759 -0.0641904 -0.00079796 0.075579 0.00825212 -0.0305922 -0.0118268 -0.0280669 -0.0265057 0.0594607 0.0407963 -0.100776 0.046345 0.0920146 -0.038482 0.0409789 -0.0199236 0.10127 -0.0145296 -0.0573661 -0.0602894 -0.0612027 0.0439009 -0.0259371 -0.108596 -0.0798604 0.135188 -0.0863838 0.040956 -0.0629992 -0.0257964 0.0666107 -0.0669114 -0.00548466 0.072831 0.0189327 -0.00634234 0.0979468 -0.00688583 0.0254573 0.0500394 0.0872249 0.0941503 0.0249583 0.00206063 0.0335101 0.0488312 -0.0317411 0.0285854 0.0391658 0.017316 0.0899469 0.0893883 0.0315031 0.0639563 0.0531731 -0.0231182 0.00408836 -0.00755763 -0.0941815 -2.70859e-05 0.0187759 -0.0305871 0.0366137 -0.033765 -0.0510924 0.0272382 0.0666364 -0.10953 0.0123283 0.0332064 -0.0906219 0.0269492 0.00780099 0.0493866 0.00976953 0.0234531 0.0361844 -0.0555323 -0.108118 0.0311811 -0.0707458 0.148121 -0.0337214 -0.0389801 0.0720504 -0.0102143 -0.079272 0.0517242 0.0295609 -0.102363 -0.0791924 -0.0759895 0.0802604 0.0259796 -0.0728232 -0.0774933 -0.0802863 0.0172349 0.0225245 0.0378317 0.0413566 0.00622495 -0.0269983 -0.0314884 -0.0369794 -0.00104826 0.128684 -0.122335 -0.0357707 -0.00176306 0.175771 -0.0308107 -0.0759643 0.0557533 0.090683 -0.0062181 -0.0616676 0.0814179 -0.0407959 -0.0731227 0.0799566 -0.0139435 -0.028976 -0.0403651 -0.0265996 0.143931 -0.0184093 -0.0661046 0.0239732 -0.0696904 -0.0599746 -0.0720001 -0.11221 0.0122567 -0.0621554 0.0840439 0.03839 -0.0693555 -0.0478724 -0.081195 -0.0488492 0.020517 -0.0456441 -0.0138936 0.0443934 0.0707354 0.0340543 0.0169291 -0.0394917 -0.101869 -0.0105539 -0.00229801 0.0623037 -0.0558996 -0.0459173 0.00489586 -0.0553347 0.0104711 0.0240556 -0.0967455 -0.0286832 0.138661 0.0156208 0.0525537 -0.00158925 0.0410526 -0.00716712 -0.066432 -0.0860776 -0.0961954 0.0725277 0.0042232 0.0567865 -0.00613113 0.0230585 -0.0656985 -0.0180631 -0.024545 -0.00278743 0.0524978 -0.0629817 -0.0359433 0.0881681 -0.00317132 -0.0438966 0.0879427 -0.0384701 0.0339461 0.0152987 0.0373506 0.015267 0.0279085 0.0105202 -0.0146001 -0.0400228 0.00858073 -0.0664463 0.0620091 0.0207063 0.0852435 0.0737001 -0.0672255 -0.143996 -0.0297218 0.117966 0.0439272 0.0658844 0.062919 0.0794367 0.0231676 0.0880217 0.0118916 -0.0830661 0.0547049 0.0254138 -0.0110004 0.0927957 0.0375604 -0.022401 -0.0714288 0.0167225 -0.0511273 -0.0435732 0.0124737 0.078863 -0.0621339 -0.0171306 -0.0928227 -0.0545081 -0.0932888 0.0700612 -0.00311045 0.0346396 0.0698889 -0.0613176 0.00964167 0.0128658 0.0872677 0.0195616 -0.123541 -0.0513421 -0.0638247 -0.0103769 -0.0379686 0.0370733 0.14389 0.0378683 -0.00838704 0.0287162 0.0367292 0.068201 -0.0177006 0.0160787 0.027211 0.0460208 -0.041612 0.0280453 0.0090886 0.00994897 -0.0211417 0.00207763 -0.0188884 -0.0448478 -0.0524367
andrew -0.0152858 0.113234 -0.0272973 -0.117345 0.027222 0.0485897 0.0210491 -0.0834399 -0.0744706 0.0655721 0.00846735 -0.00134291 0.0522211 -0.0712338 0.0730912 -0.0259087 0.138323 -0.00508583 0.00656439 -0.0548033 -0.000158637 0.00164135 -0.0376638 -0.0775867 0.0990974 -0.0974399 0.0637478 0.135934 0.0529534 0.0181097 0.0624479 -0.00225353 0.00344286 -0.00196359 0.0857093 -0.055326 0.0300369 0.000818277 0.0633068 -0.119361 -0.0731144 -0.17137 -0.103334 -0.026875 0.0707816 0.00316391 0.0151491 -0.0350689 -0.00343218 -0.0015016 0.0894117 0.0999363 -0.0129977 0.000497548 0.0741241 -0.00736865 -0.0270509 0.0418706 0.0133324 0.0205413 -0.0846117 -0.013687 0.0408983 -0.00723549 0.0429603 0.0256819 -0.00721903 -0.038996 -0.00552353 0.0983949 -0.0538278 -0.0397442 0.131279 -0.0707155 0.0178602 0.0455374 0.0892149 0.170781 0.00713622 -0.0319823 0.0316078 0.102122 0.0251903 0.0459498 0.0505284 -0.0740049 -0.0283102 -0.0962678 0.0823937 0.109491 0.0661537 -0.00726841 0.0288793 0.0293422 -0.0072612 -0.014456 0.0318494 0.0137532 0.0478706 0.00384735 -0.0522671 -0.010323 0.0464343 0.0800647 0.0176956 -0.0305367 -0.0905756 0.0281284 0.00336303 0.0358775 0.0690012 0.070679 -0.0576353 -0.0217624 -0.0683668 0.0541828 0.0663785 0.0771178 -0.11933 0.0303381 0.0156063 -0.0541193 -0.0261612 -0.0309109 -0.0110078 0.0547675 -0.0189718 -0.0330874 0.0254804 -0.00689895 0.0245472 0.000928651 -0.151507 -0.023682 -0.000516417 -0.0375395 -0.0499567 0.00907684 0.00234435 0.0688725 0.0705533 -0.0410615 0.010177 -0.000924821 -0.063975 0.0421346 -0.0449873 0.0781389 -0.114215 -0.000141691 0.0471747 -0.0196245 -0.10614 0.0730161 0.0541779 0.0563719 0.0570886 0.0310272 -0.00831911 -0.117238 -0.0545098 0.0487486 0.0238413 0.111657 0.0521395 0.0573369 0.0396867 -0.0749717 0.0268038 0.0792779 0.047007 0.0606659 0.0278329 -0.0410103 0.0108268 0.0863918 -0.0291227 0.0720512 -0.0285828 -0.0578306 0.0544742 -0.0873833 -0.0173573 -0.100752 -0.169662 0.0339292 0.0391627 0.0127325 0.0183181 0.0284958 -0.0162062 0.0306523 -0.0305498 -0.0213595 0.0631692 -0.0468847 -0.0532156 -0.0430645 0.0105334 0.0126386 -0.0380277 -0.0585039 0.0167035 -0.0938049 0.00197019 -0.0238562 0.0772799 -0.0352875 0.0484778 -0.0346326 -0.0520542 -0.0603575 -0.151936 0.0427422 -0.100819 0.0565491 -0.0376846 -0.0754842 -0.00979678 0.0681987 -0.00400569 0.0412193 0.0194708 0.0352012 0.0842831 -0.0133303 -0.0490098 0.0159955 0.0492597 0.0111787 -0.0395016 0.0735129 -0.0854541 -0.0472318 0.0545089 0.00104965 -0.00513836 0.000668726 -0.0458567 -0.0436953 -0.00669281 0.0758181 -0.0566548 0.0223369 -0.0038154 0.072557 0.0142848 -0.0203849 0.0545326 0.00988055 -0.0456338 0.0691939 0.104505 -0.0334201 0.0146223 0.0915868 -0.0454119 0.0826673 -0.00706701 0.035313 -0.0246155 -0.079425 -0.0520261 -0.0606035 -0.0270085 0.0535888 0.0223107 -0.0150015 -0.108614 0.0746638 -0.0382866 -0.0415235 -0.0877739 -0.0137638 -0.00822126 0.0362855 -0.0810628 0.0758626 -0.0373852 0.014663 0.0925879 -0.0282599 0.00238119 -0.0776213 -0.052362 0.0765333 -0.0454378 0.0389813 0.0287004 0.0300039 0.00070158 -0.0543606 -0.0264956 -0.00487996 0.0155599 0.00911185 -0.010082 0.0668294 0.00613562 -0.0307425
andy 0.0139971 0.0662524 0.0148244 0.00670189 -0.0786175 0.0173916 0.00420888 -0.0323589 -0.0585913 0.0806039 0.011418 -0.0780346 0.0349239 -0.0618806 0.0975355 -0.0233707 0.0766207 -0.0255721 0.0398648 -0.0536046 -0.0401459 0.00555617 0.00693542 -0.084745 0.0674206 -0.127932 0.0244021 0.14038 0.0563052 0.091436 0.0749357 -0.0322743 -0.0509407 -0.0407342 0.0456625 -0.0413974 0.0657702 0.0105945 0.0916173 -0.0610006 0.0286489 -0.146356 -0.142558 -0.0968878 0.0145382 0.0248948 -0.047723 0.0413108 0.0373839 -0.0748466 0.0839565 0.0716078 -0.0791849 -0.0150818 -0.0679548 0.0474221 -0.0287893 -0.0239006 -0.0142925 0.0975745 -0.0617147 -0.0372951 0.0183116 -0.00920428 0.00372405 -0.0351722 -0.0235047 -0.126524 0.0174007 0.0946138 -0.0594146 -0.0487963 0.0117651 -0.0422959 -0.0348831 0.0890116 0.0626104 0.191466 -0.0329855 -0.0891745 0.00507244 0.0349783 0.0133928 -0.00992615 0.0290284 -0.0906819 -0.0263569 -0.057042 -0.0204022 0.0164796 0.0263215 0.0360923 -0.0244442 0.0265035 -0.00157138 -0.0382115 0.0212303 -0.0874655 -0.0147432 0.0237977 0.0212798 0.0344855 0.0544818 0.0909763 0.0361576 0.0871722 -0.128293 -0.0536108 0.0755484 -0.0517351 0.0122386 0.0397568 -0.0648472 -0.0662549 0.0170677 0.0473021 0.00940803 0.00356684 -0.0752448 -0.0131268 0.0308929 -0.0373476 -0.0153324 -0.0820909 -0.00787424 0.0464038 0.0190943 0.0537154 0.111728 -0.0189632 0.0546908 0.0474901 -0.0271804 0.0576216 0.0413404 -0.0481777 -0.0115507 0.0416252 -0.0185061 0.041351 -0.0257868 0.00270448 0.0772346 -0.00690669 -0.144555 0.0728804 0.0353825 0.0480431 -0.110433 0.0471356 0.0290664 -0.00475961 -0.0126544 0.0604007 0.0237414 0.059307 0.0455948 -0.0195194 -0.00713329 -0.0792031 -0.00614424 0.0192125 0.0818354 0.0178057 0.0419937 0.0138761 0.00589547 -0.133888 0.00171196 -0.0271561 0.111343 0.110146 -0.0403898 -0.00634814 0.00010542 0.00177477 -0.0252755 0.081071 -0.0248924 -0.0206757 0.0658683 -0.0252971 0.022809 -0.0519752 -0.0820926 0.078454 0.0357726 0.0498984 0.0435204 0.0709094 -0.0688821 0.0499551 -0.0540738 0.0382419 0.00349992 -0.00757421 -0.0414513 -0.0447182 0.0458411 0.0236298 -0.0461219 -0.0934856 0.00837771 0.0283443 0.0495232 -0.0207696 0.0166279 -0.071078 -0.0176252 0.0716539 -0.0252162 -0.0128013 -0.127803 0.00827497 -0.111458 0.0109465 0.0854581 -0.0462342 0.0723235 0.022496 0.0937015 0.0202067 -0.00685443 0.014588 0.0695519 -0.0448207 0.0557182 0.0517482 -0.0176912 0.00174682 -0.0513246 0.021294 -0.05792 -0.0797019 0.00385643 0.0368287 -0.0155581 -0.0554688 -0.0823918 0.0537905 0.00765368 0.0743038 -0.153288 0.0614682 0.0235984 0.0107579 -0.0122994 0.00282716 0.0772899 -0.0147232 -0.0340931 0.0225275 0.0581737 0.00182627 0.0460599 -0.00483762 -0.101679 0.0277553 0.0523251 0.0358752 0.00898815 -0.0596112 -0.0441913 -0.132175 -0.0694527 0.0783522 0.0428088 0.0134181 -0.0871607 -0.0029309 -0.108299 0.0246921 -0.0791187 0.0994587 -0.0684355 0.0544116 -0.00921469 0.0257852 -0.048062 -1.18094e-05 0.0740205 0.0155785 0.0972938 -0.0865192 -0.0566842 0.0845598 -0.0306621 -0.0633713 0.0100626 -0.0121027 -0.00558871 -0.0345452 -0.0394043 0.0757983 0.0683216 0.0450836 -0.0702048 0.0554239 -0.0591666 0.00135434
angmar -0.0516538 -0.0551028 -0.101701 0.0117483 0.00802518 -0.0271304 0.0139368 0.023006 -0.0216901 0.0270311 0.0132809 0.0798393 0.00485832 0.077421 -0.0761541 -0.029791 0.0379819 0.0342284 -0.0502828 -0.0889628 0.0616662 -0.0204835 0.0369946 -0.0215798 0.0159668 -0.137896 -0.0381285 0.0233783 0.0878713 -0.0154892 0.075728 -0.0693941 0.00246377 -0.0387459 0.000138643 -0.0887609 -0.0180893 0.0220172 0.0880784 -0.037919 -0.0580335 -0.121182 -0.040349 0.0405475 -0.0815833 -0.0168796 0.0520925 0.0169173 0.00102469 -0.041106 -0.0271776 0.0339392 -0.150945 0.0375248 -0.015322 -0.0451912 -0.097159 0.0605124 -0.104967 0.0245994 -0.113268 0.015532 -0.0676668 -0.0579392 -0.00696445 -0.0267558 -0.0712397 -0.01352 0.0163642 0.0275688 -0.00432544 -0.043004 -0.00790552 0.0448505 -0.0752527 0.00183797 -0.0856079 -0.0433767 9.2585e-05 0.00215383 0.0146786 -0.00309619 0.0820454 -0.0117522 0.108137 0.0296032 -0.0177376 -0.0444444 -0.0733459 -0.117791 -0.0625553 -0.0209585 -0.0400081 0.00723973 0.011813 -0.0349439 0.0334131 0.103326 0.0108914 0.0627455 0.0893009 0.0592423 -0.00907385 -0.0962862 0.0222543 0.0723854 0.0348787 0.0437046 0.0475484 0.0878813 0.0471714 0.0184316 0.0558247 -0.00865295 -0.042287 -0.00601432 -0.0126168 0.0318036 0.0437665 -0.0185423 0.0531344 0.0252276 0.00761278 -0.00167835 0.0150195 -0.100874 -0.108489 0.013702 0.0668927 0.156363 -0.0449505 -0.0299804 0.00272511 -0.0244914 -0.0107887 -0.0898994 0.0438407 0.106372 -0.104671 0.13397 0.0256818 -0.0622285 0.0211184 -0.072417 0.0819624 0.0461437 0.0726008 0.00823973 -0.0506652 0.11123 -0.066837 0.0167685 -0.000190334 0.0465456 -0.0187674 -0.0702192 -0.100499 0.0400303 0.0169566 -0.0108506 -0.0518836 -0.0682432 0.0232772 0.0291006 -0.0607052 0.077731 0.0203194 -0.0520144 -0.0138152 0.0202222 0.0903713 -0.0644801 0.00608194 -0.0839352 -0.0212273 0.123188 -0.0383952 -0.0149499 0.0435739 -0.0775755 -0.0602412 -0.168213 0.0268933 -0.108046 -0.0461844 0.0435061 0.0115503 -0.0183794 -0.0722092 0.0496857 0.12288 -0.0721252 0.012389 0.0449751 -0.00475565 0.0265481 -0.0228278 -0.107087 -0.0294035 0.0681469 0.0389722 -0.0663087 0.0143089 -0.0596464 0.0573196 -0.0626736 0.0388776 0.0415944 -0.0259595 -0.104879 -0.00570563 0.0518449 -0.0102452 -0.0899717 0.0159165 -0.0495987 0.00141744 -0.0271667 0.0592865 -0.0360199 0.122314 0.0426452 -0.0487314 0.0236013 -0.0337986 -0.0333339 -0.034395 0.0726312 0.107179 0.0729646 -0.127603 -0.0272878 0.00149906 -0.0606873 0.111144 -0.0950616 0.0727141 -0.00587782 0.0501778 0.0273634 0.0159692 0.06654 -0.0198631 0.0986666 0.0106662 -0.0344609 0.0505941 -0.00222969 0.0073254 0.0143094 -0.0110417 0.0122013 0.0652858 -0.0171452 -0.120673 0.025622 0.022836 -0.00336903 -0.0559328 -0.0307168 -0.00502406 -0.0196096 -0.00538035 -0.085892 0.0394607 0.0720928 0.0436246 0.0180676 0.00909421 0.128281 -0.00785498 0.0149415 0.0524698 0.0637628 0.00464488 -0.00163769 0.0213986 0.0247875 -0.0376758 0.00388525 -0.0123009 0.0875407 0.11215 -0.000623064 -0.0430716 0.041741 -0.0555226 -0.116951 0.0250228 0.0104929 -0.0450716 -0.0313123 -0.0291198 -0.0460761 0.0680238 0.0109277 0.076088 0.0403403 0.0431547 -0.0646304
animation -0.0356461 -0.130218 -0.00197677 0.0024572 -0.0409675 -0.0418534 -0.0361528 -0.049615 -0.00621528 -0.0117465 -0.131541 0.0252094 0.0445482 -0.0290299 0.00543616 0.00714249 0.0169522 0.000922203 0.0633655 -0.012062 -0.028427 0.0557945 -0.050743 -0.0357756 0.132425 0.00180004 0.0410545 0.152359 0.0353384 0.087316 -0.025949 -0.0509862 0.067266 0.0680062 0.082178 -0.0715745 0.0799528 -0.0711911 0.0959012 -0.0380122 -0.0161155 -0.0364524 -0.0357444 -0.0151377 -0.0370991 0.0134285 -0.0216625 -0.00466358 -0.0602113 -0.0500327 -0.0578898 0.0462782 -0.0521375 -0.0159488 -0.0250814 -0.031725 0.0533178 -0.0336996 0.0616788 -0.0615026 0.0238473 0.0367136 -0.10272 0.0690188 0.156796 -0.0703289 -0.0854521 -0.00346728 0.00863007 -0.00900438 0.0150435 -0.0209898 0.0320114 0.0422247 0.0232774 -0.00344024 0.0585195 -0.0288507 -0.0366185 0.01697 0.0734761 0.0838292 0.0538345 -0.0450469 0.0350789 -0.104886 0.10999 0.0873162 -0.025673 0.0513609 -0.0574425 -0.00851681 0.0440462 0.0447851 0.042541 -0.126126 0.0506054 -0.0539039 -0.0231559 -0.0215667 -0.0186666 0.0389635 0.0223904 -0.0463802 0.0661154 0.137053 -0.0194774 0.0366227 0.00755787 0.0825895 0.0446407 0.0782744 0.0918132 -0.0368761 0.0597231 -0.00246543 0.0847962 0.0568301 -0.00342204 -0.0973938 0.0157809 -0.00475911 -0.0321638 0.0119735 -0.0555605 0.0528259 -0.0754309 -0.0522821 0.0493037 -0.0170263 -0.0184627 -0.00835751 0.00114446 0.0205252 0.0029502 0.0258347 0.0252551 0.035666 0.00367101 0.0444515 -0.103812 0.0224468 0.0238104 -0.0349376 -0.0883405 0.0599966 -0.0489588 0.0479912 -0.0851407 0.0338792 0.0483457 -0.00212152 -0.126817 0.00416488 0.0513765 -0.0513248 0.0215867 0.0500839 -0.0237386 -0.131963 -0.0559756 0.00601882 0.0323021 0.00392903 -0.0100398 -0.0906173 -0.0275428 -0.116759 0.100724 -0.0117122 -0.00345438 0.0208553 -0.0544578 -0.00272028 -0.10694 0.10365 -0.0816583 0.0267768 -0.0825761 -0.113551 -0.000213179 -0.00920829 0.0423234 0.00449369 0.00333824 0.0812578 0.0856953 -0.00453765 0.0499258 -0.0789279 0.0472927 0.0388441 -0.00561652 0.0205705 0.0795595 0.0447755 0.0199995 0.0489363 0.015441 -0.00363541 0.0945596 -0.122285 0.0433378 -0.0591944 -0.0759355 -0.10581 0.0418443 -0.0424573 -0.0337933 -0.00575302 0.0122295 0.0847485 0.00388564 0.0554274 0.172371 0.00554852 0.00762412 -0.00294932 0.0127826 0.00781107 0.0106811 -0.00356773 -0.00921224 -0.0381969 0.0103473 -0.0326751 -0.00271404 -0.00697696 -0.0734579 0.0417393 -0.0102053 -0.0350623 -0.00479238 -0.0574868 0.0187132 0.0483405 0.0458556 0.0310248 0.0330639 -0.139674 0.0422153 -0.039428 -0.0606673 0.154922 0.00837299 0.051239 0.0562816 0.0508057 -0.0437702 -0.0770167 -0.0464532 -0.0268177 -0.0257077 -0.105656 -0.0227095 -0.0387508 -0.0432076 -0.195994 -0.0486165 0.0576931 0.00426385 -0.0556186 -0.0759314 0.0145229 -0.0544194 0.104463 0.0152948 0.00294282 0.0140609 0.0446646 -0.101822 0.0136609 0.0515497 0.024694 -0.0830578 -0.0474284 0.0086617 0.00596981 -0.0595034 -0.0669985 -0.0528928 0.00821466 -0.0118611 0.034591 -0.00816562 -0.0126303 0.0151768 -0.0257407 -0.00564078 0.0538951 -0.0315131 -0.106476 -0.0128446 0.0235874 0.0431153 0.152525 -0.0219187 0.021013 0.0340921 -0.032148
anonymous -0.0340957 -0.105911 -0.0700832 -0.12461 -0.0423744 -0.0142136 0.0677094 -0.0121848 -0.0365113 -0.00412179 -0.106875 0.11022 0.000131024 -0.00858707 0.00737406 -0.00565347 0.0745195 0.0499887 0.0148463 0.0973194 -0.026189 0.0246614 -0.0337738 -0.0154743 0.110006 -0.0830021 -0.0188669 -0.0161 0.0290596 0.0375678 0.0960097 -0.0483863 0.0945897 -0.101243 -0.0293053 0.051489 0.0291243 -0.0549896 0.0151084 -0.00246092 -0.0593115 -0.129044 -0.097294 -0.0258154 0.0726429 -0.03429 0.0418236 0.0202104 -0.0738473 -0.0117985 0.0321231 0.0421103 -0.00564272 0.0231999 -0.0612734 0.00411042 -0.104044 -0.0249206 -0.0808182 -0.0563788 0.0114814 0.161254 -0.00264305 0.0243117 -0.0494298 0.0715675 -0.0604571 -0.0764604 0.0208853 0.11644 -0.00585766 -0.00798243 0.0533387 -0.121558 -0.0557433 -0.0444633 -0.00107677 0.0313903 0.0147981 -0.057162 -0.0489279 0.0590868 -0.105834 0.0379995 0.0148366 0.0313327 0.0147033 -0.0159933 0.0946285 0.0426035 -0.0997159 -0.0165906 -0.0995304 0.0778618 -0.0372172 0.0333445 0.0213105 0.0172418 0.012082 0.012161 -0.0627792 0.0974505 0.0818368 -0.039224 0.0601771 0.0279471 -0.0645582 -0.0254052 0.0584661 0.0312007 -0.00700819 0.0386237 -0.0201569 -0.0241968 0.0365204 0.0562456 0.0189644 -0.0784361 -0.0307703 -0.0372227 -0.0494564 -0.0282921 -0.0901317 -0.00400125 0.019027 0.042729 0.0568364 -0.102269 -0.0167175 -0.00880937 -0.04602 0.135941 -0.0237461 -0.00499403 0.0847856 -0.0490211 -0.0199374 0.0202991 -0.0111044 -0.0114414 -0.0456627 0.0947528 -0.0452311 -0.0296448 0.0877798 -0.114191 0.0366057 0.0314919 -0.119223 0.019174 -0.0263705 0.0279706 -0.0438267 0.0132272 0.103396 0.0577578 -0.0162913 -0.0915426 0.066675 0.00294899 -0.0384096 -0.0859339 0.0634122 0.0797053 0.0795824 -0.00389609 -0.141967 -0.0391694 0.0613477 0.0632253 0.0606125 0.0116454 -0.0454813 0.0916587 -0.00318337 0.00517711 -0.0518145 0.0744997 -0.0476225 -0.040914 -0.103085 -0.091895 -0.0309933 -0.00515914 -0.0571122 -0.018656 0.0718244 0.0220777 -0.00903087 -0.0454277 -0.0507166 -0.0102204 0.0416464 -0.051413 -0.0685254 -0.00853864 0.00395847 0.034684 -0.0934696 0.0132815 0.0756288 0.00155816 0.036821 -0.0222644 0.101531 -0.0164299 -0.0533647 -0.00559293 0.0336888 0.0187699 -0.0229616 -0.00914332 -0.0702521 -0.0322347 0.0137304 0.0313256 0.0017971 0.0443959 0.0553681 -0.029044 -0.00699678 -0.0233365 0.0697778 0.0625343 0.110194 -0.0313439 -0.0194071 -0.0685702 0.0270887 -0.038347 -0.0333308 0.0258252 -0.0856849 -0.0669231 0.0212525 0.0427142 0.0785 -0.026446 -0.0493977 0.0350546 0.0274133 0.018666 0.0879858 -0.0304499 0.00886806 -0.0363006 0.00989684 0.0284876 -0.0102451 0.00269922 -0.0347039 -0.0923443 0.0649935 -0.0239655 -0.0145211 0.00126709 -0.0278774 0.00453103 0.0452628 -0.107822 0.0516419 0.125781 -0.0556893 -0.093916 -0.0265985 0.128458 0.0673366 0.0292112 0.00385673 0.0784668 -0.0434244 -0.00419893 0.0147871 0.0282613 0.0248805 0.0973494 0.0161653 0.0154863 -0.0666563 -0.0700056 0.0789609 0.0335384 0.0207279 -0.0859367 -0.0149244 0.063643 -0.0554763 -0.0296887 -0.0183627 -0.0121431 0.0831629 -0.109751 -0.0588536 0.12223 0.0537108 -0.0807917 -0.0930974 0.0953815 0.0125854 -0.0620993
answer -0.121862 -0.116522 -0.102464 0.0178979 -0.0798126 -0.0169124 0.0428347 0.0797628 -0.113099 0.038783 -0.00605632 0.091235 0.0104595 0.0282716 0.077335 0.0125636 0.132053 0.00962986 -0.041621 -0.0242348 -0.0192369 -0.0083627 0.0381587 -0.0964837 0.0978055 -0.0608087 -0.0703875 0.0708219 0.0620072 0.0440002 -0.0503354 0.00594081 0.042147 -0.0147235 -0.0350751 0.00978298 -0.00583974 -0.0783594 0.0118082 -0.0288861 0.0562088 -0.00906101 -0.115591 0.0407248 0.051589 -0.0778018 -0.093647 0.065687 -0.100162 0.0642935 -0.00129483 -0.0485998 -0.0405721 0.0149806 -0.0688863 -0.0640768 0.00326731 0.0210048 -0.00495171 -0.0625265 -0.133276 0.202829 -0.083039 0.0869496 0.0211847 0.12929 -0.0513775 -0.0885078 0.0794592 0.105922 -0.041643 -0.0361065 0.0857513 -0.166131 -0.0134284 0.117152 0.0779847 0.000103364 -0.00359635 -0.074182 0.0346677 0.0976055 0.00659994 0.00717695 0.0806119 -0.0777433 0.0771514 0.0252043 -0.00133684 -1.93018e-05 -0.0839867 0.0927091 -0.0533614 0.020045 -0.0284304 -0.0507892 0.0467904 0.0436605 -0.0632314 -0.0555358 -0.0278474 0.12063 0.0450466 -0.0595773 0.116625 0.0268746 -0.101382 0.0106905 -0.016994 -0.0235446 0.023071 0.0461985 -0.0305873 -0.133221 -0.0364967 0.0565554 0.0124161 0.012301 0.0121523 0.0220006 0.0590485 -0.00366546 -0.0708018 0.0594604 -0.025625 0.0665509 0.00370765 -0.0859941 -0.0189157 -0.0174654 0.025068 0.0435531 -0.0871672 -0.0563718 0.0768972 0.0436242 0.0675107 0.0189948 0.02458 0.00269738 -0.0650136 -0.0179863 0.0264911 0.0499136 0.0023377 -0.0471078 0.0102283 0.033342 0.0440897 0.0238867 -0.00894632 -0.0233221 0.0402611 0.0200098 -0.0261735 0.047016 0.0484196 -0.0361512 0.00121751 0.0458414 0.0645932 -0.11003 -0.0540377 0.0672432 0.0731604 -0.013007 0.0469098 -0.0148638 0.0240906 0.00479621 0.0188989 -0.134463 -0.0285005 -0.0236593 -0.0460517 -0.0276774 0.00529934 0.00671875 -0.0801922 0.0452543 0.00337806 -0.0530724 0.0421364 0.0240863 0.0163804 -0.0309356 0.0276286 -0.0159501 0.0101266 0.0158355 0.0690904 0.00730613 -0.0425247 0.0289873 -0.0418435 0.052877 -0.0523219 0.00706055 -0.0275851 0.0768976 -0.0178886 0.021649 0.0220329 -0.0509491 -0.0343918 -0.0447576 0.00967794 0.0203627 -0.0342434 -0.0582645 -0.0872504 -0.0175992 -0.092161 -0.07881 -0.067784 0.0211481 0.0823186 0.00668634 0.0111495 0.167005 0.0919817 0.0795241 0.0316038 -0.0120067 -0.0445317 -0.0223929 0.0272388 -0.0278564 -0.0123934 -0.00934736 -0.0202476 -0.0322701 -0.0751604 0.0301273 0.0788855 -0.00173722 -0.00158405 -0.000910804 -0.0149542 0.00386012 0.127923 -0.0359909 -0.00728761 0.0275188 -0.00648292 0.0181765 -0.00443602 -0.0650803 -0.0163776 0.0124285 0.0103363 -0.00203318 0.167966 -0.0152991 -0.0266786 0.0688651 0.094353 -0.0764529 0.0843888 -0.0473481 0.0762662 0.0572593 -0.0755086 -0.0637951 0.0183025 0.0515622 -0.0422974 0.0313264 0.0588657 0.0391137 0.0447354 0.0182372 -0.0472987 0.0287423 0.056292 -0.0153682 0.0483737 -0.0199266 -0.0189542 -0.00530719 -0.0118914 -0.00916403 -0.0581213 -0.118908 -0.0337449 0.0861227 0.0165095 -0.0506936 -0.00276374 -0.0412289 -0.0145669 -0.0202295 -0.0130614 0.083697 0.0419189 0.0607804 0.0146432 0.0447027 -0.0161468 -0.0631926
apparently -0.0517787 -0.0860044 -0.0515308 -0.0530971 -0.0796432 0.0920107 0.00491377 0.097391 -0.106831 0.0693804 -0.0499952 0.120069 0.0183466 0.0427231 0.0286736 -0.0705984 0.0607305 -0.0719486 0.00564392 -0.0102725 -0.133188 -0.00266234 0.0103909 -0.0413013 0.0511088 -0.0490615 -0.0710893 0.0592102 0.066302 0.0102058 0.0895504 -0.0188949 0.0486999 -0.0198139 0.00632722 -0.0334429 0.00264732 -0.0641865 0.118023 -0.0262093 -0.00585636 -0.0866514 -0.148577 0.00129284 0.145037 -0.0625394 -0.00836805 -0.0205873 -0.0565217 -0.0828487 0.0377066 -0.0595459 0.0183157 0.000760363 -0.104768 -0.00597259 -0.0545802 -0.0862947 0.0312028 -0.0382584 -0.154145 0.118106 -0.0388708 -0.0399294 0.0439578 0.0761417 -0.0787275 -0.0235185 0.0367578 0.0155858 -0.0943548 -0.0281401 0.119152 -0.0817647 -0.00810543 0.0221212 0.0420751 0.034614 -0.0566996 -0.0786044 0.0172555 0.10676 -0.0269102 0.0134551 0.0511861 -0.00884792 -0.00602998 0.0609734 -0.038503 -0.0734872 -0.064948 0.0266303 -0.0940128 -0.0302116 0.0281622 0.0537414 0.0550583 -0.067418 -0.089745 -0.0868346 -0.0521674 0.0227169 0.0529277 -0.0168988 0.0847229 0.0520087 -0.0345882 0.0265998 -0.0140431 0.0606448 0.0355268 0.0417907 0.0064907 -0.0360681 0.0751097 0.0861593 0.0225378 0.0308064 -0.0107251 0.0114428 0.0137771 -0.00130557 -0.0525621 0.0205391 -0.0180528 -0.0389381 -0.00928675 -0.043561 -0.0499827 0.0217892 -0.0585044 0.0726064 -0.0694659 0.0320098 0.118801 0.0139425 0.0190437 -0.00584206 0.0320672 0.0941649 -0.0430625 0.0459399 -0.0145427 -0.119189 0.0510443 -0.0123046 -0.0572572 -0.0306311 -0.116654 0.0783759 0.0289813 -0.0253772 0.0165619 0.00845797 0.0633 0.0440732 0.0556919 -0.0640466 0.0167192 -0.0464409 0.0357026 -0.0350406 0.0378239 -0.00383232 0.0301218 0.0640095 -0.106585 -0.00119424 -0.0108425 -0.0836403 0.0339433 0.0537896 -0.0283139 0.0529609 -0.0489056 0.0476315 -0.0803183 -0.0358442 -0.0390758 -0.0490917 -0.0649562 -0.0819915 0.0493126 -0.0568687 -0.114006 0.054261 0.00123625 0.0176667 -0.015452 -0.0210153 -0.0336174 -0.0208411 0.0127196 -0.0253476 -0.0282644 0.0489471 0.043158 -0.0319441 0.00762573 0.0405539 -0.0377172 0.0680169 0.1246 -0.0260813 -0.0236364 -0.02971 0.0108638 0.0655811 -0.0465084 0.0484807 -0.044085 -0.0110246 -0.052785 0.0648936 0.0558939 -0.0130389 0.0259614 -0.0486095 -0.028137 0.0137849 0.0867265 -0.0508984 0.0450405 0.0135741 0.0101054 0.0018812 -0.0214862 -0.0545589 0.0659525 0.055671 -0.0283638 -0.0065173 -0.0462653 -0.00923475 0.00327377 0.0525413 0.0573881 0.0130623 -0.0503777 -0.0277719 0.0672657 0.0493965 -0.0833768 0.0438779 -0.0590921 -0.00114431 -0.0239736 -0.0486974 -0.103087 -0.025161 -0.0467638 0.00111218 0.198387 -0.0284174 -0.0729505 0.0669528 0.0107485 0.01952 -0.0168678 0.0619965 0.125623 0.0190508 0.00269409 -0.106145 -0.00798874 -0.0203205 0.0413132 -0.0661659 0.0801587 0.0263515 -0.0346977 0.0580918 -0.00545867 0.133369 0.00165125 -0.0135747 0.0464378 0.0250646 -0.0257385 -0.0373746 -0.0154363 -0.015153 -0.016246 -0.0630398 -0.0586589 0.12065 -0.0603403 -0.0543069 0.0219317 -0.111562 0.0281232 -0.0984669 0.00543251 0.0533207 0.078345 0.0905618 -0.0580194 0.109422 -0.00625473 -0.0452126
appears -0.00764437 -0.0757616 0.0145217 -0.0352971 -0.12358 0.0334897 -0.0708825 0.0261384 -0.0596606 0.0574929 -0.115885 0.0727962 -0.0909394 0.0873903 -0.000190705 -0.0930665 0.103753 -0.055098 0.0191387 -0.00188485 -0.0797408 -0.0295216 0.00313358 0.028804 0.116462 0.018391 -0.0917532 0.014022 0.0903981 0.0180153 0.104143 0.0173529 0.0344602 -0.0567217 0.0726387 -0.097389 -0.0386995 -0.026006 0.107101 -0.0629652 0.0300834 -0.0485759 -0.0919075 0.0149895 0.079682 -0.0480958 -0.0523557 0.0180979 -0.0502362 -0.112944 -0.0355032 -0.106567 -0.0313957 0.0734841 -0.0420718 -0.096086 0.0344318 -0.0400888 0.0465223 -0.0325092 -0.0779848 0.0589039 -0.0842037 -0.0913248 0.00793103 0.0905692 0.0371099 -0.0794574 0.110827 0.0880737 -0.00179694 -0.0905599 0.0306498 0.0415816 -0.031558 0.0328586 0.113541 0.0209877 -0.045344 0.00334707 0.00608667 0.0230263 -0.0302199 -0.0681532 -0.015781 -0.0250613 -0.0675164 0.0705016 0.0158098 -0.0391863 -0.0413993 0.0206181 -0.0822237 -0.000535188 -0.0443285 -0.056835 0.058364 -0.0715752 -0.0484773 -0.00474126 -0.0279959 0.107661 0.119951 -0.092855 1.50595e-06 0.0535786 -0.0866106 0.00555647 0.0430065 0.103251 -0.0317736 0.170784 0.0692297 -0.130867 -0.00387427 -0.00909729 0.012658 0.0776876 -0.0251558 -0.0569574 0.00798358 -0.0165814 0.0667918 0.0367485 -0.0250276 -0.0397725 0.0830141 -0.024947 -0.00139084 0.0574327 -0.0181445 -0.0576569 -0.069943 0.0199697 0.057075 -0.0604115 -0.000359636 0.0363584 -0.0380361 0.00395659 -0.0583884 0.0860003 0.0254039 -0.0658926 0.0824072 -0.0392556 0.0543882 -0.015201 -0.115156 0.035061 0.0048397 -0.0565262 -0.0515903 -0.0472463 0.0337039 0.0432068 0.0629781 -0.023459 0.0221723 -0.0606557 0.0374878 -0.00353856 0.0425001 0.044652 0.0130319 -0.043276 0.0278734 -0.06085 -0.058708 -0.0144627 0.064353 0.121921 -0.0205423 0.00449585 -0.0814073 -0.0683808 -0.0230336 0.0242653 -0.102379 0.0247549 0.0866404 -0.0609182 0.0276568 -0.0560614 -0.00784277 0.0602759 -0.0146198 -0.0694213 0.0451229 -0.058878 -0.0458843 -0.0123795 -0.0448728 0.0579452 -0.0119396 -0.0247254 0.0535288 -0.0399457 -0.00106541 0.0980085 -0.0297341 0.00949216 0.0862877 -0.00369954 -0.0617878 -0.104269 -0.0328508 0.0230952 0.0134939 0.0370225 -0.0177836 0.0181033 -0.111881 0.0399988 0.0796973 -0.0633795 0.0104347 0.0328714 -0.0496566 0.0796684 0.0385821 -0.0330459 0.0287046 0.00671593 -0.0544731 -0.0469867 -0.0749808 -0.0331712 0.0169063 0.0585834 -0.0678554 -0.0158605 -0.0352218 -0.0120101 0.0808786 0.0474203 0.0164156 0.0248391 -0.0260305 -0.0100376 0.0721304 0.0450724 -0.0119006 0.0620883 -0.0538996 -0.0572296 -0.015094 0.0647634 0.00125238 -0.0470151 0.0275223 0.0904693 0.198526 -0.0214373 0.0576584 0.0343523 -0.00730761 0.00110518 0.0243771 0.00692454 0.00276461 -0.0605377 0.00240653 -0.0867017 -0.00287463 0.0319456 0.049412 -0.0748544 0.0160401 0.0621884 -0.0799588 0.0422131 -0.0562051 0.024753 0.0140456 -0.069356 0.00386391 0.0214264 -0.0557707 0.0399571 0.053408 -0.0374243 -0.0900171 -0.0247091 0.0797984 0.0947079 0.0183781 -0.039359 -0.00773091 -0.0118907 0.0308023 -0.0817734 -0.00694787 -0.0603024 0.0433065 0.0546875 -0.0317522 0.109137 0.0128013 -0.0109796
apple -0.0829455 -0.0715787 0.00740937 -0.103657 -0.058211 -0.0232462 0.000651644 -0.0667047 -0.0746123 0.0103712 0.0341372 -0.086506 0.0255975 0.0140404 0.0863396 0.00675447 0.111542 0.0163843 -0.0243865 0.0191356 0.00737468 0.0232055 -0.0947724 0.000251909 -0.00308532 0.0475832 0.0232094 0.129715 0.0312298 0.0658509 0.0763458 -0.106232 0.0589143 0.0209643 -0.0288225 0.00944454 0.0524862 -0.0445937 0.14035 -0.0205628 -0.0347441 0.0132462 -0.151376 -0.0715896 0.100938 -0.0248595 0.0181758 0.0413805 0.0455588 -0.00309399 -0.0335118 0.0603269 0.0309896 0.0413395 -0.107468 -0.00369049 -0.147028 0.113764 -0.0180077 0.0141137 -0.0257538 0.0735393 -0.117581 -0.0335401 0.068226 0.035942 -0.0282026 -0.00255614 0.098324 0.0529623 0.015537 0.00730073 0.143347 0.136479 -0.096986 -0.0192739 0.0327625 0.00164154 -0.00182449 0.0397644 0.0412345 0.0647378 0.0221593 0.0319048 0.0824788 -0.165307 -0.00344019 -0.0545361 -0.0395314 0.0222723 -0.0717072 0.0536853 0.0260446 -0.018493 -0.070179 -0.0299056 0.0900941 0.0266828 0.0031222 0.0299356 0.0977941 -0.0342507 0.0294252 -0.0800433 0.0109134 0.0757075 -0.0249006 -0.0870903 -0.0207298 0.120879 0.0343302 -0.00753105 0.0447707 -0.0150717 0.00101406 -0.0143097 -0.0457696 0.00952271 0.0337797 0.0362911 0.0159134 0.00371224 0.000471212 0.000404765 0.0695657 0.0202532 -0.0327276 -0.0615647 0.0426861 -0.0303249 0.073999 0.0624805 -0.00908464 -0.0231363 -0.03128 0.049679 -0.0365938 -0.0691598 -0.0332306 0.0439898 -0.0240899 -0.0196408 0.02135 -0.0517823 -0.021084 0.0611696 -0.0394624 0.0995656 9.27016e-05 0.133334 0.0185462 -0.031846 -0.00535437 0.0419168 0.125326 -0.0202031 -0.0388055 0.00680472 0.053171 -0.0271738 0.0534085 -0.10208 0.0815029 0.0407942 -0.0139978 0.0664979 0.00553762 -0.0932701 0.0472098 -0.0135808 0.0944652 -0.035635 0.0247161 -0.01874 -0.178543 0.0683602 0.0670133 0.107993 -0.0426521 -0.0923794 0.0304397 0.0668436 0.034524 -0.0951762 -0.0427573 0.012367 0.0430315 0.0985398 -0.0944309 0.0362415 0.0138276 -0.000660746 0.071762 -0.0027828 -0.00548991 0.00319914 -0.00282699 0.0279252 -0.0992683 -0.000282543 0.0436029 -0.0968322 -0.0393729 -0.0220461 -0.0428183 -0.0491435 0.0521045 0.0325578 0.0363923 0.0575614 0.0928117 0.0239388 -0.000266234 0.048236 0.0482834 0.0204643 0.0400811 0.0414702 0.0205308 0.0285598 -0.0162334 -0.0281198 0.0513736 -0.0065624 0.0470909 0.0680933 -0.0236324 -0.00854218 -0.0339075 0.0185437 -0.0535379 -0.0407255 -0.086163 -0.000688011 0.089592 0.0190648 -0.0474035 -0.0745384 -0.0593199 0.0729963 0.00378015 -0.0267368 -0.0704119 -0.0237902 0.00727842 -0.0379422 0.0237223 -0.0604797 -0.0451432 -0.0779575 -0.00269093 -0.0610947 0.101223 -0.0872952 -0.00645322 -0.0168754 -0.0131196 -0.160911 0.0915753 -0.00923478 0.0344241 -0.111564 0.0201146 -0.0298378 -0.0150761 -0.0124245 0.0650779 0.0351652 -0.0107853 -0.0145266 -0.0729514 0.0107852 0.105357 0.0333622 -0.0231559 -0.076577 -0.0225756 -0.0150633 -0.0547486 0.0478532 0.016196 -0.0552583 0.00828205 -0.00613652 0.0354362 -0.000693966 -0.0182143 -0.0414836 0.026464 0.00688857 -0.0689882 0.00928754 0.0149677 0.0484324 0.0234559 0.0306135 0.00553497 0.112358 0.0448211 -0.126597
application -0.159018 -0.154075 -0.0361469 0.106592 -0.0111091 -0.0825699 0.0367097 0.0146508 -0.0822197 0.047924 -0.0383042 0.0917834 -0.0364493 -0.0393112 0.125406 -0.0684615 0.013727 -0.0274554 0.118683 0.0387853 0.121571 -0.0911317 -0.0388413 0.0330652 0.0439559 0.0110956 -0.00926198 0.0698666 0.0785223 0.0307289 0.00923589 -0.0678585 0.037648 -0.0617516 0.0144297 0.0910371 0.01886 0.00817411 0.0643837 -0.05316 -0.00448366 -0.0974029 -0.0235345 0.00431034 0.0183689 -0.00739541 0.0163954 0.013687 -0.0846693 0.0124346 0.00789321 0.0108981 -0.00598957 0.0681973 -0.0775597 0.0253416 -0.105467 -0.0352631 0.00348489 -0.00767467 -0.0731045 0.103581 -0.085609 0.0291906 0.0778229 0.0239935 0.0206159 -0.0709209 0.0291731 0.104366 -0.0291595 0.0609185 0.113129 -0.0733502 -0.0758066 0.0275469 0.0270778 0.066919 -0.140677 -0.075955 0.0574882 0.0956097 0.0244711 -0.0235316 0.0797245 -0.077092 0.0104096 -0.0132938 0.0642898 0.0769577 -0.0010349 0.0462498 -0.0459798 0.00210607 -0.00563807 -0.00995636 0.0238176 0.055463 0.053203 -0.0410449 0.0683822 -0.0516749 0.0141616 -0.0563258 0.00978643 -0.0478497 -0.0318689 -0.0412409 0.0391912 0.0186451 0.0416044 -0.0118314 0.0889712 -0.052439 -0.0221281 -0.0663199 0.0457904 0.0589543 0.00183038 -0.00716186 -0.00810539 -0.0917443 0.0170925 -0.0144967 0.0387836 0.0181041 -0.00864766 -0.0393695 0.0534896 -0.0346577 0.0615524 0.0150239 -0.109528 0.0188052 -0.0532947 0.0198813 -0.016151 0.0229393 -0.00516283 0.0762722 -0.0942382 0.0762882 0.00927027 -0.114303 -0.0115572 -0.0346803 0.0187434 0.0142206 0.00721204 0.0606551 -0.0640645 0.107032 -0.0377674 0.0933363 0.0152499 -0.0664597 0.0279854 -0.107174 0.0833729 -0.0599539 0.00197077 -0.0349369 0.0403667 0.0180911 0.00480587 0.0338164 0.00355357 0.0298771 -0.0249239 0.0545962 0.0524836 0.00929242 0.0324818 -0.0148789 -0.0459297 0.0965373 0.0151655 0.0341286 -0.0281912 -0.00575306 0.00126155 0.0142693 0.0750741 -0.0112396 -0.0530548 0.0727387 0.0998349 0.0126187 -0.104575 0.00769886 0.000348181 -0.0067062 -0.0389661 -0.049108 -0.0767397 0.05181 0.00566687 0.0191479 0.00234834 0.0220993 0.0123978 -0.0478397 -0.10073 0.0490138 -0.0249055 -0.148212 -0.0937078 0.00297166 -0.0266092 -0.0227398 0.0379721 -0.0272352 -0.016768 -0.0320853 -0.0369696 -0.0266751 0.00350879 0.0439556 -0.0463838 -0.0680461 0.0321817 -0.00246311 -0.0143748 -0.0373897 -0.0415332 0.0217745 -0.00474807 -0.0397626 -0.0135344 0.0735229 0.00690075 -0.00483185 -0.120738 0.0702566 0.0225986 0.0851247 0.0321632 -0.00881124 -0.0585717 0.0612069 0.0579865 -0.0329798 -0.082948 -0.0115221 -0.0995403 0.0877637 -0.056913 -0.130425 -0.051325 -0.0924801 -0.0641352 -0.0798955 0.0878932 -0.029717 -0.0080456 0.0373541 0.129519 -0.0661395 -0.00696979 -0.0239552 0.0373578 -0.0511468 -0.0288822 -0.0427024 0.0601058 0.0839803 0.0228618 0.00383876 0.0560475 0.0682025 -0.0220024 0.00413175 0.0352197 -0.0123495 -0.0315635 -0.0886297 -0.00294804 -0.0508096 -0.00464208 -0.00843837 0.0769413 -0.0453904 -0.0203654 0.0457125 0.0340581 0.00902835 0.0438867 -0.0532045 0.0890533 -0.0671849 0.0120004 -0.112781 0.015015 0.050092 0.109478 0.140651 0.125851 0.054331 -0.0243798 -0.117204
